<?xml version="1.0"?>
<opencv_storage>
<cascade>
  <stageType>BOOST</stageType>
  <featureType>HAAR</featureType>
  <height>24</height>
  <width>24</width>
  <stageParams>
    <boostType>GAB</boostType>
    <minHitRate>9.9500000476837158e-01</minHitRate>
    <maxFalseAlarm>5.0000000000000000e-01</maxFalseAlarm>
    <weightTrimRate>9.4999998807907104e-01</weightTrimRate>
    <maxDepth>1</maxDepth>
    <maxWeakCount>100</maxWeakCount></stageParams>
  <featureParams>
    <maxCatCount>0</maxCatCount>
    <featSize>1</featSize>
    <mode>BASIC</mode></featureParams>
  <stageNum>20</stageNum>
  <stages>
    <!-- stage 0 -->
    <_>
      <maxWeakCount>7</maxWeakCount>
      <stageThreshold>-8.3621597290039063e-01</stageThreshold>
      <weakClassifiers>
        <_>
          <internalNodes>
            0 -1 119 -9.2926342040300369e-03</internalNodes>
          <leafValues>
            7.3626375198364258e-01 -2.7899685502052307e-01</leafValues></_>
        <_>
          <internalNodes>
            0 -1 166 -7.5224684551358223e-03</internalNodes>
          <leafValues>
            7.0388871431350708e-01 -2.3025749623775482e-01</leafValues></_>
        <_>
          <internalNodes>
            0 -1 90 -1.8818406388163567e-02</internalNodes>
          <leafValues>
            8.2892280817031860e-01 -2.2640664875507355e-01</leafValues></_>
        <_>
          <internalNodes>
            0 -1 99 -5.2130334079265594e-03</internalNodes>
          <leafValues>
            8.4195017814636230e-01 -2.0456986129283905e-01</leafValues></_>
        <_>
          <internalNodes>
            0 -1 78 4.2568054050207138e-03</internalNodes>
          <leafValues>
            -3.3258378505706787e-01 5.9771203994750977e-01</leafValues></_>
        <_>
          <internalNodes>
            0 -1 109 4.6586226671934128e-03</internalNodes>
          <leafValues>
            -2.2109270095825195e-01 7.5851845741271973e-01</leafValues></_>
        <_>
          <internalNodes>
            0 -1 163 -4.5459009706974030e-03</internalNodes>
          <leafValues>
            6.5769135951995850e-01 -2.1375298500061035e-01</leafValues></_></weakClassifiers></_>
    <!-- stage 1 -->
    <_>
      <maxWeakCount>14</maxWeakCount>
      <stageThreshold>-1.1639139652252197e+00</stageThreshold>
      <weakClassifiers>
        <_>
          <internalNodes>
            0 -1 54 5.2869513630867004e-02</internalNodes>
          <leafValues>
            -2.4035608768463135e-01 8.0821919441223145e-01</leafValues></_>
        <_>
          <internalNodes>
            0 -1 154 2.2639315575361252e-02</internalNodes>
          <leafValues>
            -1.4889219403266907e-01 8.1963592767715454e-01</leafValues></_>
        <_>
          <internalNodes>
            0 -1 136 -1.0808672755956650e-02</internalNodes>
          <leafValues>
            6.4197379350662231e-01 -2.1394520998001099e-01</leafValues></_>
        <_>
          <internalNodes>
            0 -1 89 4.0417581796646118e-02</internalNodes>
          <leafValues>
            -1.7710478603839874e-01 8.5815483331680298e-01</leafValues></_>
        <_>
          <internalNodes>
            0 -1 92 1.6685856506228447e-02</internalNodes>
          <leafValues>
            -1.6416820883750916e-01 7.8104382753372192e-01</leafValues></_>
        <_>
          <internalNodes>
            0 -1 167 -9.3070371076464653e-04</internalNodes>
          <leafValues>
            -8.2492762804031372e-01 2.0604865252971649e-01</leafValues></_>
        <_>
          <internalNodes>
            0 -1 91 7.6522484421730042e-02</internalNodes>
          <leafValues>
            -1.1335682123899460e-01 8.7367808818817139e-01</leafValues></_>
        <_>
          <internalNodes>
            0 -1 183 -1.4082269743084908e-02</internalNodes>
          <leafValues>
            5.4551637172698975e-01 -2.3470798134803772e-01</leafValues></_>
        <_>
          <internalNodes>
            0 -1 98 -3.0108563601970673e-02</internalNodes>
          <leafValues>
            5.8075296878814697e-01 -2.3853264749050140e-01</leafValues></_>
        <_>
          <internalNodes>
            0 -1 93 1.5433292835950851e-02</internalNodes>
          <leafValues>
            -1.1912354826927185e-01 9.5893782377243042e-01</leafValues></_>
        <_>
          <internalNodes>
            0 -1 132 -2.5478907627984881e-04</internalNodes>
          <leafValues>
            -5.0152701139450073e-01 3.1560513377189636e-01</leafValues></_>
        <_>
          <internalNodes>
            0 -1 100 -1.5200042165815830e-02</internalNodes>
          <leafValues>
            7.6976937055587769e-01 -1.9256071746349335e-01</leafValues></_>
        <_>
          <internalNodes>
            0 -1 58 1.2512365356087685e-02</internalNodes>
          <leafValues>
            -1.4069883525371552e-01 8.7195706367492676e-01</leafValues></_>
        <_>
          <internalNodes>
            0 -1 145 -2.4778355145826936e-04</internalNodes>
          <leafValues>
            -5.2627080678939819e-01 2.9787924885749817e-01</leafValues></_></weakClassifiers></_>
    <!-- stage 2 -->
    <_>
      <maxWeakCount>10</maxWeakCount>
      <stageThreshold>-6.5393793582916260e-01</stageThreshold>
      <weakClassifiers>
        <_>
          <internalNodes>
            0 -1 36 -1.8675902858376503e-02</internalNodes>
          <leafValues>
            5.0387597084045410e-01 -3.0960854887962341e-01</leafValues></_>
        <_>
          <internalNodes>
            0 -1 159 -9.8059396259486675e-04</internalNodes>
          <leafValues>
            -6.7317754030227661e-01 2.4540710449218750e-01</leafValues></_>
        <_>
          <internalNodes>
            0 -1 84 2.5717452168464661e-02</internalNodes>
          <leafValues>
            -2.2018690407276154e-01 7.2703438997268677e-01</leafValues></_>
        <_>
          <internalNodes>
            0 -1 201 6.4099917653948069e-04</internalNodes>
          <leafValues>
            1.8627366423606873e-01 -7.3834985494613647e-01</leafValues></_>
        <_>
          <internalNodes>
            0 -1 195 -1.5665944665670395e-02</internalNodes>
          <leafValues>
            5.7648581266403198e-01 -2.2022834420204163e-01</leafValues></_>
        <_>
          <internalNodes>
            0 -1 182 4.0807448327541351e-02</internalNodes>
          <leafValues>
            -1.7114360630512238e-01 7.3316025733947754e-01</leafValues></_>
        <_>
          <internalNodes>
            0 -1 146 -1.1810031719505787e-04</internalNodes>
          <leafValues>
            -3.1521350145339966e-01 4.0844863653182983e-01</leafValues></_>
        <_>
          <internalNodes>
            0 -1 180 -4.0230266749858856e-02</internalNodes>
          <leafValues>
            7.2903114557266235e-01 -1.9241689145565033e-01</leafValues></_>
        <_>
          <internalNodes>
            0 -1 127 -5.0030434504151344e-03</internalNodes>
          <leafValues>
            5.7213205099105835e-01 -2.1424496173858643e-01</leafValues></_>
        <_>
          <internalNodes>
            0 -1 79 -1.6553342342376709e-02</internalNodes>
          <leafValues>
            8.6472910642623901e-01 -1.2815110385417938e-01</leafValues></_></weakClassifiers></_>
    <!-- stage 3 -->
    <_>
      <maxWeakCount>10</maxWeakCount>
      <stageThreshold>-8.8595020771026611e-01</stageThreshold>
      <weakClassifiers>
        <_>
          <internalNodes>
            0 -1 168 -1.3937780167907476e-03</internalNodes>
          <leafValues>
            -8.4126985073089600e-01 8.9337177574634552e-02</leafValues></_>
        <_>
          <internalNodes>
            0 -1 172 -1.7907120287418365e-02</internalNodes>
          <leafValues>
            5.6223493814468384e-01 -2.2595594823360443e-01</leafValues></_>
        <_>
          <internalNodes>
            0 -1 95 -4.0797442197799683e-02</internalNodes>
          <leafValues>
            8.3983850479125977e-01 -1.2103228271007538e-01</leafValues></_>
        <_>
          <internalNodes>
            0 -1 222 -5.1359127974137664e-04</internalNodes>
          <leafValues>
            -7.1383571624755859e-01 1.8980346620082855e-01</leafValues></_>
        <_>
          <internalNodes>
            0 -1 171 5.6127747520804405e-03</internalNodes>
          <leafValues>
            -2.1267679333686829e-01 6.2219500541687012e-01</leafValues></_>
        <_>
          <internalNodes>
            0 -1 40 1.6710165073163807e-04</internalNodes>
          <leafValues>
            1.9729775190353394e-01 -5.4331368207931519e-01</leafValues></_>
        <_>
          <internalNodes>
            0 -1 63 -1.8918626010417938e-02</internalNodes>
          <leafValues>
            6.0704833269119263e-01 -1.6773311793804169e-01</leafValues></_>
        <_>
          <internalNodes>
            0 -1 68 2.2693064063787460e-02</internalNodes>
          <leafValues>
            -1.5302735567092896e-01 7.6631933450698853e-01</leafValues></_>
        <_>
          <internalNodes>
            0 -1 121 -1.0677069425582886e-02</internalNodes>
          <leafValues>
            7.2819536924362183e-01 -1.5048487484455109e-01</leafValues></_>
        <_>
          <internalNodes>
            0 -1 102 -1.0754309187177569e-04</internalNodes>
          <leafValues>
            -3.3147820830345154e-01 3.5284578800201416e-01</leafValues></_></weakClassifiers></_>
    <!-- stage 4 -->
    <_>
      <maxWeakCount>9</maxWeakCount>
      <stageThreshold>-6.8566697835922241e-01</stageThreshold>
      <weakClassifiers>
        <_>
          <internalNodes>
            0 -1 94 3.7623099982738495e-02</internalNodes>
          <leafValues>
            -2.0348836481571198e-01 7.2727274894714355e-01</leafValues></_>
        <_>
          <internalNodes>
            0 -1 223 -1.0599850211292505e-03</internalNodes>
          <leafValues>
            -8.3578538894653320e-01 1.5952846407890320e-01</leafValues></_>
        <_>
          <internalNodes>
            0 -1 176 -3.9453782141208649e-02</internalNodes>
          <leafValues>
            8.3993923664093018e-01 -1.5462860465049744e-01</leafValues></_>
        <_>
          <internalNodes>
            0 -1 160 1.4133870718069375e-04</internalNodes>
          <leafValues>
            2.5960513949394226e-01 -4.7804969549179077e-01</leafValues></_>
        <_>
          <internalNodes>
            0 -1 140 2.3458998650312424e-02</internalNodes>
          <leafValues>
            -1.3273039460182190e-01 9.4951111078262329e-01</leafValues></_>
        <_>
          <internalNodes>
            0 -1 65 -2.0289883017539978e-02</internalNodes>
          <leafValues>
            8.1566864252090454e-01 -1.2543796002864838e-01</leafValues></_>
        <_>
          <internalNodes>
            0 -1 113 2.0522561680991203e-04</internalNodes>
          <leafValues>
            2.2243304550647736e-01 -4.9509352445602417e-01</leafValues></_>
        <_>
          <internalNodes>
            0 -1 116 1.0269115678966045e-02</internalNodes>
          <leafValues>
            -2.1801550686359406e-01 5.1615470647811890e-01</leafValues></_>
        <_>
          <internalNodes>
            0 -1 117 -1.9123541191220284e-02</internalNodes>
          <leafValues>
            6.4389526844024658e-01 -2.3178917169570923e-01</leafValues></_></weakClassifiers></_>
    <!-- stage 5 -->
    <_>
      <maxWeakCount>10</maxWeakCount>
      <stageThreshold>-7.4844837188720703e-01</stageThreshold>
      <weakClassifiers>
        <_>
          <internalNodes>
            0 -1 53 4.9692515283823013e-02</internalNodes>
          <leafValues>
            -2.4610592424869537e-01 6.4044946432113647e-01</leafValues></_>
        <_>
          <internalNodes>
            0 -1 131 1.3026293599978089e-03</internalNodes>
          <leafValues>
            1.8298882246017456e-01 -8.5607910156250000e-01</leafValues></_>
        <_>
          <internalNodes>
            0 -1 128 2.7070149779319763e-02</internalNodes>
          <leafValues>
            -2.5833663344383240e-01 5.0074255466461182e-01</leafValues></_>
        <_>
          <internalNodes>
            0 -1 0 1.1698019225150347e-03</internalNodes>
          <leafValues>
            1.7670030891895294e-01 -8.6399084329605103e-01</leafValues></_>
        <_>
          <internalNodes>
            0 -1 70 1.4931826852262020e-02</internalNodes>
          <leafValues>
            -1.6653296351432800e-01 8.3920866250991821e-01</leafValues></_>
        <_>
          <internalNodes>
            0 -1 208 -3.6227071541361511e-04</internalNodes>
          <leafValues>
            -4.3594372272491455e-01 2.6811727881431580e-01</leafValues></_>
        <_>
          <internalNodes>
            0 -1 221 -4.0492615662515163e-03</internalNodes>
          <leafValues>
            -5.8449125289916992e-01 1.9461074471473694e-01</leafValues></_>
        <_>
          <internalNodes>
            0 -1 18 1.5464212629012764e-04</internalNodes>
          <leafValues>
            2.2316983342170715e-01 -4.9470642209053040e-01</leafValues></_>
        <_>
          <internalNodes>
            0 -1 97 6.9901710376143456e-03</internalNodes>
          <leafValues>
            -2.2467553615570068e-01 5.2906942367553711e-01</leafValues></_>
        <_>
          <internalNodes>
            0 -1 33 -4.3180942535400391e-02</internalNodes>
          <leafValues>
            7.5690859556198120e-01 -1.9432333111763000e-01</leafValues></_></weakClassifiers></_>
    <!-- stage 6 -->
    <_>
      <maxWeakCount>14</maxWeakCount>
      <stageThreshold>-1.0631760358810425e+00</stageThreshold>
      <weakClassifiers>
        <_>
          <internalNodes>
            0 -1 29 -2.2542048827745020e-04</internalNodes>
          <leafValues>
            -4.7976878285408020e-01 2.5738397240638733e-01</leafValues></_>
        <_>
          <internalNodes>
            0 -1 164 1.5239145606756210e-02</internalNodes>
          <leafValues>
            -1.4800342917442322e-01 7.9155933856964111e-01</leafValues></_>
        <_>
          <internalNodes>
            0 -1 85 5.2534528076648712e-02</internalNodes>
          <leafValues>
            -1.2622961401939392e-01 8.9176023006439209e-01</leafValues></_>
        <_>
          <internalNodes>
            0 -1 216 3.8004593807272613e-04</internalNodes>
          <leafValues>
            2.1395049989223480e-01 -5.7867425680160522e-01</leafValues></_>
        <_>
          <internalNodes>
            0 -1 110 -8.0707594752311707e-03</internalNodes>
          <leafValues>
            6.1043500900268555e-01 -1.8104118108749390e-01</leafValues></_>
        <_>
          <internalNodes>
            0 -1 217 2.0236779528204352e-04</internalNodes>
          <leafValues>
            2.7223259210586548e-01 -4.2822751402854919e-01</leafValues></_>
        <_>
          <internalNodes>
            0 -1 25 3.0350987799465656e-03</internalNodes>
          <leafValues>
            1.7930307984352112e-01 -6.4426815509796143e-01</leafValues></_>
        <_>
          <internalNodes>
            0 -1 135 -1.1294344440102577e-02</internalNodes>
          <leafValues>
            7.3941212892532349e-01 -1.6282658278942108e-01</leafValues></_>
        <_>
          <internalNodes>
            0 -1 14 1.5027726069092751e-02</internalNodes>
          <leafValues>
            -1.6803710162639618e-01 6.2608760595321655e-01</leafValues></_>
        <_>
          <internalNodes>
            0 -1 139 4.2758588679134846e-03</internalNodes>
          <leafValues>
            -1.2876567244529724e-01 6.6456490755081177e-01</leafValues></_>
        <_>
          <internalNodes>
            0 -1 34 4.6681435196660459e-04</internalNodes>
          <leafValues>
            1.3951052725315094e-01 -7.3584252595901489e-01</leafValues></_>
        <_>
          <internalNodes>
            0 -1 96 3.7642788141965866e-02</internalNodes>
          <leafValues>
            -1.1378361284732819e-01 9.0822935104370117e-01</leafValues></_>
        <_>
          <internalNodes>
            0 -1 198 -1.6527231782674789e-02</internalNodes>
          <leafValues>
            7.0798444747924805e-01 -1.4473007619380951e-01</leafValues></_>
        <_>
          <internalNodes>
            0 -1 45 -1.6969559510471299e-05</internalNodes>
          <leafValues>
            -4.1676530241966248e-01 2.9924842715263367e-01</leafValues></_></weakClassifiers></_>
    <!-- stage 7 -->
    <_>
      <maxWeakCount>12</maxWeakCount>
      <stageThreshold>-7.6556223630905151e-01</stageThreshold>
      <weakClassifiers>
        <_>
          <internalNodes>
            0 -1 122 -2.6855483651161194e-02</internalNodes>
          <leafValues>
            4.9090909957885742e-01 -2.5333333015441895e-01</leafValues></_>
        <_>
          <internalNodes>
            0 -1 104 2.4136470165103674e-04</internalNodes>
          <leafValues>
            2.6927110552787781e-01 -4.3400022387504578e-01</leafValues></_>
        <_>
          <internalNodes>
            0 -1 209 3.3482266007922590e-04</internalNodes>
          <leafValues>
            2.6199907064437866e-01 -4.7747763991355896e-01</leafValues></_>
        <_>
          <internalNodes>
            0 -1 64 -1.1593578383326530e-02</internalNodes>
          <leafValues>
            5.5007326602935791e-01 -1.9376525282859802e-01</leafValues></_>
        <_>
          <internalNodes>
            0 -1 26 -3.3761139959096909e-02</internalNodes>
          <leafValues>
            7.0793503522872925e-01 -1.7792378365993500e-01</leafValues></_>
        <_>
          <internalNodes>
            0 -1 203 -2.6150833815336227e-02</internalNodes>
          <leafValues>
            5.7829403877258301e-01 -1.9544297456741333e-01</leafValues></_>
        <_>
          <internalNodes>
            0 -1 194 1.1561060091480613e-03</internalNodes>
          <leafValues>
            1.5335194766521454e-01 -7.1464174985885620e-01</leafValues></_>
        <_>
          <internalNodes>
            0 -1 41 -5.8158453612122685e-05</internalNodes>
          <leafValues>
            -3.7981101870536804e-01 2.8381773829460144e-01</leafValues></_>
        <_>
          <internalNodes>
            0 -1 204 1.0217605158686638e-02</internalNodes>
          <leafValues>
            -2.3987951874732971e-01 4.6653428673744202e-01</leafValues></_>
        <_>
          <internalNodes>
            0 -1 47 6.7198798060417175e-02</internalNodes>
          <leafValues>
            -2.5227940082550049e-01 4.7764998674392700e-01</leafValues></_>
        <_>
          <internalNodes>
            0 -1 7 -8.8121309876441956e-02</internalNodes>
          <leafValues>
            8.9821863174438477e-01 -1.2926921248435974e-01</leafValues></_>
        <_>
          <internalNodes>
            0 -1 86 -3.1852130778133869e-03</internalNodes>
          <leafValues>
            4.4736811518669128e-01 -2.3892924189567566e-01</leafValues></_></weakClassifiers></_>
    <!-- stage 8 -->
    <_>
      <maxWeakCount>11</maxWeakCount>
      <stageThreshold>-8.4248268604278564e-01</stageThreshold>
      <weakClassifiers>
        <_>
          <internalNodes>
            0 -1 16 4.5032976195216179e-03</internalNodes>
          <leafValues>
            1.4469453692436218e-01 -6.7676764726638794e-01</leafValues></_>
        <_>
          <internalNodes>
            0 -1 2 -6.1382036656141281e-03</internalNodes>
          <leafValues>
            -5.9857267141342163e-01 1.7671440541744232e-01</leafValues></_>
        <_>
          <internalNodes>
            0 -1 123 -7.8767184168100357e-03</internalNodes>
          <leafValues>
            5.5160903930664063e-01 -2.0646867156028748e-01</leafValues></_>
        <_>
          <internalNodes>
            0 -1 107 -2.4358092341572046e-03</internalNodes>
          <leafValues>
            7.1501863002777100e-01 -1.5511289238929749e-01</leafValues></_>
        <_>
          <internalNodes>
            0 -1 37 1.2228996492922306e-03</internalNodes>
          <leafValues>
            2.1060854196548462e-01 -5.9168761968612671e-01</leafValues></_>
        <_>
          <internalNodes>
            0 -1 177 8.2027341704815626e-04</internalNodes>
          <leafValues>
            1.8574041128158569e-01 -6.4343309402465820e-01</leafValues></_>
        <_>
          <internalNodes>
            0 -1 8 -8.1606302410364151e-03</internalNodes>
          <leafValues>
            5.7086455821990967e-01 -2.1500453352928162e-01</leafValues></_>
        <_>
          <internalNodes>
            0 -1 151 1.6601771116256714e-02</internalNodes>
          <leafValues>
            -2.4773202836513519e-01 5.0695979595184326e-01</leafValues></_>
        <_>
          <internalNodes>
            0 -1 215 1.3224480790086091e-04</internalNodes>
          <leafValues>
            2.5631633400917053e-01 -4.5788252353668213e-01</leafValues></_>
        <_>
          <internalNodes>
            0 -1 207 5.7176126574631780e-05</internalNodes>
          <leafValues>
            2.9846382141113281e-01 -3.7478408217430115e-01</leafValues></_>
        <_>
          <internalNodes>
            0 -1 31 8.0645270645618439e-03</internalNodes>
          <leafValues>
            2.1171879768371582e-01 -6.4604401588439941e-01</leafValues></_></weakClassifiers></_>
    <!-- stage 9 -->
    <_>
      <maxWeakCount>11</maxWeakCount>
      <stageThreshold>-5.8023303747177124e-01</stageThreshold>
      <weakClassifiers>
        <_>
          <internalNodes>
            0 -1 193 -7.0619140751659870e-04</internalNodes>
          <leafValues>
            -6.4705884456634521e-01 1.4285714924335480e-01</leafValues></_>
        <_>
          <internalNodes>
            0 -1 118 1.0496276617050171e-01</internalNodes>
          <leafValues>
            -1.6902515292167664e-01 7.7230161428451538e-01</leafValues></_>
        <_>
          <internalNodes>
            0 -1 174 6.2606355641037226e-04</internalNodes>
          <leafValues>
            1.8633362650871277e-01 -5.0672316551208496e-01</leafValues></_>
        <_>
          <internalNodes>
            0 -1 105 -3.1480258330702782e-03</internalNodes>
          <leafValues>
            6.7202275991439819e-01 -1.1866333335638046e-01</leafValues></_>
        <_>
          <internalNodes>
            0 -1 35 -4.1718076914548874e-02</internalNodes>
          <leafValues>
            6.2593543529510498e-01 -1.8267343938350677e-01</leafValues></_>
        <_>
          <internalNodes>
            0 -1 32 3.1992018222808838e-02</internalNodes>
          <leafValues>
            -2.7952954173088074e-01 4.0894642472267151e-01</leafValues></_>
        <_>
          <internalNodes>
            0 -1 220 -9.8588666878640652e-04</internalNodes>
          <leafValues>
            -5.7683718204498291e-01 2.0225812494754791e-01</leafValues></_>
        <_>
          <internalNodes>
            0 -1 156 -2.0823632366955280e-03</internalNodes>
          <leafValues>
            4.8265817761421204e-01 -2.5262346863746643e-01</leafValues></_>
        <_>
          <internalNodes>
            0 -1 48 -2.5747770443558693e-02</internalNodes>
          <leafValues>
            7.8225111961364746e-01 -1.4848631620407104e-01</leafValues></_>
        <_>
          <internalNodes>
            0 -1 186 -5.6315882829949260e-05</internalNodes>
          <leafValues>
            -4.0089055895805359e-01 3.1537359952926636e-01</leafValues></_>
        <_>
          <internalNodes>
            0 -1 55 -2.8950134292244911e-02</internalNodes>
          <leafValues>
            5.9323370456695557e-01 -1.8543496727943420e-01</leafValues></_></weakClassifiers></_>
    <!-- stage 10 -->
    <_>
      <maxWeakCount>11</maxWeakCount>
      <stageThreshold>-1.1019768714904785e+00</stageThreshold>
      <weakClassifiers>
        <_>
          <internalNodes>
            0 -1 120 -9.5437141135334969e-04</internalNodes>
          <leafValues>
            5.7777780294418335e-01 -2.3125000298023224e-01</leafValues></_>
        <_>
          <internalNodes>
            0 -1 114 8.6294189095497131e-03</internalNodes>
          <leafValues>
            1.5713031589984894e-01 -7.9077708721160889e-01</leafValues></_>
        <_>
          <internalNodes>
            0 -1 101 1.3342335587367415e-03</internalNodes>
          <leafValues>
            -1.8361216783523560e-01 6.5823608636856079e-01</leafValues></_>
        <_>
          <internalNodes>
            0 -1 165 -3.4218458458781242e-03</internalNodes>
          <leafValues>
            9.2735755443572998e-01 -1.0467379540205002e-01</leafValues></_>
        <_>
          <internalNodes>
            0 -1 103 -1.8612309941090643e-04</internalNodes>
          <leafValues>
            -5.0784277915954590e-01 2.9508399963378906e-01</leafValues></_>
        <_>
          <internalNodes>
            0 -1 20 5.5910754017531872e-03</internalNodes>
          <leafValues>
            -2.2727987170219421e-01 5.4026418924331665e-01</leafValues></_>
        <_>
          <internalNodes>
            0 -1 211 -4.9351667985320091e-03</internalNodes>
          <leafValues>
            6.3907200098037720e-01 -1.7141856253147125e-01</leafValues></_>
        <_>
          <internalNodes>
            0 -1 74 3.0634313588961959e-04</internalNodes>
          <leafValues>
            2.6120442152023315e-01 -5.2803778648376465e-01</leafValues></_>
        <_>
          <internalNodes>
            0 -1 82 2.5650486350059509e-04</internalNodes>
          <leafValues>
            2.0056138932704926e-01 -5.2216792106628418e-01</leafValues></_>
        <_>
          <internalNodes>
            0 -1 69 -1.3401656178757548e-03</internalNodes>
          <leafValues>
            4.7971656918525696e-01 -2.5198152661323547e-01</leafValues></_>
        <_>
          <internalNodes>
            0 -1 152 6.6502131521701813e-03</internalNodes>
          <leafValues>
            -1.4279735088348389e-01 7.7107530832290649e-01</leafValues></_></weakClassifiers></_>
    <!-- stage 11 -->
    <_>
      <maxWeakCount>11</maxWeakCount>
      <stageThreshold>-6.5961790084838867e-01</stageThreshold>
      <weakClassifiers>
        <_>
          <internalNodes>
            0 -1 61 -3.1446820497512817e-01</internalNodes>
          <leafValues>
            -7.9710143804550171e-01 9.6774190664291382e-02</leafValues></_>
        <_>
          <internalNodes>
            0 -1 49 4.6385399997234344e-02</internalNodes>
          <leafValues>
            -1.8163086473941803e-01 6.2956970930099487e-01</leafValues></_>
        <_>
          <internalNodes>
            0 -1 5 -8.6992233991622925e-02</internalNodes>
          <leafValues>
            7.4501699209213257e-01 -1.2862104177474976e-01</leafValues></_>
        <_>
          <internalNodes>
            0 -1 106 -8.3314433693885803e-02</internalNodes>
          <leafValues>
            7.0178550481796265e-01 -1.4097468554973602e-01</leafValues></_>
        <_>
          <internalNodes>
            0 -1 149 -4.6758942306041718e-02</internalNodes>
          <leafValues>
            6.3842153549194336e-01 -2.0711952447891235e-01</leafValues></_>
        <_>
          <internalNodes>
            0 -1 38 2.8252927586436272e-04</internalNodes>
          <leafValues>
            2.0639206469058990e-01 -5.4284828901290894e-01</leafValues></_>
        <_>
          <internalNodes>
            0 -1 71 -5.1542147994041443e-02</internalNodes>
          <leafValues>
            7.5706374645233154e-01 -1.6790142655372620e-01</leafValues></_>
        <_>
          <internalNodes>
            0 -1 51 2.7806196361780167e-02</internalNodes>
          <leafValues>
            -1.0189561545848846e-01 6.4454048871994019e-01</leafValues></_>
        <_>
          <internalNodes>
            0 -1 9 -1.7341233789920807e-02</internalNodes>
          <leafValues>
            7.4722790718078613e-01 -1.2911838293075562e-01</leafValues></_>
        <_>
          <internalNodes>
            0 -1 10 4.9993591383099556e-03</internalNodes>
          <leafValues>
            -2.2038991749286652e-01 5.1782339811325073e-01</leafValues></_>
        <_>
          <internalNodes>
            0 -1 1 -1.1038822412956506e-04</internalNodes>
          <leafValues>
            -4.0022277832031250e-01 3.1486728787422180e-01</leafValues></_></weakClassifiers></_>
    <!-- stage 12 -->
    <_>
      <maxWeakCount>11</maxWeakCount>
      <stageThreshold>-9.2944782972335815e-01</stageThreshold>
      <weakClassifiers>
        <_>
          <internalNodes>
            0 -1 11 2.5282194837927818e-03</internalNodes>
          <leafValues>
            9.8765432834625244e-02 -6.2790697813034058e-01</leafValues></_>
        <_>
          <internalNodes>
            0 -1 175 1.4110989286564291e-04</internalNodes>
          <leafValues>
            2.0251105725765228e-01 -4.0843451023101807e-01</leafValues></_>
        <_>
          <internalNodes>
            0 -1 157 -1.1132373474538326e-02</internalNodes>
          <leafValues>
            8.5715848207473755e-01 -8.0945111811161041e-02</leafValues></_>
        <_>
          <internalNodes>
            0 -1 170 2.6172775775194168e-02</internalNodes>
          <leafValues>
            -1.1415999382734299e-01 7.9881531000137329e-01</leafValues></_>
        <_>
          <internalNodes>
            0 -1 111 -2.6545615401118994e-03</internalNodes>
          <leafValues>
            5.2444756031036377e-01 -1.6320647299289703e-01</leafValues></_>
        <_>
          <internalNodes>
            0 -1 15 4.8095539212226868e-02</internalNodes>
          <leafValues>
            -1.7935986816883087e-01 5.7243520021438599e-01</leafValues></_>
        <_>
          <internalNodes>
            0 -1 22 1.7504056449979544e-04</internalNodes>
          <leafValues>
            2.6139223575592041e-01 -4.0817081928253174e-01</leafValues></_>
        <_>
          <internalNodes>
            0 -1 62 -3.6391898989677429e-02</internalNodes>
          <leafValues>
            6.0364043712615967e-01 -1.9182939827442169e-01</leafValues></_>
        <_>
          <internalNodes>
            0 -1 42 -1.1547853500815108e-04</internalNodes>
          <leafValues>
            -4.2132183909416199e-01 2.6823091506958008e-01</leafValues></_>
        <_>
          <internalNodes>
            0 -1 134 1.5513479593209922e-04</internalNodes>
          <leafValues>
            3.0613371729850769e-01 -3.2759553194046021e-01</leafValues></_>
        <_>
          <internalNodes>
            0 -1 148 -2.6806747540831566e-02</internalNodes>
          <leafValues>
            6.5586477518081665e-01 -1.5340569615364075e-01</leafValues></_></weakClassifiers></_>
    <!-- stage 13 -->
    <_>
      <maxWeakCount>11</maxWeakCount>
      <stageThreshold>-5.0989860296249390e-01</stageThreshold>
      <weakClassifiers>
        <_>
          <internalNodes>
            0 -1 39 -4.9005039036273956e-02</internalNodes>
          <leafValues>
            4.9056604504585266e-01 -2.4342104792594910e-01</leafValues></_>
        <_>
          <internalNodes>
            0 -1 168 5.5934616830199957e-04</internalNodes>
          <leafValues>
            1.9598056375980377e-01 -5.9122681617736816e-01</leafValues></_>
        <_>
          <internalNodes>
            0 -1 77 -2.4552904069423676e-02</internalNodes>
          <leafValues>
            6.8440842628479004e-01 -1.4142559468746185e-01</leafValues></_>
        <_>
          <internalNodes>
            0 -1 141 1.7292302101850510e-02</internalNodes>
          <leafValues>
            -1.0840895026922226e-01 7.4514579772949219e-01</leafValues></_>
        <_>
          <internalNodes>
            0 -1 130 3.0276635661721230e-03</internalNodes>
          <leafValues>
            1.2879095971584320e-01 -7.3540621995925903e-01</leafValues></_>
        <_>
          <internalNodes>
            0 -1 133 1.0720443725585938e-01</internalNodes>
          <leafValues>
            1.7026050388813019e-01 -6.4857161045074463e-01</leafValues></_>
        <_>
          <internalNodes>
            0 -1 169 -1.0784333571791649e-02</internalNodes>
          <leafValues>
            4.9811199307441711e-01 -2.2774624824523926e-01</leafValues></_>
        <_>
          <internalNodes>
            0 -1 214 1.8399697728455067e-04</internalNodes>
          <leafValues>
            1.7914095520973206e-01 -4.7418200969696045e-01</leafValues></_>
        <_>
          <internalNodes>
            0 -1 12 6.1260149814188480e-03</internalNodes>
          <leafValues>
            1.9354763627052307e-01 -6.1046993732452393e-01</leafValues></_>
        <_>
          <internalNodes>
            0 -1 43 1.6731712967157364e-02</internalNodes>
          <leafValues>
            -1.9587068259716034e-01 7.5221687555313110e-01</leafValues></_>
        <_>
          <internalNodes>
            0 -1 52 1.7962235957384109e-02</internalNodes>
          <leafValues>
            -2.8020223975181580e-01 3.5808545351028442e-01</leafValues></_></weakClassifiers></_>
    <!-- stage 14 -->
    <_>
      <maxWeakCount>16</maxWeakCount>
      <stageThreshold>-7.0634293556213379e-01</stageThreshold>
      <weakClassifiers>
        <_>
          <internalNodes>
            0 -1 73 -3.3771682064980268e-03</internalNodes>
          <leafValues>
            -5.0387597084045410e-01 1.5302491188049316e-01</leafValues></_>
        <_>
          <internalNodes>
            0 -1 189 -2.2965350653976202e-03</internalNodes>
          <leafValues>
            6.4975166320800781e-01 -1.4374850690364838e-01</leafValues></_>
        <_>
          <internalNodes>
            0 -1 138 -1.5378621174022555e-03</internalNodes>
          <leafValues>
            7.6384079456329346e-01 -9.6834875643253326e-02</leafValues></_>
        <_>
          <internalNodes>
            0 -1 115 1.2998600490391254e-02</internalNodes>
          <leafValues>
            1.0021612048149109e-01 -8.1722325086593628e-01</leafValues></_>
        <_>
          <internalNodes>
            0 -1 27 -8.9954463765025139e-03</internalNodes>
          <leafValues>
            -7.7820771932601929e-01 1.4629361033439636e-01</leafValues></_>
        <_>
          <internalNodes>
            0 -1 67 1.2963207438588142e-02</internalNodes>
          <leafValues>
            -2.0417802035808563e-01 5.8260953426361084e-01</leafValues></_>
        <_>
          <internalNodes>
            0 -1 155 -7.7585037797689438e-04</internalNodes>
          <leafValues>
            4.9416965246200562e-01 -1.4963527023792267e-01</leafValues></_>
        <_>
          <internalNodes>
            0 -1 30 -1.7266732454299927e-01</internalNodes>
          <leafValues>
            -6.6594302654266357e-01 1.1770458519458771e-01</leafValues></_>
        <_>
          <internalNodes>
            0 -1 143 1.1465002899058163e-04</internalNodes>
          <leafValues>
            -2.6582679152488708e-01 3.6056992411613464e-01</leafValues></_>
        <_>
          <internalNodes>
            0 -1 153 -1.5771878883242607e-02</internalNodes>
          <leafValues>
            7.3309892416000366e-01 -1.0121608525514603e-01</leafValues></_>
        <_>
          <internalNodes>
            0 -1 212 -1.2852821964770555e-04</internalNodes>
          <leafValues>
            4.1962060332298279e-01 -2.4116538465023041e-01</leafValues></_>
        <_>
          <internalNodes>
            0 -1 72 -1.1101367999799550e-04</internalNodes>
          <leafValues>
            -4.6737220883369446e-01 2.0248936116695404e-01</leafValues></_>
        <_>
          <internalNodes>
            0 -1 144 2.6696962304413319e-03</internalNodes>
          <leafValues>
            -2.5470247864723206e-01 3.9958080649375916e-01</leafValues></_>
        <_>
          <internalNodes>
            0 -1 137 5.8574473951011896e-04</internalNodes>
          <leafValues>
            -1.8246226012706757e-01 4.7749829292297363e-01</leafValues></_>
        <_>
          <internalNodes>
            0 -1 83 -1.7909763846546412e-03</internalNodes>
          <leafValues>
            4.2120620608329773e-01 -2.4829338490962982e-01</leafValues></_>
        <_>
          <internalNodes>
            0 -1 187 -3.7282486446201801e-03</internalNodes>
          <leafValues>
            6.5488564968109131e-01 -1.6440515220165253e-01</leafValues></_></weakClassifiers></_>
    <!-- stage 15 -->
    <_>
      <maxWeakCount>14</maxWeakCount>
      <stageThreshold>-1.0098435878753662e+00</stageThreshold>
      <weakClassifiers>
        <_>
          <internalNodes>
            0 -1 161 -1.1182634625583887e-03</internalNodes>
          <leafValues>
            -4.7222220897674561e-01 1.7293232679367065e-01</leafValues></_>
        <_>
          <internalNodes>
            0 -1 88 -1.2352792546153069e-03</internalNodes>
          <leafValues>
            8.4779423475265503e-01 -1.1120930314064026e-01</leafValues></_>
        <_>
          <internalNodes>
            0 -1 46 -3.0208788812160492e-03</internalNodes>
          <leafValues>
            -5.6086516380310059e-01 1.8057322502136230e-01</leafValues></_>
        <_>
          <internalNodes>
            0 -1 6 -6.5227234736084938e-03</internalNodes>
          <leafValues>
            4.4013717770576477e-01 -2.4102760851383209e-01</leafValues></_>
        <_>
          <internalNodes>
            0 -1 129 -3.6784584517590702e-04</internalNodes>
          <leafValues>
            -3.1306907534599304e-01 3.4941819310188293e-01</leafValues></_>
        <_>
          <internalNodes>
            0 -1 142 -2.0962986163794994e-03</internalNodes>
          <leafValues>
            6.1622482538223267e-01 -1.4428557455539703e-01</leafValues></_>
        <_>
          <internalNodes>
            0 -1 188 -1.0363463079556823e-03</internalNodes>
          <leafValues>
            8.2899343967437744e-01 -9.8714739084243774e-02</leafValues></_>
        <_>
          <internalNodes>
            0 -1 200 2.8933067806065083e-03</internalNodes>
          <leafValues>
            -1.5791679918766022e-01 5.8099788427352905e-01</leafValues></_>
        <_>
          <internalNodes>
            0 -1 178 1.6517264884896576e-04</internalNodes>
          <leafValues>
            -2.4813053011894226e-01 4.4477170705795288e-01</leafValues></_>
        <_>
          <internalNodes>
            0 -1 184 1.1224677291465923e-04</internalNodes>
          <leafValues>
            -2.6706805825233459e-01 3.6843684315681458e-01</leafValues></_>
        <_>
          <internalNodes>
            0 -1 202 -1.4193791430443525e-03</internalNodes>
          <leafValues>
            8.2814681529998779e-01 -1.5841172635555267e-01</leafValues></_>
        <_>
          <internalNodes>
            0 -1 21 5.5934730917215347e-03</internalNodes>
          <leafValues>
            2.2625380754470825e-01 -5.3587198257446289e-01</leafValues></_>
        <_>
          <internalNodes>
            0 -1 59 -1.7313748598098755e-02</internalNodes>
          <leafValues>
            3.8109648227691650e-01 -2.7406173944473267e-01</leafValues></_>
        <_>
          <internalNodes>
            0 -1 108 -1.4914688654243946e-03</internalNodes>
          <leafValues>
            5.4976361989974976e-01 -2.5687253475189209e-01</leafValues></_></weakClassifiers></_>
    <!-- stage 16 -->
    <_>
      <maxWeakCount>13</maxWeakCount>
      <stageThreshold>-7.8812491893768311e-01</stageThreshold>
      <weakClassifiers>
        <_>
          <internalNodes>
            0 -1 218 -1.0634881618898362e-04</internalNodes>
          <leafValues>
            5.4782611131668091e-01 -2.8813558816909790e-01</leafValues></_>
        <_>
          <internalNodes>
            0 -1 126 -6.7456201650202274e-03</internalNodes>
          <leafValues>
            4.3460965156555176e-01 -2.6588666439056396e-01</leafValues></_>
        <_>
          <internalNodes>
            0 -1 75 8.1144401337951422e-04</internalNodes>
          <leafValues>
            -2.2687251865863800e-01 5.6806856393814087e-01</leafValues></_>
        <_>
          <internalNodes>
            0 -1 210 -3.4681841498240829e-04</internalNodes>
          <leafValues>
            3.8071706891059875e-01 -2.3679347336292267e-01</leafValues></_>
        <_>
          <internalNodes>
            0 -1 23 2.0460975356400013e-03</internalNodes>
          <leafValues>
            -2.4107116460800171e-01 4.8028701543807983e-01</leafValues></_>
        <_>
          <internalNodes>
            0 -1 17 -5.6015206500887871e-03</internalNodes>
          <leafValues>
            -7.4857896566390991e-01 1.7814835906028748e-01</leafValues></_>
        <_>
          <internalNodes>
            0 -1 150 3.2650462817400694e-03</internalNodes>
          <leafValues>
            -2.4468611180782318e-01 4.4675832986831665e-01</leafValues></_>
        <_>
          <internalNodes>
            0 -1 190 -1.0836827568709850e-02</internalNodes>
          <leafValues>
            7.7679276466369629e-01 -1.3602781295776367e-01</leafValues></_>
        <_>
          <internalNodes>
            0 -1 181 -2.7468770742416382e-02</internalNodes>
          <leafValues>
            -8.2098782062530518e-01 1.4044234156608582e-01</leafValues></_>
        <_>
          <internalNodes>
            0 -1 191 7.9064906458370388e-05</internalNodes>
          <leafValues>
            -2.3041398823261261e-01 4.8096644878387451e-01</leafValues></_>
        <_>
          <internalNodes>
            0 -1 80 -7.9175876453518867e-03</internalNodes>
          <leafValues>
            6.4192610979080200e-01 -1.2499614804983139e-01</leafValues></_>
        <_>
          <internalNodes>
            0 -1 24 -2.4840068072080612e-03</internalNodes>
          <leafValues>
            -8.5698264837265015e-01 1.4000578224658966e-01</leafValues></_>
        <_>
          <internalNodes>
            0 -1 66 3.4749805927276611e-03</internalNodes>
          <leafValues>
            1.4748330414295197e-01 -6.0225194692611694e-01</leafValues></_></weakClassifiers></_>
    <!-- stage 17 -->
    <_>
      <maxWeakCount>14</maxWeakCount>
      <stageThreshold>-7.3290842771530151e-01</stageThreshold>
      <weakClassifiers>
        <_>
          <internalNodes>
            0 -1 50 1.0537926107645035e-02</internalNodes>
          <leafValues>
            -2.5000000000000000e-01 5.7142859697341919e-01</leafValues></_>
        <_>
          <internalNodes>
            0 -1 173 -2.6592464564600959e-05</internalNodes>
          <leafValues>
            5.2280032634735107e-01 -2.0749107003211975e-01</leafValues></_>
        <_>
          <internalNodes>
            0 -1 197 -3.3276472240686417e-03</internalNodes>
          <leafValues>
            3.5551548004150391e-01 -2.8948089480400085e-01</leafValues></_>
        <_>
          <internalNodes>
            0 -1 125 -1.6144649998750538e-04</internalNodes>
          <leafValues>
            3.3902746438980103e-01 -2.7091130614280701e-01</leafValues></_>
        <_>
          <internalNodes>
            0 -1 56 -2.8754929080605507e-03</internalNodes>
          <leafValues>
            4.3269526958465576e-01 -2.5870862603187561e-01</leafValues></_>
        <_>
          <internalNodes>
            0 -1 4 -8.0118747428059578e-03</internalNodes>
          <leafValues>
            -4.2698213458061218e-01 2.4589481949806213e-01</leafValues></_>
        <_>
          <internalNodes>
            0 -1 76 -9.1923971194773912e-04</internalNodes>
          <leafValues>
            6.7282545566558838e-01 -1.4822880923748016e-01</leafValues></_>
        <_>
          <internalNodes>
            0 -1 179 -2.2403653711080551e-02</internalNodes>
          <leafValues>
            4.8548898100852966e-01 -1.5984939038753510e-01</leafValues></_>
        <_>
          <internalNodes>
            0 -1 13 8.6884740740060806e-03</internalNodes>
          <leafValues>
            -1.8541744351387024e-01 5.4984366893768311e-01</leafValues></_>
        <_>
          <internalNodes>
            0 -1 60 2.7882643043994904e-03</internalNodes>
          <leafValues>
            2.0601592957973480e-01 -6.6051298379898071e-01</leafValues></_>
        <_>
          <internalNodes>
            0 -1 199 -6.3236532732844353e-03</internalNodes>
          <leafValues>
            7.2662818431854248e-01 -1.8975280225276947e-01</leafValues></_>
        <_>
          <internalNodes>
            0 -1 112 4.4966004788875580e-03</internalNodes>
          <leafValues>
            -9.0746618807315826e-02 6.8391370773315430e-01</leafValues></_>
        <_>
          <internalNodes>
            0 -1 57 1.1695951968431473e-01</internalNodes>
          <leafValues>
            -6.6151537001132965e-02 1.</leafValues></_>
        <_>
          <internalNodes>
            0 -1 81 1.2335447594523430e-02</internalNodes>
          <leafValues>
            -2.7321317791938782e-01 3.4323388338088989e-01</leafValues></_></weakClassifiers></_>
    <!-- stage 18 -->
    <_>
      <maxWeakCount>6</maxWeakCount>
      <stageThreshold>-1.0240838527679443e+00</stageThreshold>
      <weakClassifiers>
        <_>
          <internalNodes>
            0 -1 185 -1.7408849089406431e-05</internalNodes>
          <leafValues>
            8.2352942228317261e-01 -3.4415584802627563e-01</leafValues></_>
        <_>
          <internalNodes>
            0 -1 219 7.0626642554998398e-03</internalNodes>
          <leafValues>
            4.0746194124221802e-01 -4.7219589352607727e-01</leafValues></_>
        <_>
          <internalNodes>
            0 -1 162 1.5332941984524950e-05</internalNodes>
          <leafValues>
            -2.5397109985351563e-01 7.1707546710968018e-01</leafValues></_>
        <_>
          <internalNodes>
            0 -1 19 -6.2127910554409027e-02</internalNodes>
          <leafValues>
            7.7478635311126709e-01 -1.7434541881084442e-01</leafValues></_>
        <_>
          <internalNodes>
            0 -1 206 1.5872317817411385e-05</internalNodes>
          <leafValues>
            -3.4017872810363770e-01 4.7326028347015381e-01</leafValues></_>
        <_>
          <internalNodes>
            0 -1 196 4.0769563056528568e-03</internalNodes>
          <leafValues>
            -2.8024989366531372e-01 5.6076312065124512e-01</leafValues></_></weakClassifiers></_>
    <!-- stage 19 -->
    <_>
      <maxWeakCount>11</maxWeakCount>
      <stageThreshold>-6.4004135131835938e-01</stageThreshold>
      <weakClassifiers>
        <_>
          <internalNodes>
            0 -1 147 3.2967986044241115e-05</internalNodes>
          <leafValues>
            -2.9811319708824158e-01 3.9310345053672791e-01</leafValues></_>
        <_>
          <internalNodes>
            0 -1 192 -6.7465458996593952e-03</internalNodes>
          <leafValues>
            -7.2335392236709595e-01 1.3107030093669891e-01</leafValues></_>
        <_>
          <internalNodes>
            0 -1 87 3.9203485357575119e-05</internalNodes>
          <leafValues>
            -2.1765352785587311e-01 4.4819229841232300e-01</leafValues></_>
        <_>
          <internalNodes>
            0 -1 28 1.4780864119529724e-02</internalNodes>
          <leafValues>
            8.2907631993293762e-02 -9.3232446908950806e-01</leafValues></_>
        <_>
          <internalNodes>
            0 -1 41 1.3364816550165415e-04</internalNodes>
          <leafValues>
            -2.4974107742309570e-01 4.0350720286369324e-01</leafValues></_>
        <_>
          <internalNodes>
            0 -1 124 -5.5462273303419352e-04</internalNodes>
          <leafValues>
            5.2019000053405762e-01 -2.1260271966457367e-01</leafValues></_>
        <_>
          <internalNodes>
            0 -1 3 5.8003691956400871e-03</internalNodes>
          <leafValues>
            2.2005845606327057e-01 -4.9202138185501099e-01</leafValues></_>
        <_>
          <internalNodes>
            0 -1 213 3.9722800254821777e-02</internalNodes>
          <leafValues>
            1.0622976720333099e-01 -9.6186894178390503e-01</leafValues></_>
        <_>
          <internalNodes>
            0 -1 44 8.7464861280750483e-05</internalNodes>
          <leafValues>
            -2.5056806206703186e-01 4.0011432766914368e-01</leafValues></_>
        <_>
          <internalNodes>
            0 -1 205 8.9483743067830801e-05</internalNodes>
          <leafValues>
            -2.9192662239074707e-01 3.1056019663810730e-01</leafValues></_>
        <_>
          <internalNodes>
            0 -1 158 -1.0297792032361031e-03</internalNodes>
          <leafValues>
            3.4900233149528503e-01 -2.6218906044960022e-01</leafValues></_></weakClassifiers></_></stages>
  <features>
    <_>
      <rects>
        <_>
          0 0 1 3 -1.</_>
        <_>
          0 1 1 1 3.</_></rects>
      <tilted>0</tilted></_>
    <_>
      <rects>
        <_>
          0 0 8 5 -1.</_>
        <_>
          4 0 4 5 2.</_></rects>
      <tilted>0</tilted></_>
    <_>
      <rects>
        <_>
          0 0 15 1 -1.</_>
        <_>
          5 0 5 1 3.</_></rects>
      <tilted>0</tilted></_>
    <_>
      <rects>
        <_>
          0 0 20 1 -1.</_>
        <_>
          10 0 10 1 2.</_></rects>
      <tilted>0</tilted></_>
    <_>
      <rects>
        <_>
          0 0 22 2 -1.</_>
        <_>
          11 0 11 2 2.</_></rects>
      <tilted>0</tilted></_>
    <_>
      <rects>
        <_>
          0 0 23 8 -1.</_>
        <_>
          0 4 23 4 2.</_></rects>
      <tilted>0</tilted></_>
    <_>
      <rects>
        <_>
          0 1 6 16 -1.</_>
        <_>
          0 1 3 8 2.</_>
        <_>
          3 9 3 8 2.</_></rects>
      <tilted>0</tilted></_>
    <_>
      <rects>
        <_>
          0 1 12 23 -1.</_>
        <_>
          4 1 4 23 3.</_></rects>
      <tilted>0</tilted></_>
    <_>
      <rects>
        <_>
          0 2 4 16 -1.</_>
        <_>
          0 2 2 8 2.</_>
        <_>
          2 10 2 8 2.</_></rects>
      <tilted>0</tilted></_>
    <_>
      <rects>
        <_>
          0 3 4 19 -1.</_>
        <_>
          2 3 2 19 2.</_></rects>
      <tilted>0</tilted></_>
    <_>
      <rects>
        <_>
          0 4 6 5 -1.</_>
        <_>
          2 4 2 5 3.</_></rects>
      <tilted>0</tilted></_>
    <_>
      <rects>
        <_>
          0 5 1 6 -1.</_>
        <_>
          0 7 1 2 3.</_></rects>
      <tilted>0</tilted></_>
    <_>
      <rects>
        <_>
          0 5 1 12 -1.</_>
        <_>
          0 11 1 6 2.</_></rects>
      <tilted>0</tilted></_>
    <_>
      <rects>
        <_>
          0 5 4 12 -1.</_>
        <_>
          2 5 2 12 2.</_></rects>
      <tilted>0</tilted></_>
    <_>
      <rects>
        <_>
          0 6 6 13 -1.</_>
        <_>
          2 6 2 13 3.</_></rects>
      <tilted>0</tilted></_>
    <_>
      <rects>
        <_>
          0 6 8 14 -1.</_>
        <_>
          4 6 4 14 2.</_></rects>
      <tilted>0</tilted></_>
    <_>
      <rects>
        <_>
          0 7 1 12 -1.</_>
        <_>
          0 11 1 4 3.</_></rects>
      <tilted>0</tilted></_>
    <_>
      <rects>
        <_>
          0 8 1 9 -1.</_>
        <_>
          0 11 1 3 3.</_></rects>
      <tilted>0</tilted></_>
    <_>
      <rects>
        <_>
          0 9 1 3 -1.</_>
        <_>
          0 10 1 1 3.</_></rects>
      <tilted>0</tilted></_>
    <_>
      <rects>
        <_>
          0 9 14 14 -1.</_>
        <_>
          0 9 7 7 2.</_>
        <_>
          7 16 7 7 2.</_></rects>
      <tilted>0</tilted></_>
    <_>
      <rects>
        <_>
          0 10 20 3 -1.</_>
        <_>
          0 11 20 1 3.</_></rects>
      <tilted>0</tilted></_>
    <_>
      <rects>
        <_>
          0 12 2 8 -1.</_>
        <_>
          0 16 2 4 2.</_></rects>
      <tilted>0</tilted></_>
    <_>
      <rects>
        <_>
          0 13 2 3 -1.</_>
        <_>
          0 14 2 1 3.</_></rects>
      <tilted>0</tilted></_>
    <_>
      <rects>
        <_>
          0 13 4 8 -1.</_>
        <_>
          0 13 2 4 2.</_>
        <_>
          2 17 2 4 2.</_></rects>
      <tilted>0</tilted></_>
    <_>
      <rects>
        <_>
          0 14 1 6 -1.</_>
        <_>
          0 16 1 2 3.</_></rects>
      <tilted>0</tilted></_>
    <_>
      <rects>
        <_>
          0 14 1 9 -1.</_>
        <_>
          0 17 1 3 3.</_></rects>
      <tilted>0</tilted></_>
    <_>
      <rects>
        <_>
          0 15 12 5 -1.</_>
        <_>
          4 15 4 5 3.</_></rects>
      <tilted>0</tilted></_>
    <_>
      <rects>
        <_>
          0 20 8 4 -1.</_>
        <_>
          0 20 4 2 2.</_>
        <_>
          4 22 4 2 2.</_></rects>
      <tilted>0</tilted></_>
    <_>
      <rects>
        <_>
          0 23 15 1 -1.</_>
        <_>
          5 23 5 1 3.</_></rects>
      <tilted>0</tilted></_>
    <_>
      <rects>
        <_>
          1 0 18 1 -1.</_>
        <_>
          10 0 9 1 2.</_></rects>
      <tilted>0</tilted></_>
    <_>
      <rects>
        <_>
          1 0 22 16 -1.</_>
        <_>
          12 0 11 16 2.</_></rects>
      <tilted>0</tilted></_>
    <_>
      <rects>
        <_>
          1 7 2 9 -1.</_>
        <_>
          1 10 2 3 3.</_></rects>
      <tilted>0</tilted></_>
    <_>
      <rects>
        <_>
          1 7 16 15 -1.</_>
        <_>
          1 12 16 5 3.</_></rects>
      <tilted>0</tilted></_>
    <_>
      <rects>
        <_>
          1 8 20 6 -1.</_>
        <_>
          1 8 10 3 2.</_>
        <_>
          11 11 10 3 2.</_></rects>
      <tilted>0</tilted></_>
    <_>
      <rects>
        <_>
          1 10 1 2 -1.</_>
        <_>
          1 11 1 1 2.</_></rects>
      <tilted>0</tilted></_>
    <_>
      <rects>
        <_>
          1 10 16 12 -1.</_>
        <_>
          1 14 16 4 3.</_></rects>
      <tilted>0</tilted></_>
    <_>
      <rects>
        <_>
          1 11 12 10 -1.</_>
        <_>
          1 11 6 5 2.</_>
        <_>
          7 16 6 5 2.</_></rects>
      <tilted>0</tilted></_>
    <_>
      <rects>
        <_>
          1 12 1 4 -1.</_>
        <_>
          1 14 1 2 2.</_></rects>
      <tilted>0</tilted></_>
    <_>
      <rects>
        <_>
          1 14 1 3 -1.</_>
        <_>
          1 15 1 1 3.</_></rects>
      <tilted>0</tilted></_>
    <_>
      <rects>
        <_>
          1 15 23 8 -1.</_>
        <_>
          1 19 23 4 2.</_></rects>
      <tilted>0</tilted></_>
    <_>
      <rects>
        <_>
          1 16 2 2 -1.</_>
        <_>
          1 16 1 1 2.</_>
        <_>
          2 17 1 1 2.</_></rects>
      <tilted>0</tilted></_>
    <_>
      <rects>
        <_>
          1 19 2 2 -1.</_>
        <_>
          2 19 1 2 2.</_></rects>
      <tilted>0</tilted></_>
    <_>
      <rects>
        <_>
          1 19 3 3 -1.</_>
        <_>
          2 19 1 3 3.</_></rects>
      <tilted>0</tilted></_>
    <_>
      <rects>
        <_>
          1 20 17 4 -1.</_>
        <_>
          1 22 17 2 2.</_></rects>
      <tilted>0</tilted></_>
    <_>
      <rects>
        <_>
          2 0 2 2 -1.</_>
        <_>
          3 0 1 2 2.</_></rects>
      <tilted>0</tilted></_>
    <_>
      <rects>
        <_>
          2 0 12 1 -1.</_>
        <_>
          8 0 6 1 2.</_></rects>
      <tilted>0</tilted></_>
    <_>
      <rects>
        <_>
          2 0 18 1 -1.</_>
        <_>
          8 0 6 1 3.</_></rects>
      <tilted>0</tilted></_>
    <_>
      <rects>
        <_>
          2 0 12 24 -1.</_>
        <_>
          2 8 12 8 3.</_></rects>
      <tilted>0</tilted></_>
    <_>
      <rects>
        <_>
          2 0 22 4 -1.</_>
        <_>
          2 2 22 2 2.</_></rects>
      <tilted>0</tilted></_>
    <_>
      <rects>
        <_>
          2 1 22 9 -1.</_>
        <_>
          2 4 22 3 3.</_></rects>
      <tilted>0</tilted></_>
    <_>
      <rects>
        <_>
          2 6 4 16 -1.</_>
        <_>
          4 6 2 16 2.</_></rects>
      <tilted>0</tilted></_>
    <_>
      <rects>
        <_>
          2 8 9 12 -1.</_>
        <_>
          5 8 3 12 3.</_></rects>
      <tilted>0</tilted></_>
    <_>
      <rects>
        <_>
          2 8 17 15 -1.</_>
        <_>
          2 13 17 5 3.</_></rects>
      <tilted>0</tilted></_>
    <_>
      <rects>
        <_>
          2 9 8 15 -1.</_>
        <_>
          2 14 8 5 3.</_></rects>
      <tilted>0</tilted></_>
    <_>
      <rects>
        <_>
          2 10 15 5 -1.</_>
        <_>
          7 10 5 5 3.</_></rects>
      <tilted>0</tilted></_>
    <_>
      <rects>
        <_>
          2 10 21 9 -1.</_>
        <_>
          2 13 21 3 3.</_></rects>
      <tilted>0</tilted></_>
    <_>
      <rects>
        <_>
          2 13 4 8 -1.</_>
        <_>
          2 17 4 4 2.</_></rects>
      <tilted>0</tilted></_>
    <_>
      <rects>
        <_>
          3 0 15 12 -1.</_>
        <_>
          3 6 15 6 2.</_></rects>
      <tilted>0</tilted></_>
    <_>
      <rects>
        <_>
          3 12 8 4 -1.</_>
        <_>
          3 12 4 2 2.</_>
        <_>
          7 14 4 2 2.</_></rects>
      <tilted>0</tilted></_>
    <_>
      <rects>
        <_>
          3 12 21 4 -1.</_>
        <_>
          10 12 7 4 3.</_></rects>
      <tilted>0</tilted></_>
    <_>
      <rects>
        <_>
          3 20 6 3 -1.</_>
        <_>
          3 21 6 1 3.</_></rects>
      <tilted>0</tilted></_>
    <_>
      <rects>
        <_>
          4 0 13 24 -1.</_>
        <_>
          4 12 13 12 2.</_></rects>
      <tilted>0</tilted></_>
    <_>
      <rects>
        <_>
          4 3 12 13 -1.</_>
        <_>
          8 3 4 13 3.</_></rects>
      <tilted>0</tilted></_>
    <_>
      <rects>
        <_>
          4 5 2 15 -1.</_>
        <_>
          4 10 2 5 3.</_></rects>
      <tilted>0</tilted></_>
    <_>
      <rects>
        <_>
          4 6 9 6 -1.</_>
        <_>
          4 8 9 2 3.</_></rects>
      <tilted>0</tilted></_>
    <_>
      <rects>
        <_>
          4 7 3 9 -1.</_>
        <_>
          4 10 3 3 3.</_></rects>
      <tilted>0</tilted></_>
    <_>
      <rects>
        <_>
          4 9 3 10 -1.</_>
        <_>
          5 9 1 10 3.</_></rects>
      <tilted>0</tilted></_>
    <_>
      <rects>
        <_>
          4 10 8 4 -1.</_>
        <_>
          4 10 4 2 2.</_>
        <_>
          8 12 4 2 2.</_></rects>
      <tilted>0</tilted></_>
    <_>
      <rects>
        <_>
          4 11 8 6 -1.</_>
        <_>
          4 11 4 3 2.</_>
        <_>
          8 14 4 3 2.</_></rects>
      <tilted>0</tilted></_>
    <_>
      <rects>
        <_>
          4 12 2 6 -1.</_>
        <_>
          4 14 2 2 3.</_></rects>
      <tilted>0</tilted></_>
    <_>
      <rects>
        <_>
          4 13 12 1 -1.</_>
        <_>
          8 13 4 1 3.</_></rects>
      <tilted>0</tilted></_>
    <_>
      <rects>
        <_>
          4 16 14 8 -1.</_>
        <_>
          4 16 7 4 2.</_>
        <_>
          11 20 7 4 2.</_></rects>
      <tilted>0</tilted></_>
    <_>
      <rects>
        <_>
          4 23 3 1 -1.</_>
        <_>
          5 23 1 1 3.</_></rects>
      <tilted>0</tilted></_>
    <_>
      <rects>
        <_>
          4 23 18 1 -1.</_>
        <_>
          10 23 6 1 3.</_></rects>
      <tilted>0</tilted></_>
    <_>
      <rects>
        <_>
          5 0 3 1 -1.</_>
        <_>
          6 0 1 1 3.</_></rects>
      <tilted>0</tilted></_>
    <_>
      <rects>
        <_>
          5 2 3 3 -1.</_>
        <_>
          5 3 3 1 3.</_></rects>
      <tilted>0</tilted></_>
    <_>
      <rects>
        <_>
          5 4 3 1 -1.</_>
        <_>
          6 4 1 1 3.</_></rects>
      <tilted>0</tilted></_>
    <_>
      <rects>
        <_>
          5 6 6 6 -1.</_>
        <_>
          5 9 6 3 2.</_></rects>
      <tilted>0</tilted></_>
    <_>
      <rects>
        <_>
          5 7 10 4 -1.</_>
        <_>
          5 7 5 2 2.</_>
        <_>
          10 9 5 2 2.</_></rects>
      <tilted>0</tilted></_>
    <_>
      <rects>
        <_>
          5 14 9 2 -1.</_>
        <_>
          8 14 3 2 3.</_></rects>
      <tilted>0</tilted></_>
    <_>
      <rects>
        <_>
          5 16 4 6 -1.</_>
        <_>
          5 18 4 2 3.</_></rects>
      <tilted>0</tilted></_>
    <_>
      <rects>
        <_>
          6 0 15 7 -1.</_>
        <_>
          11 0 5 7 3.</_></rects>
      <tilted>0</tilted></_>
    <_>
      <rects>
        <_>
          6 1 2 1 -1.</_>
        <_>
          7 1 1 1 2.</_></rects>
      <tilted>0</tilted></_>
    <_>
      <rects>
        <_>
          6 8 2 12 -1.</_>
        <_>
          6 8 1 6 2.</_>
        <_>
          7 14 1 6 2.</_></rects>
      <tilted>0</tilted></_>
    <_>
      <rects>
        <_>
          6 9 6 14 -1.</_>
        <_>
          6 9 3 7 2.</_>
        <_>
          9 16 3 7 2.</_></rects>
      <tilted>0</tilted></_>
    <_>
      <rects>
        <_>
          6 10 8 10 -1.</_>
        <_>
          6 10 4 5 2.</_>
        <_>
          10 15 4 5 2.</_></rects>
      <tilted>0</tilted></_>
    <_>
      <rects>
        <_>
          6 13 6 3 -1.</_>
        <_>
          9 13 3 3 2.</_></rects>
      <tilted>0</tilted></_>
    <_>
      <rects>
        <_>
          6 16 2 2 -1.</_>
        <_>
          6 16 1 1 2.</_>
        <_>
          7 17 1 1 2.</_></rects>
      <tilted>0</tilted></_>
    <_>
      <rects>
        <_>
          6 18 2 2 -1.</_>
        <_>
          6 18 1 1 2.</_>
        <_>
          7 19 1 1 2.</_></rects>
      <tilted>0</tilted></_>
    <_>
      <rects>
        <_>
          7 3 4 15 -1.</_>
        <_>
          7 8 4 5 3.</_></rects>
      <tilted>0</tilted></_>
    <_>
      <rects>
        <_>
          7 4 6 10 -1.</_>
        <_>
          7 4 3 5 2.</_>
        <_>
          10 9 3 5 2.</_></rects>
      <tilted>0</tilted></_>
    <_>
      <rects>
        <_>
          7 4 15 9 -1.</_>
        <_>
          12 4 5 9 3.</_></rects>
      <tilted>0</tilted></_>
    <_>
      <rects>
        <_>
          7 4 16 4 -1.</_>
        <_>
          7 4 8 2 2.</_>
        <_>
          15 6 8 2 2.</_></rects>
      <tilted>0</tilted></_>
    <_>
      <rects>
        <_>
          7 7 8 4 -1.</_>
        <_>
          7 7 4 2 2.</_>
        <_>
          11 9 4 2 2.</_></rects>
      <tilted>0</tilted></_>
    <_>
      <rects>
        <_>
          7 8 3 12 -1.</_>
        <_>
          7 12 3 4 3.</_></rects>
      <tilted>0</tilted></_>
    <_>
      <rects>
        <_>
          7 8 10 8 -1.</_>
        <_>
          7 8 5 4 2.</_>
        <_>
          12 12 5 4 2.</_></rects>
      <tilted>0</tilted></_>
    <_>
      <rects>
        <_>
          7 9 3 9 -1.</_>
        <_>
          7 12 3 3 3.</_></rects>
      <tilted>0</tilted></_>
    <_>
      <rects>
        <_>
          7 10 8 4 -1.</_>
        <_>
          7 10 4 2 2.</_>
        <_>
          11 12 4 2 2.</_></rects>
      <tilted>0</tilted></_>
    <_>
      <rects>
        <_>
          7 10 12 11 -1.</_>
        <_>
          11 10 4 11 3.</_></rects>
      <tilted>0</tilted></_>
    <_>
      <rects>
        <_>
          7 11 3 6 -1.</_>
        <_>
          7 13 3 2 3.</_></rects>
      <tilted>0</tilted></_>
    <_>
      <rects>
        <_>
          7 11 4 9 -1.</_>
        <_>
          7 14 4 3 3.</_></rects>
      <tilted>0</tilted></_>
    <_>
      <rects>
        <_>
          7 12 1 3 -1.</_>
        <_>
          7 13 1 1 3.</_></rects>
      <tilted>0</tilted></_>
    <_>
      <rects>
        <_>
          7 23 6 1 -1.</_>
        <_>
          9 23 2 1 3.</_></rects>
      <tilted>0</tilted></_>
    <_>
      <rects>
        <_>
          8 0 2 1 -1.</_>
        <_>
          9 0 1 1 2.</_></rects>
      <tilted>0</tilted></_>
    <_>
      <rects>
        <_>
          8 0 3 2 -1.</_>
        <_>
          9 0 1 2 3.</_></rects>
      <tilted>0</tilted></_>
    <_>
      <rects>
        <_>
          8 8 1 6 -1.</_>
        <_>
          8 10 1 2 3.</_></rects>
      <tilted>0</tilted></_>
    <_>
      <rects>
        <_>
          8 10 13 12 -1.</_>
        <_>
          8 16 13 6 2.</_></rects>
      <tilted>0</tilted></_>
    <_>
      <rects>
        <_>
          8 14 4 2 -1.</_>
        <_>
          8 14 2 1 2.</_>
        <_>
          10 15 2 1 2.</_></rects>
      <tilted>0</tilted></_>
    <_>
      <rects>
        <_>
          8 14 6 2 -1.</_>
        <_>
          8 14 3 1 2.</_>
        <_>
          11 15 3 1 2.</_></rects>
      <tilted>0</tilted></_>
    <_>
      <rects>
        <_>
          8 14 6 4 -1.</_>
        <_>
          8 14 3 2 2.</_>
        <_>
          11 16 3 2 2.</_></rects>
      <tilted>0</tilted></_>
    <_>
      <rects>
        <_>
          8 14 3 9 -1.</_>
        <_>
          8 17 3 3 3.</_></rects>
      <tilted>0</tilted></_>
    <_>
      <rects>
        <_>
          8 17 4 6 -1.</_>
        <_>
          8 17 2 3 2.</_>
        <_>
          10 20 2 3 2.</_></rects>
      <tilted>0</tilted></_>
    <_>
      <rects>
        <_>
          8 22 16 2 -1.</_>
        <_>
          8 23 16 1 2.</_></rects>
      <tilted>0</tilted></_>
    <_>
      <rects>
        <_>
          8 23 3 1 -1.</_>
        <_>
          9 23 1 1 3.</_></rects>
      <tilted>0</tilted></_>
    <_>
      <rects>
        <_>
          8 23 12 1 -1.</_>
        <_>
          12 23 4 1 3.</_></rects>
      <tilted>0</tilted></_>
    <_>
      <rects>
        <_>
          9 0 15 1 -1.</_>
        <_>
          14 0 5 1 3.</_></rects>
      <tilted>0</tilted></_>
    <_>
      <rects>
        <_>
          9 1 4 9 -1.</_>
        <_>
          9 4 4 3 3.</_></rects>
      <tilted>0</tilted></_>
    <_>
      <rects>
        <_>
          9 1 13 9 -1.</_>
        <_>
          9 4 13 3 3.</_></rects>
      <tilted>0</tilted></_>
    <_>
      <rects>
        <_>
          9 2 4 21 -1.</_>
        <_>
          9 9 4 7 3.</_></rects>
      <tilted>0</tilted></_>
    <_>
      <rects>
        <_>
          9 6 4 6 -1.</_>
        <_>
          9 8 4 2 3.</_></rects>
      <tilted>0</tilted></_>
    <_>
      <rects>
        <_>
          9 10 1 3 -1.</_>
        <_>
          9 11 1 1 3.</_></rects>
      <tilted>0</tilted></_>
    <_>
      <rects>
        <_>
          9 10 6 2 -1.</_>
        <_>
          12 10 3 2 2.</_></rects>
      <tilted>0</tilted></_>
    <_>
      <rects>
        <_>
          9 10 15 3 -1.</_>
        <_>
          14 10 5 3 3.</_></rects>
      <tilted>0</tilted></_>
    <_>
      <rects>
        <_>
          9 10 5 9 -1.</_>
        <_>
          9 13 5 3 3.</_></rects>
      <tilted>0</tilted></_>
    <_>
      <rects>
        <_>
          9 11 2 2 -1.</_>
        <_>
          9 11 1 1 2.</_>
        <_>
          10 12 1 1 2.</_></rects>
      <tilted>0</tilted></_>
    <_>
      <rects>
        <_>
          9 11 4 4 -1.</_>
        <_>
          9 11 2 2 2.</_>
        <_>
          11 13 2 2 2.</_></rects>
      <tilted>0</tilted></_>
    <_>
      <rects>
        <_>
          9 11 5 12 -1.</_>
        <_>
          9 17 5 6 2.</_></rects>
      <tilted>0</tilted></_>
    <_>
      <rects>
        <_>
          9 13 4 3 -1.</_>
        <_>
          11 13 2 3 2.</_></rects>
      <tilted>0</tilted></_>
    <_>
      <rects>
        <_>
          9 13 15 6 -1.</_>
        <_>
          14 13 5 6 3.</_></rects>
      <tilted>0</tilted></_>
    <_>
      <rects>
        <_>
          9 18 7 6 -1.</_>
        <_>
          9 20 7 2 3.</_></rects>
      <tilted>0</tilted></_>
    <_>
      <rects>
        <_>
          9 22 6 1 -1.</_>
        <_>
          11 22 2 1 3.</_></rects>
      <tilted>0</tilted></_>
    <_>
      <rects>
        <_>
          9 23 2 1 -1.</_>
        <_>
          10 23 1 1 2.</_></rects>
      <tilted>0</tilted></_>
    <_>
      <rects>
        <_>
          9 23 6 1 -1.</_>
        <_>
          11 23 2 1 3.</_></rects>
      <tilted>0</tilted></_>
    <_>
      <rects>
        <_>
          10 0 14 12 -1.</_>
        <_>
          17 0 7 12 2.</_></rects>
      <tilted>0</tilted></_>
    <_>
      <rects>
        <_>
          10 1 3 3 -1.</_>
        <_>
          11 1 1 3 3.</_></rects>
      <tilted>0</tilted></_>
    <_>
      <rects>
        <_>
          10 4 4 8 -1.</_>
        <_>
          10 4 2 4 2.</_>
        <_>
          12 8 2 4 2.</_></rects>
      <tilted>0</tilted></_>
    <_>
      <rects>
        <_>
          10 6 2 9 -1.</_>
        <_>
          10 9 2 3 3.</_></rects>
      <tilted>0</tilted></_>
    <_>
      <rects>
        <_>
          10 7 2 3 -1.</_>
        <_>
          10 8 2 1 3.</_></rects>
      <tilted>0</tilted></_>
    <_>
      <rects>
        <_>
          10 9 2 2 -1.</_>
        <_>
          10 9 1 1 2.</_>
        <_>
          11 10 1 1 2.</_></rects>
      <tilted>0</tilted></_>
    <_>
      <rects>
        <_>
          10 9 6 1 -1.</_>
        <_>
          13 9 3 1 2.</_></rects>
      <tilted>0</tilted></_>
    <_>
      <rects>
        <_>
          10 9 9 4 -1.</_>
        <_>
          13 9 3 4 3.</_></rects>
      <tilted>0</tilted></_>
    <_>
      <rects>
        <_>
          10 10 10 4 -1.</_>
        <_>
          10 10 5 2 2.</_>
        <_>
          15 12 5 2 2.</_></rects>
      <tilted>0</tilted></_>
    <_>
      <rects>
        <_>
          10 11 2 3 -1.</_>
        <_>
          10 12 2 1 3.</_></rects>
      <tilted>0</tilted></_>
    <_>
      <rects>
        <_>
          10 14 2 6 -1.</_>
        <_>
          10 16 2 2 3.</_></rects>
      <tilted>0</tilted></_>
    <_>
      <rects>
        <_>
          10 21 12 2 -1.</_>
        <_>
          14 21 4 2 3.</_></rects>
      <tilted>0</tilted></_>
    <_>
      <rects>
        <_>
          10 22 3 1 -1.</_>
        <_>
          11 22 1 1 3.</_></rects>
      <tilted>0</tilted></_>
    <_>
      <rects>
        <_>
          10 22 12 1 -1.</_>
        <_>
          14 22 4 1 3.</_></rects>
      <tilted>0</tilted></_>
    <_>
      <rects>
        <_>
          11 0 2 2 -1.</_>
        <_>
          11 1 2 1 2.</_></rects>
      <tilted>0</tilted></_>
    <_>
      <rects>
        <_>
          11 0 6 18 -1.</_>
        <_>
          13 0 2 18 3.</_></rects>
      <tilted>0</tilted></_>
    <_>
      <rects>
        <_>
          11 1 12 14 -1.</_>
        <_>
          15 1 4 14 3.</_></rects>
      <tilted>0</tilted></_>
    <_>
      <rects>
        <_>
          11 1 7 18 -1.</_>
        <_>
          11 7 7 6 3.</_></rects>
      <tilted>0</tilted></_>
    <_>
      <rects>
        <_>
          11 1 13 9 -1.</_>
        <_>
          11 4 13 3 3.</_></rects>
      <tilted>0</tilted></_>
    <_>
      <rects>
        <_>
          11 2 3 16 -1.</_>
        <_>
          12 2 1 16 3.</_></rects>
      <tilted>0</tilted></_>
    <_>
      <rects>
        <_>
          11 3 9 4 -1.</_>
        <_>
          11 5 9 2 2.</_></rects>
      <tilted>0</tilted></_>
    <_>
      <rects>
        <_>
          11 7 6 10 -1.</_>
        <_>
          11 7 3 5 2.</_>
        <_>
          14 12 3 5 2.</_></rects>
      <tilted>0</tilted></_>
    <_>
      <rects>
        <_>
          11 8 2 2 -1.</_>
        <_>
          12 8 1 2 2.</_></rects>
      <tilted>0</tilted></_>
    <_>
      <rects>
        <_>
          11 9 2 6 -1.</_>
        <_>
          11 11 2 2 3.</_></rects>
      <tilted>0</tilted></_>
    <_>
      <rects>
        <_>
          11 9 4 4 -1.</_>
        <_>
          11 9 2 2 2.</_>
        <_>
          13 11 2 2 2.</_></rects>
      <tilted>0</tilted></_>
    <_>
      <rects>
        <_>
          11 9 6 4 -1.</_>
        <_>
          11 9 3 2 2.</_>
        <_>
          14 11 3 2 2.</_></rects>
      <tilted>0</tilted></_>
    <_>
      <rects>
        <_>
          11 22 3 2 -1.</_>
        <_>
          12 22 1 2 3.</_></rects>
      <tilted>0</tilted></_>
    <_>
      <rects>
        <_>
          11 23 2 1 -1.</_>
        <_>
          12 23 1 1 2.</_></rects>
      <tilted>0</tilted></_>
    <_>
      <rects>
        <_>
          12 0 9 1 -1.</_>
        <_>
          15 0 3 1 3.</_></rects>
      <tilted>0</tilted></_>
    <_>
      <rects>
        <_>
          12 1 1 2 -1.</_>
        <_>
          12 2 1 1 2.</_></rects>
      <tilted>0</tilted></_>
    <_>
      <rects>
        <_>
          12 6 1 9 -1.</_>
        <_>
          12 9 1 3 3.</_></rects>
      <tilted>0</tilted></_>
    <_>
      <rects>
        <_>
          12 6 1 12 -1.</_>
        <_>
          12 10 1 4 3.</_></rects>
      <tilted>0</tilted></_>
    <_>
      <rects>
        <_>
          12 6 4 2 -1.</_>
        <_>
          12 6 2 1 2.</_>
        <_>
          14 7 2 1 2.</_></rects>
      <tilted>0</tilted></_>
    <_>
      <rects>
        <_>
          12 6 4 8 -1.</_>
        <_>
          14 6 2 8 2.</_></rects>
      <tilted>0</tilted></_>
    <_>
      <rects>
        <_>
          12 22 3 1 -1.</_>
        <_>
          13 22 1 1 3.</_></rects>
      <tilted>0</tilted></_>
    <_>
      <rects>
        <_>
          12 23 3 1 -1.</_>
        <_>
          13 23 1 1 3.</_></rects>
      <tilted>0</tilted></_>
    <_>
      <rects>
        <_>
          13 3 6 17 -1.</_>
        <_>
          15 3 2 17 3.</_></rects>
      <tilted>0</tilted></_>
    <_>
      <rects>
        <_>
          13 4 8 6 -1.</_>
        <_>
          13 4 4 3 2.</_>
        <_>
          17 7 4 3 2.</_></rects>
      <tilted>0</tilted></_>
    <_>
      <rects>
        <_>
          13 5 6 4 -1.</_>
        <_>
          13 5 3 2 2.</_>
        <_>
          16 7 3 2 2.</_></rects>
      <tilted>0</tilted></_>
    <_>
      <rects>
        <_>
          13 5 5 9 -1.</_>
        <_>
          13 8 5 3 3.</_></rects>
      <tilted>0</tilted></_>
    <_>
      <rects>
        <_>
          13 21 2 1 -1.</_>
        <_>
          14 21 1 1 2.</_></rects>
      <tilted>0</tilted></_>
    <_>
      <rects>
        <_>
          13 21 3 1 -1.</_>
        <_>
          14 21 1 1 3.</_></rects>
      <tilted>0</tilted></_>
    <_>
      <rects>
        <_>
          13 21 2 2 -1.</_>
        <_>
          13 21 1 1 2.</_>
        <_>
          14 22 1 1 2.</_></rects>
      <tilted>0</tilted></_>
    <_>
      <rects>
        <_>
          14 2 2 15 -1.</_>
        <_>
          14 7 2 5 3.</_></rects>
      <tilted>0</tilted></_>
    <_>
      <rects>
        <_>
          14 22 2 2 -1.</_>
        <_>
          15 22 1 2 2.</_></rects>
      <tilted>0</tilted></_>
    <_>
      <rects>
        <_>
          15 0 6 3 -1.</_>
        <_>
          17 0 2 3 3.</_></rects>
      <tilted>0</tilted></_>
    <_>
      <rects>
        <_>
          15 0 9 18 -1.</_>
        <_>
          18 0 3 18 3.</_></rects>
      <tilted>0</tilted></_>
    <_>
      <rects>
        <_>
          15 3 9 21 -1.</_>
        <_>
          18 3 3 21 3.</_></rects>
      <tilted>0</tilted></_>
    <_>
      <rects>
        <_>
          15 7 6 10 -1.</_>
        <_>
          17 7 2 10 3.</_></rects>
      <tilted>0</tilted></_>
    <_>
      <rects>
        <_>
          15 7 8 12 -1.</_>
        <_>
          19 7 4 12 2.</_></rects>
      <tilted>0</tilted></_>
    <_>
      <rects>
        <_>
          15 8 8 12 -1.</_>
        <_>
          15 8 4 6 2.</_>
        <_>
          19 14 4 6 2.</_></rects>
      <tilted>0</tilted></_>
    <_>
      <rects>
        <_>
          15 11 3 6 -1.</_>
        <_>
          16 11 1 6 3.</_></rects>
      <tilted>0</tilted></_>
    <_>
      <rects>
        <_>
          15 22 1 2 -1.</_>
        <_>
          15 23 1 1 2.</_></rects>
      <tilted>0</tilted></_>
    <_>
      <rects>
        <_>
          16 0 2 2 -1.</_>
        <_>
          16 1 2 1 2.</_></rects>
      <tilted>0</tilted></_>
    <_>
      <rects>
        <_>
          16 3 8 3 -1.</_>
        <_>
          16 4 8 1 3.</_></rects>
      <tilted>0</tilted></_>
    <_>
      <rects>
        <_>
          16 7 2 2 -1.</_>
        <_>
          16 7 1 1 2.</_>
        <_>
          17 8 1 1 2.</_></rects>
      <tilted>0</tilted></_>
    <_>
      <rects>
        <_>
          16 8 2 3 -1.</_>
        <_>
          16 9 2 1 3.</_></rects>
      <tilted>0</tilted></_>
    <_>
      <rects>
        <_>
          16 9 6 4 -1.</_>
        <_>
          16 9 3 2 2.</_>
        <_>
          19 11 3 2 2.</_></rects>
      <tilted>0</tilted></_>
    <_>
      <rects>
        <_>
          16 20 2 2 -1.</_>
        <_>
          16 20 1 1 2.</_>
        <_>
          17 21 1 1 2.</_></rects>
      <tilted>0</tilted></_>
    <_>
      <rects>
        <_>
          16 22 6 2 -1.</_>
        <_>
          19 22 3 2 2.</_></rects>
      <tilted>0</tilted></_>
    <_>
      <rects>
        <_>
          17 0 3 1 -1.</_>
        <_>
          18 0 1 1 3.</_></rects>
      <tilted>0</tilted></_>
    <_>
      <rects>
        <_>
          17 0 3 2 -1.</_>
        <_>
          18 0 1 2 3.</_></rects>
      <tilted>0</tilted></_>
    <_>
      <rects>
        <_>
          17 2 6 17 -1.</_>
        <_>
          20 2 3 17 2.</_></rects>
      <tilted>0</tilted></_>
    <_>
      <rects>
        <_>
          17 3 4 10 -1.</_>
        <_>
          19 3 2 10 2.</_></rects>
      <tilted>0</tilted></_>
    <_>
      <rects>
        <_>
          17 5 6 12 -1.</_>
        <_>
          17 9 6 4 3.</_></rects>
      <tilted>0</tilted></_>
    <_>
      <rects>
        <_>
          17 6 6 11 -1.</_>
        <_>
          19 6 2 11 3.</_></rects>
      <tilted>0</tilted></_>
    <_>
      <rects>
        <_>
          17 9 2 4 -1.</_>
        <_>
          17 11 2 2 2.</_></rects>
      <tilted>0</tilted></_>
    <_>
      <rects>
        <_>
          17 15 2 4 -1.</_>
        <_>
          17 17 2 2 2.</_></rects>
      <tilted>0</tilted></_>
    <_>
      <rects>
        <_>
          17 23 3 1 -1.</_>
        <_>
          18 23 1 1 3.</_></rects>
      <tilted>0</tilted></_>
    <_>
      <rects>
        <_>
          18 2 1 3 -1.</_>
        <_>
          18 3 1 1 3.</_></rects>
      <tilted>0</tilted></_>
    <_>
      <rects>
        <_>
          18 3 6 17 -1.</_>
        <_>
          21 3 3 17 2.</_></rects>
      <tilted>0</tilted></_>
    <_>
      <rects>
        <_>
          19 0 4 21 -1.</_>
        <_>
          21 0 2 21 2.</_></rects>
      <tilted>0</tilted></_>
    <_>
      <rects>
        <_>
          19 1 4 10 -1.</_>
        <_>
          19 1 2 5 2.</_>
        <_>
          21 6 2 5 2.</_></rects>
      <tilted>0</tilted></_>
    <_>
      <rects>
        <_>
          20 6 3 2 -1.</_>
        <_>
          21 6 1 2 3.</_></rects>
      <tilted>0</tilted></_>
    <_>
      <rects>
        <_>
          20 10 4 2 -1.</_>
        <_>
          22 10 2 2 2.</_></rects>
      <tilted>0</tilted></_>
    <_>
      <rects>
        <_>
          20 18 3 6 -1.</_>
        <_>
          21 18 1 6 3.</_></rects>
      <tilted>0</tilted></_>
    <_>
      <rects>
        <_>
          20 19 2 4 -1.</_>
        <_>
          20 19 1 2 2.</_>
        <_>
          21 21 1 2 2.</_></rects>
      <tilted>0</tilted></_>
    <_>
      <rects>
        <_>
          21 2 2 22 -1.</_>
        <_>
          21 2 1 11 2.</_>
        <_>
          22 13 1 11 2.</_></rects>
      <tilted>0</tilted></_>
    <_>
      <rects>
        <_>
          21 3 2 20 -1.</_>
        <_>
          22 3 1 20 2.</_></rects>
      <tilted>0</tilted></_>
    <_>
      <rects>
        <_>
          21 8 2 3 -1.</_>
        <_>
          22 8 1 3 2.</_></rects>
      <tilted>0</tilted></_>
    <_>
      <rects>
        <_>
          22 3 2 18 -1.</_>
        <_>
          22 12 2 9 2.</_></rects>
      <tilted>0</tilted></_>
    <_>
      <rects>
        <_>
          22 10 2 2 -1.</_>
        <_>
          23 10 1 2 2.</_></rects>
      <tilted>0</tilted></_>
    <_>
      <rects>
        <_>
          22 13 1 3 -1.</_>
        <_>
          22 14 1 1 3.</_></rects>
      <tilted>0</tilted></_>
    <_>
      <rects>
        <_>
          22 14 2 2 -1.</_>
        <_>
          22 14 1 1 2.</_>
        <_>
          23 15 1 1 2.</_></rects>
      <tilted>0</tilted></_>
    <_>
      <rects>
        <_>
          22 18 2 4 -1.</_>
        <_>
          22 18 1 2 2.</_>
        <_>
          23 20 1 2 2.</_></rects>
      <tilted>0</tilted></_>
    <_>
      <rects>
        <_>
          22 22 2 2 -1.</_>
        <_>
          23 22 1 2 2.</_></rects>
      <tilted>0</tilted></_>
    <_>
      <rects>
        <_>
          23 0 1 24 -1.</_>
        <_>
          23 8 1 8 3.</_></rects>
      <tilted>0</tilted></_>
    <_>
      <rects>
        <_>
          23 3 1 6 -1.</_>
        <_>
          23 5 1 2 3.</_></rects>
      <tilted>0</tilted></_>
    <_>
      <rects>
        <_>
          23 3 1 15 -1.</_>
        <_>
          23 8 1 5 3.</_></rects>
      <tilted>0</tilted></_>
    <_>
      <rects>
        <_>
          23 5 1 2 -1.</_>
        <_>
          23 6 1 1 2.</_></rects>
      <tilted>0</tilted></_>
    <_>
      <rects>
        <_>
          23 16 1 3 -1.</_>
        <_>
          23 17 1 1 3.</_></rects>
      <tilted>0</tilted></_></features></cascade>
</opencv_storage>
