<?xml version="1.0"?>
<opencv_storage>
<stage2>
  <maxWeakCount>10</maxWeakCount>
  <stageThreshold>-6.5393793582916260e-01</stageThreshold>
  <weakClassifiers>
    <_>
      <internalNodes>
        0 -1 22373 -1.8675902858376503e-02</internalNodes>
      <leafValues>
        5.0387597084045410e-01 -3.0960854887962341e-01</leafValues></_>
    <_>
      <internalNodes>
        0 -1 121300 -9.8059396259486675e-04</internalNodes>
      <leafValues>
        -6.7317754030227661e-01 2.4540710449218750e-01</leafValues></_>
    <_>
      <internalNodes>
        0 -1 76948 2.5717452168464661e-02</internalNodes>
      <leafValues>
        -2.2018690407276154e-01 7.2703438997268677e-01</leafValues></_>
    <_>
      <internalNodes>
        0 -1 151880 6.4099917653948069e-04</internalNodes>
      <leafValues>
        1.8627366423606873e-01 -7.3834985494613647e-01</leafValues></_>
    <_>
      <internalNodes>
        0 -1 149061 -1.5665944665670395e-02</internalNodes>
      <leafValues>
        5.7648581266403198e-01 -2.2022834420204163e-01</leafValues></_>
    <_>
      <internalNodes>
        0 -1 141821 4.0807448327541351e-02</internalNodes>
      <leafValues>
        -1.7114360630512238e-01 7.3316025733947754e-01</leafValues></_>
    <_>
      <internalNodes>
        0 -1 114378 -1.1810031719505787e-04</internalNodes>
      <leafValues>
        -3.1521350145339966e-01 4.0844863653182983e-01</leafValues></_>
    <_>
      <internalNodes>
        0 -1 140565 -4.0230266749858856e-02</internalNodes>
      <leafValues>
        7.2903114557266235e-01 -1.9241689145565033e-01</leafValues></_>
    <_>
      <internalNodes>
        0 -1 105123 -5.0030434504151344e-03</internalNodes>
      <leafValues>
        5.7213205099105835e-01 -2.1424496173858643e-01</leafValues></_>
    <_>
      <internalNodes>
        0 -1 68979 -1.6553342342376709e-02</internalNodes>
      <leafValues>
        8.6472910642623901e-01 -1.2815110385417938e-01</leafValues></_></weakClassifiers></stage2>
</opencv_storage>
