<?xml version="1.0"?>
<opencv_storage>
<stage15>
  <maxWeakCount>14</maxWeakCount>
  <stageThreshold>-1.0098435878753662e+00</stageThreshold>
  <weakClassifiers>
    <_>
      <internalNodes>
        0 -1 121506 -1.1182634625583887e-03</internalNodes>
      <leafValues>
        -4.7222220897674561e-01 1.7293232679367065e-01</leafValues></_>
    <_>
      <internalNodes>
        0 -1 80116 -1.2352792546153069e-03</internalNodes>
      <leafValues>
        8.4779423475265503e-01 -1.1120930314064026e-01</leafValues></_>
    <_>
      <internalNodes>
        0 -1 26206 -3.0208788812160492e-03</internalNodes>
      <leafValues>
        -5.6086516380310059e-01 1.8057322502136230e-01</leafValues></_>
    <_>
      <internalNodes>
        0 -1 1292 -6.5227234736084938e-03</internalNodes>
      <leafValues>
        4.4013717770576477e-01 -2.4102760851383209e-01</leafValues></_>
    <_>
      <internalNodes>
        0 -1 106395 -3.6784584517590702e-04</internalNodes>
      <leafValues>
        -3.1306907534599304e-01 3.4941819310188293e-01</leafValues></_>
    <_>
      <internalNodes>
        0 -1 112210 -2.0962986163794994e-03</internalNodes>
      <leafValues>
        6.1622482538223267e-01 -1.4428557455539703e-01</leafValues></_>
    <_>
      <internalNodes>
        0 -1 146162 -1.0363463079556823e-03</internalNodes>
      <leafValues>
        8.2899343967437744e-01 -9.8714739084243774e-02</leafValues></_>
    <_>
      <internalNodes>
        0 -1 151410 2.8933067806065083e-03</internalNodes>
      <leafValues>
        -1.5791679918766022e-01 5.8099788427352905e-01</leafValues></_>
    <_>
      <internalNodes>
        0 -1 139328 1.6517264884896576e-04</internalNodes>
      <leafValues>
        -2.4813053011894226e-01 4.4477170705795288e-01</leafValues></_>
    <_>
      <internalNodes>
        0 -1 142645 1.1224677291465923e-04</internalNodes>
      <leafValues>
        -2.6706805825233459e-01 3.6843684315681458e-01</leafValues></_>
    <_>
      <internalNodes>
        0 -1 152419 -1.4193791430443525e-03</internalNodes>
      <leafValues>
        8.2814681529998779e-01 -1.5841172635555267e-01</leafValues></_>
    <_>
      <internalNodes>
        0 -1 10064 5.5934730917215347e-03</internalNodes>
      <leafValues>
        2.2625380754470825e-01 -5.3587198257446289e-01</leafValues></_>
    <_>
      <internalNodes>
        0 -1 46829 -1.7313748598098755e-02</internalNodes>
      <leafValues>
        3.8109648227691650e-01 -2.7406173944473267e-01</leafValues></_>
    <_>
      <internalNodes>
        0 -1 97167 -1.4914688654243946e-03</internalNodes>
      <leafValues>
        5.4976361989974976e-01 -2.5687253475189209e-01</leafValues></_></weakClassifiers></stage15>
</opencv_storage>
