<?xml version="1.0"?>
<opencv_storage>
<stage1>
  <maxWeakCount>14</maxWeakCount>
  <stageThreshold>-1.1639139652252197e+00</stageThreshold>
  <weakClassifiers>
    <_>
      <internalNodes>
        0 -1 34019 5.2869513630867004e-02</internalNodes>
      <leafValues>
        -2.4035608768463135e-01 8.0821919441223145e-01</leafValues></_>
    <_>
      <internalNodes>
        0 -1 117995 2.2639315575361252e-02</internalNodes>
      <leafValues>
        -1.4889219403266907e-01 8.1963592767715454e-01</leafValues></_>
    <_>
      <internalNodes>
        0 -1 110189 -1.0808672755956650e-02</internalNodes>
      <leafValues>
        6.4197379350662231e-01 -2.1394520998001099e-01</leafValues></_>
    <_>
      <internalNodes>
        0 -1 83111 4.0417581796646118e-02</internalNodes>
      <leafValues>
        -1.7710478603839874e-01 8.5815483331680298e-01</leafValues></_>
    <_>
      <internalNodes>
        0 -1 83952 1.6685856506228447e-02</internalNodes>
      <leafValues>
        -1.6416820883750916e-01 7.8104382753372192e-01</leafValues></_>
    <_>
      <internalNodes>
        0 -1 127994 -9.3070371076464653e-04</internalNodes>
      <leafValues>
        -8.2492762804031372e-01 2.0604865252971649e-01</leafValues></_>
    <_>
      <internalNodes>
        0 -1 83827 7.6522484421730042e-02</internalNodes>
      <leafValues>
        -1.1335682123899460e-01 8.7367808818817139e-01</leafValues></_>
    <_>
      <internalNodes>
        0 -1 142073 -1.4082269743084908e-02</internalNodes>
      <leafValues>
        5.4551637172698975e-01 -2.3470798134803772e-01</leafValues></_>
    <_>
      <internalNodes>
        0 -1 86901 -3.0108563601970673e-02</internalNodes>
      <leafValues>
        5.8075296878814697e-01 -2.3853264749050140e-01</leafValues></_>
    <_>
      <internalNodes>
        0 -1 85444 1.5433292835950851e-02</internalNodes>
      <leafValues>
        -1.1912354826927185e-01 9.5893782377243042e-01</leafValues></_>
    <_>
      <internalNodes>
        0 -1 106791 -2.5478907627984881e-04</internalNodes>
      <leafValues>
        -5.0152701139450073e-01 3.1560513377189636e-01</leafValues></_>
    <_>
      <internalNodes>
        0 -1 87288 -1.5200042165815830e-02</internalNodes>
      <leafValues>
        7.6976937055587769e-01 -1.9256071746349335e-01</leafValues></_>
    <_>
      <internalNodes>
        0 -1 46701 1.2512365356087685e-02</internalNodes>
      <leafValues>
        -1.4069883525371552e-01 8.7195706367492676e-01</leafValues></_>
    <_>
      <internalNodes>
        0 -1 114360 -2.4778355145826936e-04</internalNodes>
      <leafValues>
        -5.2627080678939819e-01 2.9787924885749817e-01</leafValues></_></weakClassifiers></stage1>
</opencv_storage>
