<?xml version="1.0"?>
<opencv_storage>
<stage10>
  <maxWeakCount>11</maxWeakCount>
  <stageThreshold>-1.1019768714904785e+00</stageThreshold>
  <weakClassifiers>
    <_>
      <internalNodes>
        0 -1 104015 -9.5437141135334969e-04</internalNodes>
      <leafValues>
        5.7777780294418335e-01 -2.3125000298023224e-01</leafValues></_>
    <_>
      <internalNodes>
        0 -1 98646 8.6294189095497131e-03</internalNodes>
      <leafValues>
        1.5713031589984894e-01 -7.9077708721160889e-01</leafValues></_>
    <_>
      <internalNodes>
        0 -1 87539 1.3342335587367415e-03</internalNodes>
      <leafValues>
        -1.8361216783523560e-01 6.5823608636856079e-01</leafValues></_>
    <_>
      <internalNodes>
        0 -1 124324 -3.4218458458781242e-03</internalNodes>
      <leafValues>
        9.2735755443572998e-01 -1.0467379540205002e-01</leafValues></_>
    <_>
      <internalNodes>
        0 -1 89824 -1.8612309941090643e-04</internalNodes>
      <leafValues>
        -5.0784277915954590e-01 2.9508399963378906e-01</leafValues></_>
    <_>
      <internalNodes>
        0 -1 9382 5.5910754017531872e-03</internalNodes>
      <leafValues>
        -2.2727987170219421e-01 5.4026418924331665e-01</leafValues></_>
    <_>
      <internalNodes>
        0 -1 160137 -4.9351667985320091e-03</internalNodes>
      <leafValues>
        6.3907200098037720e-01 -1.7141856253147125e-01</leafValues></_>
    <_>
      <internalNodes>
        0 -1 60438 3.0634313588961959e-04</internalNodes>
      <leafValues>
        2.6120442152023315e-01 -5.2803778648376465e-01</leafValues></_>
    <_>
      <internalNodes>
        0 -1 71544 2.5650486350059509e-04</internalNodes>
      <leafValues>
        2.0056138932704926e-01 -5.2216792106628418e-01</leafValues></_>
    <_>
      <internalNodes>
        0 -1 57716 -1.3401656178757548e-03</internalNodes>
      <leafValues>
        4.7971656918525696e-01 -2.5198152661323547e-01</leafValues></_>
    <_>
      <internalNodes>
        0 -1 115574 6.6502131521701813e-03</internalNodes>
      <leafValues>
        -1.4279735088348389e-01 7.7107530832290649e-01</leafValues></_></weakClassifiers></stage10>
</opencv_storage>
