<?xml version="1.0"?>
<opencv_storage>
<stage9>
  <maxWeakCount>11</maxWeakCount>
  <stageThreshold>-5.8023303747177124e-01</stageThreshold>
  <weakClassifiers>
    <_>
      <internalNodes>
        0 -1 148302 -7.0619140751659870e-04</internalNodes>
      <leafValues>
        -6.4705884456634521e-01 1.4285714924335480e-01</leafValues></_>
    <_>
      <internalNodes>
        0 -1 100199 1.0496276617050171e-01</internalNodes>
      <leafValues>
        -1.6902515292167664e-01 7.7230161428451538e-01</leafValues></_>
    <_>
      <internalNodes>
        0 -1 133667 6.2606355641037226e-04</internalNodes>
      <leafValues>
        1.8633362650871277e-01 -5.0672316551208496e-01</leafValues></_>
    <_>
      <internalNodes>
        0 -1 94716 -3.1480258330702782e-03</internalNodes>
      <leafValues>
        6.7202275991439819e-01 -1.1866333335638046e-01</leafValues></_>
    <_>
      <internalNodes>
        0 -1 22059 -4.1718076914548874e-02</internalNodes>
      <leafValues>
        6.2593543529510498e-01 -1.8267343938350677e-01</leafValues></_>
    <_>
      <internalNodes>
        0 -1 20165 3.1992018222808838e-02</internalNodes>
      <leafValues>
        -2.7952954173088074e-01 4.0894642472267151e-01</leafValues></_>
    <_>
      <internalNodes>
        0 -1 162159 -9.8588666878640652e-04</internalNodes>
      <leafValues>
        -5.7683718204498291e-01 2.0225812494754791e-01</leafValues></_>
    <_>
      <internalNodes>
        0 -1 118682 -2.0823632366955280e-03</internalNodes>
      <leafValues>
        4.8265817761421204e-01 -2.5262346863746643e-01</leafValues></_>
    <_>
      <internalNodes>
        0 -1 26790 -2.5747770443558693e-02</internalNodes>
      <leafValues>
        7.8225111961364746e-01 -1.4848631620407104e-01</leafValues></_>
    <_>
      <internalNodes>
        0 -1 144117 -5.6315882829949260e-05</internalNodes>
      <leafValues>
        -4.0089055895805359e-01 3.1537359952926636e-01</leafValues></_>
    <_>
      <internalNodes>
        0 -1 34367 -2.8950134292244911e-02</internalNodes>
      <leafValues>
        5.9323370456695557e-01 -1.8543496727943420e-01</leafValues></_></weakClassifiers></stage9>
</opencv_storage>
