<?xml version="1.0"?>
<opencv_storage>
<stage7>
  <maxWeakCount>12</maxWeakCount>
  <stageThreshold>-7.6556223630905151e-01</stageThreshold>
  <weakClassifiers>
    <_>
      <internalNodes>
        0 -1 104208 -2.6855483651161194e-02</internalNodes>
      <leafValues>
        4.9090909957885742e-01 -2.5333333015441895e-01</leafValues></_>
    <_>
      <internalNodes>
        0 -1 89831 2.4136470165103674e-04</internalNodes>
      <leafValues>
        2.6927110552787781e-01 -4.3400022387504578e-01</leafValues></_>
    <_>
      <internalNodes>
        0 -1 159647 3.3482266007922590e-04</internalNodes>
      <leafValues>
        2.6199907064437866e-01 -4.7747763991355896e-01</leafValues></_>
    <_>
      <internalNodes>
        0 -1 54700 -1.1593578383326530e-02</internalNodes>
      <leafValues>
        5.5007326602935791e-01 -1.9376525282859802e-01</leafValues></_>
    <_>
      <internalNodes>
        0 -1 11591 -3.3761139959096909e-02</internalNodes>
      <leafValues>
        7.0793503522872925e-01 -1.7792378365993500e-01</leafValues></_>
    <_>
      <internalNodes>
        0 -1 152848 -2.6150833815336227e-02</internalNodes>
      <leafValues>
        5.7829403877258301e-01 -1.9544297456741333e-01</leafValues></_>
    <_>
      <internalNodes>
        0 -1 148307 1.1561060091480613e-03</internalNodes>
      <leafValues>
        1.5335194766521454e-01 -7.1464174985885620e-01</leafValues></_>
    <_>
      <internalNodes>
        0 -1 25266 -5.8158453612122685e-05</internalNodes>
      <leafValues>
        -3.7981101870536804e-01 2.8381773829460144e-01</leafValues></_>
    <_>
      <internalNodes>
        0 -1 155364 1.0217605158686638e-02</internalNodes>
      <leafValues>
        -2.3987951874732971e-01 4.6653428673744202e-01</leafValues></_>
    <_>
      <internalNodes>
        0 -1 26603 6.7198798060417175e-02</internalNodes>
      <leafValues>
        -2.5227940082550049e-01 4.7764998674392700e-01</leafValues></_>
    <_>
      <internalNodes>
        0 -1 1403 -8.8121309876441956e-02</internalNodes>
      <leafValues>
        8.9821863174438477e-01 -1.2926921248435974e-01</leafValues></_>
    <_>
      <internalNodes>
        0 -1 78716 -3.1852130778133869e-03</internalNodes>
      <leafValues>
        4.4736811518669128e-01 -2.3892924189567566e-01</leafValues></_></weakClassifiers></stage7>
</opencv_storage>
