<?xml version="1.0"?>
<opencv_storage>
<stage5>
  <maxWeakCount>10</maxWeakCount>
  <stageThreshold>-7.4844837188720703e-01</stageThreshold>
  <weakClassifiers>
    <_>
      <internalNodes>
        0 -1 33563 4.9692515283823013e-02</internalNodes>
      <leafValues>
        -2.4610592424869537e-01 6.4044946432113647e-01</leafValues></_>
    <_>
      <internalNodes>
        0 -1 106788 1.3026293599978089e-03</internalNodes>
      <leafValues>
        1.8298882246017456e-01 -8.5607910156250000e-01</leafValues></_>
    <_>
      <internalNodes>
        0 -1 105242 2.7070149779319763e-02</internalNodes>
      <leafValues>
        -2.5833663344383240e-01 5.0074255466461182e-01</leafValues></_>
    <_>
      <internalNodes>
        0 -1 3 1.1698019225150347e-03</internalNodes>
      <leafValues>
        1.7670030891895294e-01 -8.6399084329605103e-01</leafValues></_>
    <_>
      <internalNodes>
        0 -1 58227 1.4931826852262020e-02</internalNodes>
      <leafValues>
        -1.6653296351432800e-01 8.3920866250991821e-01</leafValues></_>
    <_>
      <internalNodes>
        0 -1 159614 -3.6227071541361511e-04</internalNodes>
      <leafValues>
        -4.3594372272491455e-01 2.6811727881431580e-01</leafValues></_>
    <_>
      <internalNodes>
        0 -1 162165 -4.0492615662515163e-03</internalNodes>
      <leafValues>
        -5.8449125289916992e-01 1.9461074471473694e-01</leafValues></_>
    <_>
      <internalNodes>
        0 -1 8139 1.5464212629012764e-04</internalNodes>
      <leafValues>
        2.2316983342170715e-01 -4.9470642209053040e-01</leafValues></_>
    <_>
      <internalNodes>
        0 -1 86871 6.9901710376143456e-03</internalNodes>
      <leafValues>
        -2.2467553615570068e-01 5.2906942367553711e-01</leafValues></_>
    <_>
      <internalNodes>
        0 -1 20716 -4.3180942535400391e-02</internalNodes>
      <leafValues>
        7.5690859556198120e-01 -1.9432333111763000e-01</leafValues></_></weakClassifiers></stage5>
</opencv_storage>
