<?xml version="1.0"?>
<opencv_storage>
<stage11>
  <maxWeakCount>11</maxWeakCount>
  <stageThreshold>-6.5961790084838867e-01</stageThreshold>
  <weakClassifiers>
    <_>
      <internalNodes>
        0 -1 50239 -3.1446820497512817e-01</internalNodes>
      <leafValues>
        -7.9710143804550171e-01 9.6774190664291382e-02</leafValues></_>
    <_>
      <internalNodes>
        0 -1 27726 4.6385399997234344e-02</internalNodes>
      <leafValues>
        -1.8163086473941803e-01 6.2956970930099487e-01</leafValues></_>
    <_>
      <internalNodes>
        0 -1 1070 -8.6992233991622925e-02</internalNodes>
      <leafValues>
        7.4501699209213257e-01 -1.2862104177474976e-01</leafValues></_>
    <_>
      <internalNodes>
        0 -1 96010 -8.3314433693885803e-02</internalNodes>
      <leafValues>
        7.0178550481796265e-01 -1.4097468554973602e-01</leafValues></_>
    <_>
      <internalNodes>
        0 -1 115265 -4.6758942306041718e-02</internalNodes>
      <leafValues>
        6.3842153549194336e-01 -2.0711952447891235e-01</leafValues></_>
    <_>
      <internalNodes>
        0 -1 23622 2.8252927586436272e-04</internalNodes>
      <leafValues>
        2.0639206469058990e-01 -5.4284828901290894e-01</leafValues></_>
    <_>
      <internalNodes>
        0 -1 59369 -5.1542147994041443e-02</internalNodes>
      <leafValues>
        7.5706374645233154e-01 -1.6790142655372620e-01</leafValues></_>
    <_>
      <internalNodes>
        0 -1 32690 2.7806196361780167e-02</internalNodes>
      <leafValues>
        -1.0189561545848846e-01 6.4454048871994019e-01</leafValues></_>
    <_>
      <internalNodes>
        0 -1 3264 -1.7341233789920807e-02</internalNodes>
      <leafValues>
        7.4722790718078613e-01 -1.2911838293075562e-01</leafValues></_>
    <_>
      <internalNodes>
        0 -1 4168 4.9993591383099556e-03</internalNodes>
      <leafValues>
        -2.2038991749286652e-01 5.1782339811325073e-01</leafValues></_>
    <_>
      <internalNodes>
        0 -1 260 -1.1038822412956506e-04</internalNodes>
      <leafValues>
        -4.0022277832031250e-01 3.1486728787422180e-01</leafValues></_></weakClassifiers></stage11>
</opencv_storage>
