<?xml version="1.0"?>
<opencv_storage>
<stage17>
  <maxWeakCount>14</maxWeakCount>
  <stageThreshold>-7.3290842771530151e-01</stageThreshold>
  <weakClassifiers>
    <_>
      <internalNodes>
        0 -1 31221 1.0537926107645035e-02</internalNodes>
      <leafValues>
        -2.5000000000000000e-01 5.7142859697341919e-01</leafValues></_>
    <_>
      <internalNodes>
        0 -1 133665 -2.6592464564600959e-05</internalNodes>
      <leafValues>
        5.2280032634735107e-01 -2.0749107003211975e-01</leafValues></_>
    <_>
      <internalNodes>
        0 -1 149839 -3.3276472240686417e-03</internalNodes>
      <leafValues>
        3.5551548004150391e-01 -2.8948089480400085e-01</leafValues></_>
    <_>
      <internalNodes>
        0 -1 104445 -1.6144649998750538e-04</internalNodes>
      <leafValues>
        3.3902746438980103e-01 -2.7091130614280701e-01</leafValues></_>
    <_>
      <internalNodes>
        0 -1 35527 -2.8754929080605507e-03</internalNodes>
      <leafValues>
        4.3269526958465576e-01 -2.5870862603187561e-01</leafValues></_>
    <_>
      <internalNodes>
        0 -1 756 -8.0118747428059578e-03</internalNodes>
      <leafValues>
        -4.2698213458061218e-01 2.4589481949806213e-01</leafValues></_>
    <_>
      <internalNodes>
        0 -1 63571 -9.1923971194773912e-04</internalNodes>
      <leafValues>
        6.7282545566558838e-01 -1.4822880923748016e-01</leafValues></_>
    <_>
      <internalNodes>
        0 -1 139463 -2.2403653711080551e-02</internalNodes>
      <leafValues>
        4.8548898100852966e-01 -1.5984939038753510e-01</leafValues></_>
    <_>
      <internalNodes>
        0 -1 5092 8.6884740740060806e-03</internalNodes>
      <leafValues>
        -1.8541744351387024e-01 5.4984366893768311e-01</leafValues></_>
    <_>
      <internalNodes>
        0 -1 49208 2.7882643043994904e-03</internalNodes>
      <leafValues>
        2.0601592957973480e-01 -6.6051298379898071e-01</leafValues></_>
    <_>
      <internalNodes>
        0 -1 150534 -6.3236532732844353e-03</internalNodes>
      <leafValues>
        7.2662818431854248e-01 -1.8975280225276947e-01</leafValues></_>
    <_>
      <internalNodes>
        0 -1 98638 4.4966004788875580e-03</internalNodes>
      <leafValues>
        -9.0746618807315826e-02 6.8391370773315430e-01</leafValues></_>
    <_>
      <internalNodes>
        0 -1 38798 1.1695951968431473e-01</internalNodes>
      <leafValues>
        -6.6151537001132965e-02 1.</leafValues></_>
    <_>
      <internalNodes>
        0 -1 71068 1.2335447594523430e-02</internalNodes>
      <leafValues>
        -2.7321317791938782e-01 3.4323388338088989e-01</leafValues></_></weakClassifiers></stage17>
</opencv_storage>
