<?xml version="1.0"?>
<opencv_storage>
<stage16>
  <maxWeakCount>13</maxWeakCount>
  <stageThreshold>-7.8812491893768311e-01</stageThreshold>
  <weakClassifiers>
    <_>
      <internalNodes>
        0 -1 162097 -1.0634881618898362e-04</internalNodes>
      <leafValues>
        5.4782611131668091e-01 -2.8813558816909790e-01</leafValues></_>
    <_>
      <internalNodes>
        0 -1 104587 -6.7456201650202274e-03</internalNodes>
      <leafValues>
        4.3460965156555176e-01 -2.6588666439056396e-01</leafValues></_>
    <_>
      <internalNodes>
        0 -1 62219 8.1144401337951422e-04</internalNodes>
      <leafValues>
        -2.2687251865863800e-01 5.6806856393814087e-01</leafValues></_>
    <_>
      <internalNodes>
        0 -1 160013 -3.4681841498240829e-04</internalNodes>
      <leafValues>
        3.8071706891059875e-01 -2.3679347336292267e-01</leafValues></_>
    <_>
      <internalNodes>
        0 -1 10613 2.0460975356400013e-03</internalNodes>
      <leafValues>
        -2.4107116460800171e-01 4.8028701543807983e-01</leafValues></_>
    <_>
      <internalNodes>
        0 -1 7421 -5.6015206500887871e-03</internalNodes>
      <leafValues>
        -7.4857896566390991e-01 1.7814835906028748e-01</leafValues></_>
    <_>
      <internalNodes>
        0 -1 115399 3.2650462817400694e-03</internalNodes>
      <leafValues>
        -2.4468611180782318e-01 4.4675832986831665e-01</leafValues></_>
    <_>
      <internalNodes>
        0 -1 146733 -1.0836827568709850e-02</internalNodes>
      <leafValues>
        7.7679276466369629e-01 -1.3602781295776367e-01</leafValues></_>
    <_>
      <internalNodes>
        0 -1 141719 -2.7468770742416382e-02</internalNodes>
      <leafValues>
        -8.2098782062530518e-01 1.4044234156608582e-01</leafValues></_>
    <_>
      <internalNodes>
        0 -1 148180 7.9064906458370388e-05</internalNodes>
      <leafValues>
        -2.3041398823261261e-01 4.8096644878387451e-01</leafValues></_>
    <_>
      <internalNodes>
        0 -1 69643 -7.9175876453518867e-03</internalNodes>
      <leafValues>
        6.4192610979080200e-01 -1.2499614804983139e-01</leafValues></_>
    <_>
      <internalNodes>
        0 -1 11040 -2.4840068072080612e-03</internalNodes>
      <leafValues>
        -8.5698264837265015e-01 1.4000578224658966e-01</leafValues></_>
    <_>
      <internalNodes>
        0 -1 56174 3.4749805927276611e-03</internalNodes>
      <leafValues>
        1.4748330414295197e-01 -6.0225194692611694e-01</leafValues></_></weakClassifiers></stage16>
</opencv_storage>
