<?xml version="1.0"?>
<opencv_storage>
<stage12>
  <maxWeakCount>7</maxWeakCount>
  <stageThreshold>-2.9329249858856201e+00</stageThreshold>
  <weakClassifiers>
    <_>
      <internalNodes>
        0 -1 16765 6.7755096824839711e-04</internalNodes>
      <leafValues>
        1.2745029926300049e+00 -1.2745029926300049e+00</leafValues></_>
    <_>
      <internalNodes>
        0 -1 100932 -1.4878088608384132e-02</internalNodes>
      <leafValues>
        9.5637053251266479e-01 -9.5637053251266479e-01</leafValues></_>
    <_>
      <internalNodes>
        0 -1 1431 -1.3355023111216724e-04</internalNodes>
      <leafValues>
        -1.0599064826965332e+00 1.0599064826965332e+00</leafValues></_>
    <_>
      <internalNodes>
        0 -1 206560 -2.5502560310997069e-04</internalNodes>
      <leafValues>
        -8.5249000787734985e-01 8.5249000787734985e-01</leafValues></_>
    <_>
      <internalNodes>
        0 -1 132528 -1.0167578235268593e-02</internalNodes>
      <leafValues>
        9.2441731691360474e-01 -9.2441731691360474e-01</leafValues></_>
    <_>
      <internalNodes>
        0 -1 77210 3.4736699308268726e-04</internalNodes>
      <leafValues>
        9.2239248752593994e-01 -9.2239248752593994e-01</leafValues></_>
    <_>
      <internalNodes>
        0 -1 146184 -1.0327090276405215e-03</internalNodes>
      <leafValues>
        9.0744316577911377e-01 -9.0744316577911377e-01</leafValues></_></weakClassifiers></stage12>
</opencv_storage>
