<?xml version="1.0"?>
<opencv_storage>
<stage7>
  <maxWeakCount>8</maxWeakCount>
  <stageThreshold>-2.0671148300170898e+00</stageThreshold>
  <weakClassifiers>
    <_>
      <internalNodes>
        0 -1 115887 -1.4911033758835401e-05</internalNodes>
      <leafValues>
        1.1903671026229858e+00 -1.1903671026229858e+00</leafValues></_>
    <_>
      <internalNodes>
        0 -1 115491 2.4947381461970508e-05</internalNodes>
      <leafValues>
        -7.4599009752273560e-01 7.4599009752273560e-01</leafValues></_>
    <_>
      <internalNodes>
        0 -1 11179 1.7499880632385612e-03</internalNodes>
      <leafValues>
        8.0982738733291626e-01 -8.0982738733291626e-01</leafValues></_>
    <_>
      <internalNodes>
        0 -1 120575 5.0644271075725555e-02</internalNodes>
      <leafValues>
        -8.9326798915863037e-01 8.9326798915863037e-01</leafValues></_>
    <_>
      <internalNodes>
        0 -1 222888 5.4127920884639025e-04</internalNodes>
      <leafValues>
        8.4183394908905029e-01 -8.4183394908905029e-01</leafValues></_>
    <_>
      <internalNodes>
        0 -1 180619 -3.5423323424765840e-05</internalNodes>
      <leafValues>
        8.7794899940490723e-01 -8.7794899940490723e-01</leafValues></_>
    <_>
      <internalNodes>
        0 -1 123125 9.4682630151510239e-03</internalNodes>
      <leafValues>
        -7.4657618999481201e-01 7.4657618999481201e-01</leafValues></_>
    <_>
      <internalNodes>
        0 -1 187582 7.7734934166073799e-05</internalNodes>
      <leafValues>
        -7.5777810811996460e-01 7.5777810811996460e-01</leafValues></_></weakClassifiers></stage7>
</opencv_storage>
