<?xml version="1.0"?>
<opencv_storage>
<cascade>
  <stageType>BOOST</stageType>
  <featureType>HAAR</featureType>
  <height>26</height>
  <width>26</width>
  <stageParams>
    <boostType>DAB</boostType>
    <minHitRate>9.9500000476837158e-01</minHitRate>
    <maxFalseAlarm>5.0000000000000000e-01</maxFalseAlarm>
    <weightTrimRate>9.4999998807907104e-01</weightTrimRate>
    <maxDepth>1</maxDepth>
    <maxWeakCount>100</maxWeakCount></stageParams>
  <featureParams>
    <maxCatCount>0</maxCatCount>
    <featSize>1</featSize>
    <mode>BASIC</mode></featureParams>
  <stageNum>20</stageNum>
  <stages>
    <!-- stage 0 -->
    <_>
      <maxWeakCount>5</maxWeakCount>
      <stageThreshold>-1.6028134822845459e+00</stageThreshold>
      <weakClassifiers>
        <_>
          <internalNodes>
            0 -1 81 -5.3026419132947922e-02</internalNodes>
          <leafValues>
            1.4836685657501221e+00 -1.4836685657501221e+00</leafValues></_>
        <_>
          <internalNodes>
            0 -1 23 1.7842192391981371e-05</internalNodes>
          <leafValues>
            1.2134648561477661e+00 -1.2134648561477661e+00</leafValues></_>
        <_>
          <internalNodes>
            0 -1 102 3.3947221934795380e-02</internalNodes>
          <leafValues>
            -1.1304978132247925e+00 1.1304978132247925e+00</leafValues></_>
        <_>
          <internalNodes>
            0 -1 3 1.1359885684214532e-04</internalNodes>
          <leafValues>
            1.1477624177932739e+00 -1.1477624177932739e+00</leafValues></_>
        <_>
          <internalNodes>
            0 -1 128 -1.6315676039084792e-03</internalNodes>
          <leafValues>
            1.1115845441818237e+00 -1.1115845441818237e+00</leafValues></_></weakClassifiers></_>
    <!-- stage 1 -->
    <_>
      <maxWeakCount>6</maxWeakCount>
      <stageThreshold>-2.4199302196502686e+00</stageThreshold>
      <weakClassifiers>
        <_>
          <internalNodes>
            0 -1 101 -4.1248507797718048e-02</internalNodes>
          <leafValues>
            1.3118054866790771e+00 -1.3118054866790771e+00</leafValues></_>
        <_>
          <internalNodes>
            0 -1 69 -1.1165522300871089e-04</internalNodes>
          <leafValues>
            -1.0500894784927368e+00 1.0500894784927368e+00</leafValues></_>
        <_>
          <internalNodes>
            0 -1 157 -4.1307555511593819e-03</internalNodes>
          <leafValues>
            1.0520877838134766e+00 -1.0520877838134766e+00</leafValues></_>
        <_>
          <internalNodes>
            0 -1 47 4.1321637108922005e-03</internalNodes>
          <leafValues>
            1.1329677104949951e+00 -1.1329677104949951e+00</leafValues></_>
        <_>
          <internalNodes>
            0 -1 163 2.3493706976296380e-05</internalNodes>
          <leafValues>
            -1.0819125175476074e+00 1.0819125175476074e+00</leafValues></_>
        <_>
          <internalNodes>
            0 -1 144 9.9391750991344452e-03</internalNodes>
          <leafValues>
            -9.9542176723480225e-01 9.9542176723480225e-01</leafValues></_></weakClassifiers></_>
    <!-- stage 2 -->
    <_>
      <maxWeakCount>6</maxWeakCount>
      <stageThreshold>-2.2235102653503418e+00</stageThreshold>
      <weakClassifiers>
        <_>
          <internalNodes>
            0 -1 113 -7.1478381752967834e-02</internalNodes>
          <leafValues>
            1.2021529674530029e+00 -1.2021529674530029e+00</leafValues></_>
        <_>
          <internalNodes>
            0 -1 1 4.0563400834798813e-03</internalNodes>
          <leafValues>
            1.1064435243606567e+00 -1.1064435243606567e+00</leafValues></_>
        <_>
          <internalNodes>
            0 -1 86 2.4937734007835388e-02</internalNodes>
          <leafValues>
            -9.4502341747283936e-01 9.4502341747283936e-01</leafValues></_>
        <_>
          <internalNodes>
            0 -1 47 -1.0702845174819231e-03</internalNodes>
          <leafValues>
            -1.0751789808273315e+00 1.0751789808273315e+00</leafValues></_>
        <_>
          <internalNodes>
            0 -1 108 1.5834417354199104e-05</internalNodes>
          <leafValues>
            -9.6002012491226196e-01 9.6002012491226196e-01</leafValues></_>
        <_>
          <internalNodes>
            0 -1 145 -5.2478555589914322e-03</internalNodes>
          <leafValues>
            9.7509592771530151e-01 -9.7509592771530151e-01</leafValues></_></weakClassifiers></_>
    <!-- stage 3 -->
    <_>
      <maxWeakCount>11</maxWeakCount>
      <stageThreshold>-2.4531464576721191e+00</stageThreshold>
      <weakClassifiers>
        <_>
          <internalNodes>
            0 -1 48 -1.2358245840005111e-05</internalNodes>
          <leafValues>
            1.1325138807296753e+00 -1.1325138807296753e+00</leafValues></_>
        <_>
          <internalNodes>
            0 -1 57 1.5271701849997044e-02</internalNodes>
          <leafValues>
            -9.5813900232315063e-01 9.5813900232315063e-01</leafValues></_>
        <_>
          <internalNodes>
            0 -1 28 1.2543252669274807e-03</internalNodes>
          <leafValues>
            9.6133971214294434e-01 -9.6133971214294434e-01</leafValues></_>
        <_>
          <internalNodes>
            0 -1 71 3.7064030766487122e-02</internalNodes>
          <leafValues>
            -9.2481511831283569e-01 9.2481511831283569e-01</leafValues></_>
        <_>
          <internalNodes>
            0 -1 91 -1.5356609947048128e-04</internalNodes>
          <leafValues>
            -9.3121045827865601e-01 9.3121045827865601e-01</leafValues></_>
        <_>
          <internalNodes>
            0 -1 154 1.8604570068418980e-03</internalNodes>
          <leafValues>
            -9.1261786222457886e-01 9.1261786222457886e-01</leafValues></_>
        <_>
          <internalNodes>
            0 -1 175 1.7189242498716339e-05</internalNodes>
          <leafValues>
            -8.5076361894607544e-01 8.5076361894607544e-01</leafValues></_>
        <_>
          <internalNodes>
            0 -1 63 1.4696565922349691e-03</internalNodes>
          <leafValues>
            8.4125375747680664e-01 -8.4125375747680664e-01</leafValues></_>
        <_>
          <internalNodes>
            0 -1 130 4.6922666952013969e-03</internalNodes>
          <leafValues>
            -9.7421473264694214e-01 9.7421473264694214e-01</leafValues></_>
        <_>
          <internalNodes>
            0 -1 183 3.4079418401233852e-04</internalNodes>
          <leafValues>
            8.0307412147521973e-01 -8.0307412147521973e-01</leafValues></_>
        <_>
          <internalNodes>
            0 -1 125 -2.4240799248218536e-03</internalNodes>
          <leafValues>
            9.4060945510864258e-01 -9.4060945510864258e-01</leafValues></_></weakClassifiers></_>
    <!-- stage 4 -->
    <_>
      <maxWeakCount>7</maxWeakCount>
      <stageThreshold>-1.0417460203170776e+00</stageThreshold>
      <weakClassifiers>
        <_>
          <internalNodes>
            0 -1 12 1.0385447239968926e-05</internalNodes>
          <leafValues>
            -9.7890430688858032e-01 9.7890430688858032e-01</leafValues></_>
        <_>
          <internalNodes>
            0 -1 135 -8.1709191203117371e-02</internalNodes>
          <leafValues>
            8.0988675355911255e-01 -8.0988675355911255e-01</leafValues></_>
        <_>
          <internalNodes>
            0 -1 29 -1.2515343260020018e-03</internalNodes>
          <leafValues>
            -9.9423784017562866e-01 9.9423784017562866e-01</leafValues></_>
        <_>
          <internalNodes>
            0 -1 13 -3.2976217567920685e-02</internalNodes>
          <leafValues>
            9.2755764722824097e-01 -9.2755764722824097e-01</leafValues></_>
        <_>
          <internalNodes>
            0 -1 4 2.4291090085171163e-04</internalNodes>
          <leafValues>
            8.0607247352600098e-01 -8.0607247352600098e-01</leafValues></_>
        <_>
          <internalNodes>
            0 -1 137 1.1454513296484947e-03</internalNodes>
          <leafValues>
            -8.7542009353637695e-01 8.7542009353637695e-01</leafValues></_>
        <_>
          <internalNodes>
            0 -1 188 1.3914897572249174e-03</internalNodes>
          <leafValues>
            8.8307279348373413e-01 -8.8307279348373413e-01</leafValues></_></weakClassifiers></_>
    <!-- stage 5 -->
    <_>
      <maxWeakCount>10</maxWeakCount>
      <stageThreshold>-1.7606731653213501e+00</stageThreshold>
      <weakClassifiers>
        <_>
          <internalNodes>
            0 -1 169 3.6222274502506480e-05</internalNodes>
          <leafValues>
            -9.8951238393783569e-01 9.8951238393783569e-01</leafValues></_>
        <_>
          <internalNodes>
            0 -1 85 -1.0054454207420349e-02</internalNodes>
          <leafValues>
            8.0074918270111084e-01 -8.0074918270111084e-01</leafValues></_>
        <_>
          <internalNodes>
            0 -1 179 3.1572622247040272e-03</internalNodes>
          <leafValues>
            9.3371766805648804e-01 -9.3371766805648804e-01</leafValues></_>
        <_>
          <internalNodes>
            0 -1 67 1.8805377185344696e-02</internalNodes>
          <leafValues>
            -8.1051892042160034e-01 8.1051892042160034e-01</leafValues></_>
        <_>
          <internalNodes>
            0 -1 0 -2.3563755676150322e-03</internalNodes>
          <leafValues>
            -9.9114769697189331e-01 9.9114769697189331e-01</leafValues></_>
        <_>
          <internalNodes>
            0 -1 105 -6.8426281213760376e-02</internalNodes>
          <leafValues>
            8.6928182840347290e-01 -8.6928182840347290e-01</leafValues></_>
        <_>
          <internalNodes>
            0 -1 46 -1.7486127326264977e-03</internalNodes>
          <leafValues>
            -8.0777949094772339e-01 8.0777949094772339e-01</leafValues></_>
        <_>
          <internalNodes>
            0 -1 45 -9.7602387540973723e-05</internalNodes>
          <leafValues>
            8.1683206558227539e-01 -8.1683206558227539e-01</leafValues></_>
        <_>
          <internalNodes>
            0 -1 33 8.0577209591865540e-02</internalNodes>
          <leafValues>
            -6.6918772459030151e-01 6.6918772459030151e-01</leafValues></_>
        <_>
          <internalNodes>
            0 -1 37 6.9999304832890630e-04</internalNodes>
          <leafValues>
            8.2402163743972778e-01 -8.2402163743972778e-01</leafValues></_></weakClassifiers></_>
    <!-- stage 6 -->
    <_>
      <maxWeakCount>10</maxWeakCount>
      <stageThreshold>-1.9740561246871948e+00</stageThreshold>
      <weakClassifiers>
        <_>
          <internalNodes>
            0 -1 27 1.9453891582088545e-05</internalNodes>
          <leafValues>
            -1.1903671026229858e+00 1.1903671026229858e+00</leafValues></_>
        <_>
          <internalNodes>
            0 -1 52 4.7640204429626465e-02</internalNodes>
          <leafValues>
            -8.1431043148040771e-01 8.1431043148040771e-01</leafValues></_>
        <_>
          <internalNodes>
            0 -1 60 2.7960063889622688e-03</internalNodes>
          <leafValues>
            9.5479643344879150e-01 -9.5479643344879150e-01</leafValues></_>
        <_>
          <internalNodes>
            0 -1 55 1.2336926162242889e-01</internalNodes>
          <leafValues>
            -8.2991534471511841e-01 8.2991534471511841e-01</leafValues></_>
        <_>
          <internalNodes>
            0 -1 110 -1.4841675874777138e-04</internalNodes>
          <leafValues>
            -7.3289906978607178e-01 7.3289906978607178e-01</leafValues></_>
        <_>
          <internalNodes>
            0 -1 36 1.6653295606374741e-02</internalNodes>
          <leafValues>
            -9.1155445575714111e-01 9.1155445575714111e-01</leafValues></_>
        <_>
          <internalNodes>
            0 -1 171 -1.4415710211324040e-05</internalNodes>
          <leafValues>
            8.2694834470748901e-01 -8.2694834470748901e-01</leafValues></_>
        <_>
          <internalNodes>
            0 -1 21 -1.0678172839106992e-04</internalNodes>
          <leafValues>
            -8.4994196891784668e-01 8.4994196891784668e-01</leafValues></_>
        <_>
          <internalNodes>
            0 -1 87 2.6593536138534546e-02</internalNodes>
          <leafValues>
            -7.4874407052993774e-01 7.4874407052993774e-01</leafValues></_>
        <_>
          <internalNodes>
            0 -1 122 4.3753400677815080e-04</internalNodes>
          <leafValues>
            8.1014627218246460e-01 -8.1014627218246460e-01</leafValues></_></weakClassifiers></_>
    <!-- stage 7 -->
    <_>
      <maxWeakCount>8</maxWeakCount>
      <stageThreshold>-2.0671148300170898e+00</stageThreshold>
      <weakClassifiers>
        <_>
          <internalNodes>
            0 -1 90 -1.4911033758835401e-05</internalNodes>
          <leafValues>
            1.1903671026229858e+00 -1.1903671026229858e+00</leafValues></_>
        <_>
          <internalNodes>
            0 -1 88 2.4947381461970508e-05</internalNodes>
          <leafValues>
            -7.4599009752273560e-01 7.4599009752273560e-01</leafValues></_>
        <_>
          <internalNodes>
            0 -1 18 1.7499880632385612e-03</internalNodes>
          <leafValues>
            8.0982738733291626e-01 -8.0982738733291626e-01</leafValues></_>
        <_>
          <internalNodes>
            0 -1 94 5.0644271075725555e-02</internalNodes>
          <leafValues>
            -8.9326798915863037e-01 8.9326798915863037e-01</leafValues></_>
        <_>
          <internalNodes>
            0 -1 186 5.4127920884639025e-04</internalNodes>
          <leafValues>
            8.4183394908905029e-01 -8.4183394908905029e-01</leafValues></_>
        <_>
          <internalNodes>
            0 -1 148 -3.5423323424765840e-05</internalNodes>
          <leafValues>
            8.7794899940490723e-01 -8.7794899940490723e-01</leafValues></_>
        <_>
          <internalNodes>
            0 -1 97 9.4682630151510239e-03</internalNodes>
          <leafValues>
            -7.4657618999481201e-01 7.4657618999481201e-01</leafValues></_>
        <_>
          <internalNodes>
            0 -1 159 7.7734934166073799e-05</internalNodes>
          <leafValues>
            -7.5777810811996460e-01 7.5777810811996460e-01</leafValues></_></weakClassifiers></_>
    <!-- stage 8 -->
    <_>
      <maxWeakCount>7</maxWeakCount>
      <stageThreshold>-1.5007241964340210e+00</stageThreshold>
      <weakClassifiers>
        <_>
          <internalNodes>
            0 -1 189 3.1118790502659976e-05</internalNodes>
          <leafValues>
            -1.2500638961791992e+00 1.2500638961791992e+00</leafValues></_>
        <_>
          <internalNodes>
            0 -1 9 2.3744467180222273e-03</internalNodes>
          <leafValues>
            8.1364780664443970e-01 -8.1364780664443970e-01</leafValues></_>
        <_>
          <internalNodes>
            0 -1 161 -3.2169038604479283e-05</internalNodes>
          <leafValues>
            9.1778522729873657e-01 -9.1778522729873657e-01</leafValues></_>
        <_>
          <internalNodes>
            0 -1 98 -3.2587617170065641e-03</internalNodes>
          <leafValues>
            7.6265895366668701e-01 -7.6265895366668701e-01</leafValues></_>
        <_>
          <internalNodes>
            0 -1 30 -2.3073548800311983e-04</internalNodes>
          <leafValues>
            -7.6310747861862183e-01 7.6310747861862183e-01</leafValues></_>
        <_>
          <internalNodes>
            0 -1 117 -2.5842715986073017e-03</internalNodes>
          <leafValues>
            9.0751516819000244e-01 -9.0751516819000244e-01</leafValues></_>
        <_>
          <internalNodes>
            0 -1 5 4.2345700785517693e-03</internalNodes>
          <leafValues>
            7.6054382324218750e-01 -7.6054382324218750e-01</leafValues></_></weakClassifiers></_>
    <!-- stage 9 -->
    <_>
      <maxWeakCount>10</maxWeakCount>
      <stageThreshold>-1.9747664928436279e+00</stageThreshold>
      <weakClassifiers>
        <_>
          <internalNodes>
            0 -1 133 -2.8970251150894910e-05</internalNodes>
          <leafValues>
            1.0324724912643433e+00 -1.0324724912643433e+00</leafValues></_>
        <_>
          <internalNodes>
            0 -1 141 -1.7123267753049731e-05</internalNodes>
          <leafValues>
            7.0316398143768311e-01 -7.0316398143768311e-01</leafValues></_>
        <_>
          <internalNodes>
            0 -1 79 -5.7378210127353668e-02</internalNodes>
          <leafValues>
            7.1365374326705933e-01 -7.1365374326705933e-01</leafValues></_>
        <_>
          <internalNodes>
            0 -1 100 -2.5225679855793715e-03</internalNodes>
          <leafValues>
            -7.6463216543197632e-01 7.6463216543197632e-01</leafValues></_>
        <_>
          <internalNodes>
            0 -1 158 -1.0533877648413181e-03</internalNodes>
          <leafValues>
            7.7170807123184204e-01 -7.7170807123184204e-01</leafValues></_>
        <_>
          <internalNodes>
            0 -1 149 -7.2570808697491884e-04</internalNodes>
          <leafValues>
            -6.5416419506072998e-01 6.5416419506072998e-01</leafValues></_>
        <_>
          <internalNodes>
            0 -1 73 -9.5265824347734451e-03</internalNodes>
          <leafValues>
            6.9307529926300049e-01 -6.9307529926300049e-01</leafValues></_>
        <_>
          <internalNodes>
            0 -1 176 2.6825082022696733e-04</internalNodes>
          <leafValues>
            6.8523705005645752e-01 -6.8523705005645752e-01</leafValues></_>
        <_>
          <internalNodes>
            0 -1 51 2.8188322175992653e-05</internalNodes>
          <leafValues>
            -7.6560753583908081e-01 7.6560753583908081e-01</leafValues></_>
        <_>
          <internalNodes>
            0 -1 156 2.5717274183989502e-05</internalNodes>
          <leafValues>
            -6.0088121891021729e-01 6.0088121891021729e-01</leafValues></_></weakClassifiers></_>
    <!-- stage 10 -->
    <_>
      <maxWeakCount>12</maxWeakCount>
      <stageThreshold>-1.7732145786285400e+00</stageThreshold>
      <weakClassifiers>
        <_>
          <internalNodes>
            0 -1 132 -3.1329836929216981e-05</internalNodes>
          <leafValues>
            8.8560897111892700e-01 -8.8560897111892700e-01</leafValues></_>
        <_>
          <internalNodes>
            0 -1 168 1.6525100916624069e-02</internalNodes>
          <leafValues>
            -7.0728629827499390e-01 7.0728629827499390e-01</leafValues></_>
        <_>
          <internalNodes>
            0 -1 26 -6.4364034915342927e-04</internalNodes>
          <leafValues>
            -7.7779644727706909e-01 7.7779644727706909e-01</leafValues></_>
        <_>
          <internalNodes>
            0 -1 174 -2.5680468752398156e-05</internalNodes>
          <leafValues>
            7.4216175079345703e-01 -7.4216175079345703e-01</leafValues></_>
        <_>
          <internalNodes>
            0 -1 131 -2.0652641542255878e-03</internalNodes>
          <leafValues>
            6.9760984182357788e-01 -6.9760984182357788e-01</leafValues></_>
        <_>
          <internalNodes>
            0 -1 181 -3.0253138393163681e-03</internalNodes>
          <leafValues>
            -7.3684442043304443e-01 7.3684442043304443e-01</leafValues></_>
        <_>
          <internalNodes>
            0 -1 76 -1.1274391785264015e-02</internalNodes>
          <leafValues>
            6.6187363862991333e-01 -6.6187363862991333e-01</leafValues></_>
        <_>
          <internalNodes>
            0 -1 16 8.2899082917720079e-04</internalNodes>
          <leafValues>
            6.1984097957611084e-01 -6.1984097957611084e-01</leafValues></_>
        <_>
          <internalNodes>
            0 -1 143 2.8294067305978388e-05</internalNodes>
          <leafValues>
            -7.3636329174041748e-01 7.3636329174041748e-01</leafValues></_>
        <_>
          <internalNodes>
            0 -1 124 -1.1371493201295380e-05</internalNodes>
          <leafValues>
            -6.7791992425918579e-01 6.7791992425918579e-01</leafValues></_>
        <_>
          <internalNodes>
            0 -1 115 -2.5923207402229309e-02</internalNodes>
          <leafValues>
            7.1888315677642822e-01 -7.1888315677642822e-01</leafValues></_>
        <_>
          <internalNodes>
            0 -1 173 2.7835700893774629e-04</internalNodes>
          <leafValues>
            6.7473232746124268e-01 -6.7473232746124268e-01</leafValues></_></weakClassifiers></_>
    <!-- stage 11 -->
    <_>
      <maxWeakCount>16</maxWeakCount>
      <stageThreshold>-2.0416715145111084e+00</stageThreshold>
      <weakClassifiers>
        <_>
          <internalNodes>
            0 -1 152 1.6618467270745896e-05</internalNodes>
          <leafValues>
            -1.0652759075164795e+00 1.0652759075164795e+00</leafValues></_>
        <_>
          <internalNodes>
            0 -1 56 -1.3002106547355652e-01</internalNodes>
          <leafValues>
            7.2267711162567139e-01 -7.2267711162567139e-01</leafValues></_>
        <_>
          <internalNodes>
            0 -1 39 -3.0163326300680637e-03</internalNodes>
          <leafValues>
            -8.1027185916900635e-01 8.1027185916900635e-01</leafValues></_>
        <_>
          <internalNodes>
            0 -1 10 -9.0646331955213100e-05</internalNodes>
          <leafValues>
            7.4533182382583618e-01 -7.4533182382583618e-01</leafValues></_>
        <_>
          <internalNodes>
            0 -1 44 -1.2603764422237873e-02</internalNodes>
          <leafValues>
            6.5039736032485962e-01 -6.5039736032485962e-01</leafValues></_>
        <_>
          <internalNodes>
            0 -1 182 -5.2297692745923996e-03</internalNodes>
          <leafValues>
            -6.8024879693984985e-01 6.8024879693984985e-01</leafValues></_>
        <_>
          <internalNodes>
            0 -1 14 1.6144733130931854e-01</internalNodes>
          <leafValues>
            -7.4844664335250854e-01 7.4844664335250854e-01</leafValues></_>
        <_>
          <internalNodes>
            0 -1 80 -6.0712860431522131e-04</internalNodes>
          <leafValues>
            7.5464063882827759e-01 -7.5464063882827759e-01</leafValues></_>
        <_>
          <internalNodes>
            0 -1 77 1.7623329767957330e-04</internalNodes>
          <leafValues>
            -6.3761162757873535e-01 6.3761162757873535e-01</leafValues></_>
        <_>
          <internalNodes>
            0 -1 82 8.8605534983798862e-05</internalNodes>
          <leafValues>
            6.4032393693923950e-01 -6.4032393693923950e-01</leafValues></_>
        <_>
          <internalNodes>
            0 -1 95 3.6353930830955505e-02</internalNodes>
          <leafValues>
            -6.7995655536651611e-01 6.7995655536651611e-01</leafValues></_>
        <_>
          <internalNodes>
            0 -1 187 -6.0788873815909028e-04</internalNodes>
          <leafValues>
            -6.3856494426727295e-01 6.3856494426727295e-01</leafValues></_>
        <_>
          <internalNodes>
            0 -1 172 1.4451341703534126e-02</internalNodes>
          <leafValues>
            -7.6024717092514038e-01 7.6024717092514038e-01</leafValues></_>
        <_>
          <internalNodes>
            0 -1 164 -3.3894684747792780e-05</internalNodes>
          <leafValues>
            7.0813804864883423e-01 -7.0813804864883423e-01</leafValues></_>
        <_>
          <internalNodes>
            0 -1 43 -1.8008027109317482e-04</internalNodes>
          <leafValues>
            -6.4511597156524658e-01 6.4511597156524658e-01</leafValues></_>
        <_>
          <internalNodes>
            0 -1 40 2.0653628744184971e-03</internalNodes>
          <leafValues>
            -7.1573090553283691e-01 7.1573090553283691e-01</leafValues></_></weakClassifiers></_>
    <!-- stage 12 -->
    <_>
      <maxWeakCount>7</maxWeakCount>
      <stageThreshold>-2.9329249858856201e+00</stageThreshold>
      <weakClassifiers>
        <_>
          <internalNodes>
            0 -1 27 6.7755096824839711e-04</internalNodes>
          <leafValues>
            1.2745029926300049e+00 -1.2745029926300049e+00</leafValues></_>
        <_>
          <internalNodes>
            0 -1 74 -1.4878088608384132e-02</internalNodes>
          <leafValues>
            9.5637053251266479e-01 -9.5637053251266479e-01</leafValues></_>
        <_>
          <internalNodes>
            0 -1 7 -1.3355023111216724e-04</internalNodes>
          <leafValues>
            -1.0599064826965332e+00 1.0599064826965332e+00</leafValues></_>
        <_>
          <internalNodes>
            0 -1 166 -2.5502560310997069e-04</internalNodes>
          <leafValues>
            -8.5249000787734985e-01 8.5249000787734985e-01</leafValues></_>
        <_>
          <internalNodes>
            0 -1 104 -1.0167578235268593e-02</internalNodes>
          <leafValues>
            9.2441731691360474e-01 -9.2441731691360474e-01</leafValues></_>
        <_>
          <internalNodes>
            0 -1 61 3.4736699308268726e-04</internalNodes>
          <leafValues>
            9.2239248752593994e-01 -9.2239248752593994e-01</leafValues></_>
        <_>
          <internalNodes>
            0 -1 119 -1.0327090276405215e-03</internalNodes>
          <leafValues>
            9.0744316577911377e-01 -9.0744316577911377e-01</leafValues></_></weakClassifiers></_>
    <!-- stage 13 -->
    <_>
      <maxWeakCount>10</maxWeakCount>
      <stageThreshold>-3.1774678230285645e+00</stageThreshold>
      <weakClassifiers>
        <_>
          <internalNodes>
            0 -1 114 -1.5942263603210449e-01</internalNodes>
          <leafValues>
            8.9579218626022339e-01 -8.9579218626022339e-01</leafValues></_>
        <_>
          <internalNodes>
            0 -1 89 -3.8674166717100888e-05</internalNodes>
          <leafValues>
            -1.0736131668090820e+00 1.0736131668090820e+00</leafValues></_>
        <_>
          <internalNodes>
            0 -1 89 1.2610807607416064e-04</internalNodes>
          <leafValues>
            9.7112786769866943e-01 -9.7112786769866943e-01</leafValues></_>
        <_>
          <internalNodes>
            0 -1 72 7.2288841009140015e-02</internalNodes>
          <leafValues>
            -9.6821391582489014e-01 9.6821391582489014e-01</leafValues></_>
        <_>
          <internalNodes>
            0 -1 142 -1.7152809596154839e-04</internalNodes>
          <leafValues>
            -8.9778822660446167e-01 8.9778822660446167e-01</leafValues></_>
        <_>
          <internalNodes>
            0 -1 190 -4.2144907638430595e-05</internalNodes>
          <leafValues>
            -7.0976752042770386e-01 7.0976752042770386e-01</leafValues></_>
        <_>
          <internalNodes>
            0 -1 107 -1.3722103089094162e-02</internalNodes>
          <leafValues>
            8.2713955640792847e-01 -8.2713955640792847e-01</leafValues></_>
        <_>
          <internalNodes>
            0 -1 20 -1.9455843721516430e-04</internalNodes>
          <leafValues>
            -9.0513545274734497e-01 9.0513545274734497e-01</leafValues></_>
        <_>
          <internalNodes>
            0 -1 50 1.2437342107295990e-01</internalNodes>
          <leafValues>
            -7.3269098997116089e-01 7.3269098997116089e-01</leafValues></_>
        <_>
          <internalNodes>
            0 -1 25 -7.1358273271471262e-04</internalNodes>
          <leafValues>
            -8.4630388021469116e-01 8.4630388021469116e-01</leafValues></_></weakClassifiers></_>
    <!-- stage 14 -->
    <_>
      <maxWeakCount>7</maxWeakCount>
      <stageThreshold>-1.3425893783569336e+00</stageThreshold>
      <weakClassifiers>
        <_>
          <internalNodes>
            0 -1 17 -1.2289695441722870e-01</internalNodes>
          <leafValues>
            9.6834707260131836e-01 -9.6834707260131836e-01</leafValues></_>
        <_>
          <internalNodes>
            0 -1 2 -3.3566739875823259e-04</internalNodes>
          <leafValues>
            -1.0140349864959717e+00 1.0140349864959717e+00</leafValues></_>
        <_>
          <internalNodes>
            0 -1 139 -2.8894753195345402e-03</internalNodes>
          <leafValues>
            7.7457618713378906e-01 -7.7457618713378906e-01</leafValues></_>
        <_>
          <internalNodes>
            0 -1 120 -4.5869153109379113e-04</internalNodes>
          <leafValues>
            -9.5403099060058594e-01 9.5403099060058594e-01</leafValues></_>
        <_>
          <internalNodes>
            0 -1 93 -1.1838302016258240e-03</internalNodes>
          <leafValues>
            -7.4395221471786499e-01 7.4395221471786499e-01</leafValues></_>
        <_>
          <internalNodes>
            0 -1 127 -3.0421568080782890e-03</internalNodes>
          <leafValues>
            8.4613263607025146e-01 -8.4613263607025146e-01</leafValues></_>
        <_>
          <internalNodes>
            0 -1 68 -2.8868013760074973e-04</internalNodes>
          <leafValues>
            -9.2142784595489502e-01 9.2142784595489502e-01</leafValues></_></weakClassifiers></_>
    <!-- stage 15 -->
    <_>
      <maxWeakCount>12</maxWeakCount>
      <stageThreshold>-1.9413357973098755e+00</stageThreshold>
      <weakClassifiers>
        <_>
          <internalNodes>
            0 -1 68 2.3603244335390627e-04</internalNodes>
          <leafValues>
            1.0324724912643433e+00 -1.0324724912643433e+00</leafValues></_>
        <_>
          <internalNodes>
            0 -1 112 -2.5597488880157471e-01</internalNodes>
          <leafValues>
            8.5365515947341919e-01 -8.5365515947341919e-01</leafValues></_>
        <_>
          <internalNodes>
            0 -1 109 -1.9540480570867658e-04</internalNodes>
          <leafValues>
            -9.2087733745574951e-01 9.2087733745574951e-01</leafValues></_>
        <_>
          <internalNodes>
            0 -1 54 -4.2043581604957581e-02</internalNodes>
          <leafValues>
            7.6115047931671143e-01 -7.6115047931671143e-01</leafValues></_>
        <_>
          <internalNodes>
            0 -1 49 -1.7215943080373108e-04</internalNodes>
          <leafValues>
            -8.6798930168151855e-01 8.6798930168151855e-01</leafValues></_>
        <_>
          <internalNodes>
            0 -1 118 -2.5092797353863716e-02</internalNodes>
          <leafValues>
            7.3431336879730225e-01 -7.3431336879730225e-01</leafValues></_>
        <_>
          <internalNodes>
            0 -1 162 -2.0362212671898305e-04</internalNodes>
          <leafValues>
            -9.0396183729171753e-01 9.0396183729171753e-01</leafValues></_>
        <_>
          <internalNodes>
            0 -1 140 -6.0661574825644493e-03</internalNodes>
          <leafValues>
            6.8621629476547241e-01 -6.8621629476547241e-01</leafValues></_>
        <_>
          <internalNodes>
            0 -1 153 3.2909094443311915e-05</internalNodes>
          <leafValues>
            9.0723758935928345e-01 -9.0723758935928345e-01</leafValues></_>
        <_>
          <internalNodes>
            0 -1 58 -4.9639897042652592e-05</internalNodes>
          <leafValues>
            7.3459202051162720e-01 -7.3459202051162720e-01</leafValues></_>
        <_>
          <internalNodes>
            0 -1 59 8.1415260210633278e-03</internalNodes>
          <leafValues>
            -6.6367793083190918e-01 6.6367793083190918e-01</leafValues></_>
        <_>
          <internalNodes>
            0 -1 177 -9.7423471743240952e-05</internalNodes>
          <leafValues>
            -8.5026264190673828e-01 8.5026264190673828e-01</leafValues></_></weakClassifiers></_>
    <!-- stage 16 -->
    <_>
      <maxWeakCount>12</maxWeakCount>
      <stageThreshold>-2.7944631576538086e+00</stageThreshold>
      <weakClassifiers>
        <_>
          <internalNodes>
            0 -1 75 3.2814726233482361e-02</internalNodes>
          <leafValues>
            -8.5531395673751831e-01 8.5531395673751831e-01</leafValues></_>
        <_>
          <internalNodes>
            0 -1 11 2.4150027893483639e-03</internalNodes>
          <leafValues>
            6.8796485662460327e-01 -6.8796485662460327e-01</leafValues></_>
        <_>
          <internalNodes>
            0 -1 147 3.2213129103183746e-02</internalNodes>
          <leafValues>
            -9.0522921085357666e-01 9.0522921085357666e-01</leafValues></_>
        <_>
          <internalNodes>
            0 -1 6 -3.7414560210891068e-04</internalNodes>
          <leafValues>
            -7.9498827457427979e-01 7.9498827457427979e-01</leafValues></_>
        <_>
          <internalNodes>
            0 -1 167 2.8384027245920151e-05</internalNodes>
          <leafValues>
            -7.4251186847686768e-01 7.4251186847686768e-01</leafValues></_>
        <_>
          <internalNodes>
            0 -1 96 1.3295209035277367e-02</internalNodes>
          <leafValues>
            -6.8734776973724365e-01 6.8734776973724365e-01</leafValues></_>
        <_>
          <internalNodes>
            0 -1 111 7.4670773756224662e-05</internalNodes>
          <leafValues>
            8.0349272489547729e-01 -8.0349272489547729e-01</leafValues></_>
        <_>
          <internalNodes>
            0 -1 53 3.0632974812760949e-05</internalNodes>
          <leafValues>
            -6.6394430398941040e-01 6.6394430398941040e-01</leafValues></_>
        <_>
          <internalNodes>
            0 -1 31 9.8722521215677261e-06</internalNodes>
          <leafValues>
            6.8954253196716309e-01 -6.8954253196716309e-01</leafValues></_>
        <_>
          <internalNodes>
            0 -1 35 1.0769253596663475e-02</internalNodes>
          <leafValues>
            -6.9793373346328735e-01 6.9793373346328735e-01</leafValues></_>
        <_>
          <internalNodes>
            0 -1 180 -1.3963166857138276e-03</internalNodes>
          <leafValues>
            -7.8746241331100464e-01 7.8746241331100464e-01</leafValues></_>
        <_>
          <internalNodes>
            0 -1 146 2.2626575082540512e-02</internalNodes>
          <leafValues>
            -7.4719941616058350e-01 7.4719941616058350e-01</leafValues></_></weakClassifiers></_>
    <!-- stage 17 -->
    <_>
      <maxWeakCount>10</maxWeakCount>
      <stageThreshold>-1.8868347406387329e+00</stageThreshold>
      <weakClassifiers>
        <_>
          <internalNodes>
            0 -1 134 8.6599471978843212e-04</internalNodes>
          <leafValues>
            -8.6537063121795654e-01 8.6537063121795654e-01</leafValues></_>
        <_>
          <internalNodes>
            0 -1 78 -2.2391579113900661e-04</internalNodes>
          <leafValues>
            -7.0359730720520020e-01 7.0359730720520020e-01</leafValues></_>
        <_>
          <internalNodes>
            0 -1 64 1.5381366014480591e-01</internalNodes>
          <leafValues>
            -8.9357364177703857e-01 8.9357364177703857e-01</leafValues></_>
        <_>
          <internalNodes>
            0 -1 184 1.6084413800854236e-04</internalNodes>
          <leafValues>
            7.6447290182113647e-01 -7.6447290182113647e-01</leafValues></_>
        <_>
          <internalNodes>
            0 -1 155 -5.5193500593304634e-03</internalNodes>
          <leafValues>
            7.0091688632965088e-01 -7.0091688632965088e-01</leafValues></_>
        <_>
          <internalNodes>
            0 -1 83 -1.8686837574932724e-04</internalNodes>
          <leafValues>
            -7.6917141675949097e-01 7.6917141675949097e-01</leafValues></_>
        <_>
          <internalNodes>
            0 -1 19 2.7939151550526731e-05</internalNodes>
          <leafValues>
            -7.0921444892883301e-01 7.0921444892883301e-01</leafValues></_>
        <_>
          <internalNodes>
            0 -1 116 9.3971041496843100e-04</internalNodes>
          <leafValues>
            -6.2327015399932861e-01 6.2327015399932861e-01</leafValues></_>
        <_>
          <internalNodes>
            0 -1 185 -1.3495263410732150e-03</internalNodes>
          <leafValues>
            -7.1088474988937378e-01 7.1088474988937378e-01</leafValues></_>
        <_>
          <internalNodes>
            0 -1 106 -1.2283895630389452e-03</internalNodes>
          <leafValues>
            7.5081282854080200e-01 -7.5081282854080200e-01</leafValues></_></weakClassifiers></_>
    <!-- stage 18 -->
    <_>
      <maxWeakCount>14</maxWeakCount>
      <stageThreshold>-2.0615005493164063e+00</stageThreshold>
      <weakClassifiers>
        <_>
          <internalNodes>
            0 -1 160 -3.7081204936839640e-05</internalNodes>
          <leafValues>
            1.1554458141326904e+00 -1.1554458141326904e+00</leafValues></_>
        <_>
          <internalNodes>
            0 -1 8 -5.2936658903490752e-05</internalNodes>
          <leafValues>
            6.9227498769760132e-01 -6.9227498769760132e-01</leafValues></_>
        <_>
          <internalNodes>
            0 -1 92 -2.2205039858818054e-03</internalNodes>
          <leafValues>
            -7.2993701696395874e-01 7.2993701696395874e-01</leafValues></_>
        <_>
          <internalNodes>
            0 -1 65 -8.1538140773773193e-02</internalNodes>
          <leafValues>
            8.1617724895477295e-01 -8.1617724895477295e-01</leafValues></_>
        <_>
          <internalNodes>
            0 -1 178 2.7107398491352797e-03</internalNodes>
          <leafValues>
            7.4726152420043945e-01 -7.4726152420043945e-01</leafValues></_>
        <_>
          <internalNodes>
            0 -1 32 8.5239872336387634e-02</internalNodes>
          <leafValues>
            -6.8477231264114380e-01 6.8477231264114380e-01</leafValues></_>
        <_>
          <internalNodes>
            0 -1 38 -7.5212307274341583e-04</internalNodes>
          <leafValues>
            -6.5504336357116699e-01 6.5504336357116699e-01</leafValues></_>
        <_>
          <internalNodes>
            0 -1 150 -7.5739153544418514e-05</internalNodes>
          <leafValues>
            7.1169090270996094e-01 -7.1169090270996094e-01</leafValues></_>
        <_>
          <internalNodes>
            0 -1 170 -1.7259768355870619e-05</internalNodes>
          <leafValues>
            6.6288381814956665e-01 -6.6288381814956665e-01</leafValues></_>
        <_>
          <internalNodes>
            0 -1 136 3.3503874874440953e-05</internalNodes>
          <leafValues>
            -6.0384124517440796e-01 6.0384124517440796e-01</leafValues></_>
        <_>
          <internalNodes>
            0 -1 66 3.3425493165850639e-04</internalNodes>
          <leafValues>
            6.6063511371612549e-01 -6.6063511371612549e-01</leafValues></_>
        <_>
          <internalNodes>
            0 -1 138 4.9445303156971931e-03</internalNodes>
          <leafValues>
            -6.1331015825271606e-01 6.1331015825271606e-01</leafValues></_>
        <_>
          <internalNodes>
            0 -1 165 -2.5818124413490295e-04</internalNodes>
          <leafValues>
            -5.6380766630172729e-01 5.6380766630172729e-01</leafValues></_>
        <_>
          <internalNodes>
            0 -1 129 4.3148482218384743e-03</internalNodes>
          <leafValues>
            -6.8547135591506958e-01 6.8547135591506958e-01</leafValues></_></weakClassifiers></_>
    <!-- stage 19 -->
    <_>
      <maxWeakCount>15</maxWeakCount>
      <stageThreshold>-1.9501354694366455e+00</stageThreshold>
      <weakClassifiers>
        <_>
          <internalNodes>
            0 -1 99 1.0385447239968926e-05</internalNodes>
          <leafValues>
            -9.1629076004028320e-01 9.1629076004028320e-01</leafValues></_>
        <_>
          <internalNodes>
            0 -1 103 -2.8218533843755722e-02</internalNodes>
          <leafValues>
            6.5478628873825073e-01 -6.5478628873825073e-01</leafValues></_>
        <_>
          <internalNodes>
            0 -1 62 5.4465414723381400e-04</internalNodes>
          <leafValues>
            8.0466437339782715e-01 -8.0466437339782715e-01</leafValues></_>
        <_>
          <internalNodes>
            0 -1 121 -1.0385447239968926e-05</internalNodes>
          <leafValues>
            7.1710115671157837e-01 -7.1710115671157837e-01</leafValues></_>
        <_>
          <internalNodes>
            0 -1 41 -5.0404947251081467e-03</internalNodes>
          <leafValues>
            5.8682364225387573e-01 -5.8682364225387573e-01</leafValues></_>
        <_>
          <internalNodes>
            0 -1 42 2.8629526495933533e-02</internalNodes>
          <leafValues>
            -6.4145684242248535e-01 6.4145684242248535e-01</leafValues></_>
        <_>
          <internalNodes>
            0 -1 151 -4.5402230171021074e-05</internalNodes>
          <leafValues>
            -7.3891925811767578e-01 7.3891925811767578e-01</leafValues></_>
        <_>
          <internalNodes>
            0 -1 34 -6.5366958733648062e-04</internalNodes>
          <leafValues>
            6.2072360515594482e-01 -6.2072360515594482e-01</leafValues></_>
        <_>
          <internalNodes>
            0 -1 84 4.7640391858294606e-04</internalNodes>
          <leafValues>
            -5.1365864276885986e-01 5.1365864276885986e-01</leafValues></_>
        <_>
          <internalNodes>
            0 -1 15 -1.4519705473503564e-05</internalNodes>
          <leafValues>
            -6.2322086095809937e-01 6.2322086095809937e-01</leafValues></_>
        <_>
          <internalNodes>
            0 -1 24 -5.9000179171562195e-03</internalNodes>
          <leafValues>
            5.9334951639175415e-01 -5.9334951639175415e-01</leafValues></_>
        <_>
          <internalNodes>
            0 -1 126 2.0770955830812454e-02</internalNodes>
          <leafValues>
            5.4703652858734131e-01 -5.4703652858734131e-01</leafValues></_>
        <_>
          <internalNodes>
            0 -1 70 -1.0117070632986724e-04</internalNodes>
          <leafValues>
            5.9258800745010376e-01 -5.9258800745010376e-01</leafValues></_>
        <_>
          <internalNodes>
            0 -1 123 7.3033850640058517e-04</internalNodes>
          <leafValues>
            -5.9150314331054688e-01 5.9150314331054688e-01</leafValues></_>
        <_>
          <internalNodes>
            0 -1 22 -6.6867673012893647e-05</internalNodes>
          <leafValues>
            -5.6045490503311157e-01 5.6045490503311157e-01</leafValues></_></weakClassifiers></_></stages>
  <features>
    <_>
      <rects>
        <_>
          0 0 1 24 -1.</_>
        <_>
          0 12 1 12 2.</_></rects>
      <tilted>0</tilted></_>
    <_>
      <rects>
        <_>
          0 0 1 26 -1.</_>
        <_>
          0 13 1 13 2.</_></rects>
      <tilted>0</tilted></_>
    <_>
      <rects>
        <_>
          0 0 9 1 -1.</_>
        <_>
          3 0 3 1 3.</_></rects>
      <tilted>0</tilted></_>
    <_>
      <rects>
        <_>
          0 0 3 4 -1.</_>
        <_>
          0 2 3 2 2.</_></rects>
      <tilted>0</tilted></_>
    <_>
      <rects>
        <_>
          0 0 18 1 -1.</_>
        <_>
          6 0 6 1 3.</_></rects>
      <tilted>0</tilted></_>
    <_>
      <rects>
        <_>
          0 0 26 1 -1.</_>
        <_>
          13 0 13 1 2.</_></rects>
      <tilted>0</tilted></_>
    <_>
      <rects>
        <_>
          0 1 1 24 -1.</_>
        <_>
          0 9 1 8 3.</_></rects>
      <tilted>0</tilted></_>
    <_>
      <rects>
        <_>
          0 1 3 4 -1.</_>
        <_>
          0 3 3 2 2.</_></rects>
      <tilted>0</tilted></_>
    <_>
      <rects>
        <_>
          0 1 15 1 -1.</_>
        <_>
          5 1 5 1 3.</_></rects>
      <tilted>0</tilted></_>
    <_>
      <rects>
        <_>
          0 2 1 18 -1.</_>
        <_>
          0 8 1 6 3.</_></rects>
      <tilted>0</tilted></_>
    <_>
      <rects>
        <_>
          0 2 4 6 -1.</_>
        <_>
          2 2 2 6 2.</_></rects>
      <tilted>0</tilted></_>
    <_>
      <rects>
        <_>
          0 4 1 21 -1.</_>
        <_>
          0 11 1 7 3.</_></rects>
      <tilted>0</tilted></_>
    <_>
      <rects>
        <_>
          0 6 5 2 -1.</_>
        <_>
          0 7 5 1 2.</_></rects>
      <tilted>0</tilted></_>
    <_>
      <rects>
        <_>
          0 7 12 12 -1.</_>
        <_>
          4 7 4 12 3.</_></rects>
      <tilted>0</tilted></_>
    <_>
      <rects>
        <_>
          0 8 21 9 -1.</_>
        <_>
          7 8 7 9 3.</_></rects>
      <tilted>0</tilted></_>
    <_>
      <rects>
        <_>
          0 9 1 2 -1.</_>
        <_>
          0 10 1 1 2.</_></rects>
      <tilted>0</tilted></_>
    <_>
      <rects>
        <_>
          0 9 2 10 -1.</_>
        <_>
          0 14 2 5 2.</_></rects>
      <tilted>0</tilted></_>
    <_>
      <rects>
        <_>
          0 10 24 7 -1.</_>
        <_>
          8 10 8 7 3.</_></rects>
      <tilted>0</tilted></_>
    <_>
      <rects>
        <_>
          0 11 1 15 -1.</_>
        <_>
          0 16 1 5 3.</_></rects>
      <tilted>0</tilted></_>
    <_>
      <rects>
        <_>
          0 12 3 12 -1.</_>
        <_>
          0 16 3 4 3.</_></rects>
      <tilted>0</tilted></_>
    <_>
      <rects>
        <_>
          0 13 3 2 -1.</_>
        <_>
          1 13 1 2 3.</_></rects>
      <tilted>0</tilted></_>
    <_>
      <rects>
        <_>
          0 15 3 2 -1.</_>
        <_>
          0 16 3 1 2.</_></rects>
      <tilted>0</tilted></_>
    <_>
      <rects>
        <_>
          0 17 2 2 -1.</_>
        <_>
          0 18 2 1 2.</_></rects>
      <tilted>0</tilted></_>
    <_>
      <rects>
        <_>
          0 18 1 8 -1.</_>
        <_>
          0 22 1 4 2.</_></rects>
      <tilted>0</tilted></_>
    <_>
      <rects>
        <_>
          0 18 6 5 -1.</_>
        <_>
          2 18 2 5 3.</_></rects>
      <tilted>0</tilted></_>
    <_>
      <rects>
        <_>
          0 21 3 2 -1.</_>
        <_>
          0 22 3 1 2.</_></rects>
      <tilted>0</tilted></_>
    <_>
      <rects>
        <_>
          0 25 24 1 -1.</_>
        <_>
          8 25 8 1 3.</_></rects>
      <tilted>0</tilted></_>
    <_>
      <rects>
        <_>
          0 25 18 1 -1.</_>
        <_>
          9 25 9 1 2.</_></rects>
      <tilted>0</tilted></_>
    <_>
      <rects>
        <_>
          0 25 26 1 -1.</_>
        <_>
          13 25 13 1 2.</_></rects>
      <tilted>0</tilted></_>
    <_>
      <rects>
        <_>
          1 0 15 1 -1.</_>
        <_>
          6 0 5 1 3.</_></rects>
      <tilted>0</tilted></_>
    <_>
      <rects>
        <_>
          1 0 20 1 -1.</_>
        <_>
          11 0 10 1 2.</_></rects>
      <tilted>0</tilted></_>
    <_>
      <rects>
        <_>
          1 1 10 1 -1.</_>
        <_>
          6 1 5 1 2.</_></rects>
      <tilted>0</tilted></_>
    <_>
      <rects>
        <_>
          1 1 12 18 -1.</_>
        <_>
          1 7 12 6 3.</_></rects>
      <tilted>0</tilted></_>
    <_>
      <rects>
        <_>
          1 4 21 17 -1.</_>
        <_>
          8 4 7 17 3.</_></rects>
      <tilted>0</tilted></_>
    <_>
      <rects>
        <_>
          1 5 14 2 -1.</_>
        <_>
          1 5 7 1 2.</_>
        <_>
          8 6 7 1 2.</_></rects>
      <tilted>0</tilted></_>
    <_>
      <rects>
        <_>
          1 6 6 20 -1.</_>
        <_>
          3 6 2 20 3.</_></rects>
      <tilted>0</tilted></_>
    <_>
      <rects>
        <_>
          1 6 10 11 -1.</_>
        <_>
          6 6 5 11 2.</_></rects>
      <tilted>0</tilted></_>
    <_>
      <rects>
        <_>
          1 25 18 1 -1.</_>
        <_>
          10 25 9 1 2.</_></rects>
      <tilted>0</tilted></_>
    <_>
      <rects>
        <_>
          1 25 24 1 -1.</_>
        <_>
          13 25 12 1 2.</_></rects>
      <tilted>0</tilted></_>
    <_>
      <rects>
        <_>
          2 0 24 1 -1.</_>
        <_>
          10 0 8 1 3.</_></rects>
      <tilted>0</tilted></_>
    <_>
      <rects>
        <_>
          2 3 4 16 -1.</_>
        <_>
          4 3 2 16 2.</_></rects>
      <tilted>0</tilted></_>
    <_>
      <rects>
        <_>
          2 4 4 20 -1.</_>
        <_>
          4 4 2 20 2.</_></rects>
      <tilted>0</tilted></_>
    <_>
      <rects>
        <_>
          2 7 15 18 -1.</_>
        <_>
          7 7 5 18 3.</_></rects>
      <tilted>0</tilted></_>
    <_>
      <rects>
        <_>
          2 8 1 4 -1.</_>
        <_>
          2 10 1 2 2.</_></rects>
      <tilted>0</tilted></_>
    <_>
      <rects>
        <_>
          2 14 16 12 -1.</_>
        <_>
          2 18 16 4 3.</_></rects>
      <tilted>0</tilted></_>
    <_>
      <rects>
        <_>
          2 22 6 2 -1.</_>
        <_>
          2 23 6 1 2.</_></rects>
      <tilted>0</tilted></_>
    <_>
      <rects>
        <_>
          2 25 20 1 -1.</_>
        <_>
          12 25 10 1 2.</_></rects>
      <tilted>0</tilted></_>
    <_>
      <rects>
        <_>
          2 25 24 1 -1.</_>
        <_>
          14 25 12 1 2.</_></rects>
      <tilted>0</tilted></_>
    <_>
      <rects>
        <_>
          3 0 2 9 -1.</_>
        <_>
          4 0 1 9 2.</_></rects>
      <tilted>0</tilted></_>
    <_>
      <rects>
        <_>
          3 0 6 2 -1.</_>
        <_>
          3 1 6 1 2.</_></rects>
      <tilted>0</tilted></_>
    <_>
      <rects>
        <_>
          3 2 20 16 -1.</_>
        <_>
          3 2 10 8 2.</_>
        <_>
          13 10 10 8 2.</_></rects>
      <tilted>0</tilted></_>
    <_>
      <rects>
        <_>
          3 3 3 4 -1.</_>
        <_>
          3 5 3 2 2.</_></rects>
      <tilted>0</tilted></_>
    <_>
      <rects>
        <_>
          3 4 5 18 -1.</_>
        <_>
          3 10 5 6 3.</_></rects>
      <tilted>0</tilted></_>
    <_>
      <rects>
        <_>
          3 19 5 6 -1.</_>
        <_>
          3 21 5 2 3.</_></rects>
      <tilted>0</tilted></_>
    <_>
      <rects>
        <_>
          4 0 18 8 -1.</_>
        <_>
          4 4 18 4 2.</_></rects>
      <tilted>0</tilted></_>
    <_>
      <rects>
        <_>
          4 3 20 16 -1.</_>
        <_>
          4 3 10 8 2.</_>
        <_>
          14 11 10 8 2.</_></rects>
      <tilted>0</tilted></_>
    <_>
      <rects>
        <_>
          4 8 21 9 -1.</_>
        <_>
          11 8 7 9 3.</_></rects>
      <tilted>0</tilted></_>
    <_>
      <rects>
        <_>
          4 12 10 8 -1.</_>
        <_>
          4 12 5 4 2.</_>
        <_>
          9 16 5 4 2.</_></rects>
      <tilted>0</tilted></_>
    <_>
      <rects>
        <_>
          4 21 8 4 -1.</_>
        <_>
          4 21 4 2 2.</_>
        <_>
          8 23 4 2 2.</_></rects>
      <tilted>0</tilted></_>
    <_>
      <rects>
        <_>
          4 22 19 4 -1.</_>
        <_>
          4 24 19 2 2.</_></rects>
      <tilted>0</tilted></_>
    <_>
      <rects>
        <_>
          4 24 15 2 -1.</_>
        <_>
          9 24 5 2 3.</_></rects>
      <tilted>0</tilted></_>
    <_>
      <rects>
        <_>
          4 24 14 2 -1.</_>
        <_>
          4 24 7 1 2.</_>
        <_>
          11 25 7 1 2.</_></rects>
      <tilted>0</tilted></_>
    <_>
      <rects>
        <_>
          5 0 14 1 -1.</_>
        <_>
          12 0 7 1 2.</_></rects>
      <tilted>0</tilted></_>
    <_>
      <rects>
        <_>
          5 0 16 1 -1.</_>
        <_>
          13 0 8 1 2.</_></rects>
      <tilted>0</tilted></_>
    <_>
      <rects>
        <_>
          5 3 18 18 -1.</_>
        <_>
          5 3 9 9 2.</_>
        <_>
          14 12 9 9 2.</_></rects>
      <tilted>0</tilted></_>
    <_>
      <rects>
        <_>
          5 5 18 10 -1.</_>
        <_>
          5 5 9 5 2.</_>
        <_>
          14 10 9 5 2.</_></rects>
      <tilted>0</tilted></_>
    <_>
      <rects>
        <_>
          5 7 3 5 -1.</_>
        <_>
          6 7 1 5 3.</_></rects>
      <tilted>0</tilted></_>
    <_>
      <rects>
        <_>
          5 8 10 6 -1.</_>
        <_>
          5 8 5 3 2.</_>
        <_>
          10 11 5 3 2.</_></rects>
      <tilted>0</tilted></_>
    <_>
      <rects>
        <_>
          5 25 15 1 -1.</_>
        <_>
          10 25 5 1 3.</_></rects>
      <tilted>0</tilted></_>
    <_>
      <rects>
        <_>
          6 0 10 1 -1.</_>
        <_>
          11 0 5 1 2.</_></rects>
      <tilted>0</tilted></_>
    <_>
      <rects>
        <_>
          6 3 3 21 -1.</_>
        <_>
          7 3 1 21 3.</_></rects>
      <tilted>0</tilted></_>
    <_>
      <rects>
        <_>
          6 8 6 15 -1.</_>
        <_>
          6 13 6 5 3.</_></rects>
      <tilted>0</tilted></_>
    <_>
      <rects>
        <_>
          6 10 10 6 -1.</_>
        <_>
          11 10 5 6 2.</_></rects>
      <tilted>0</tilted></_>
    <_>
      <rects>
        <_>
          6 11 1 15 -1.</_>
        <_>
          6 16 1 5 3.</_></rects>
      <tilted>0</tilted></_>
    <_>
      <rects>
        <_>
          6 14 12 1 -1.</_>
        <_>
          10 14 4 1 3.</_></rects>
      <tilted>0</tilted></_>
    <_>
      <rects>
        <_>
          6 14 20 12 -1.</_>
        <_>
          6 20 20 6 2.</_></rects>
      <tilted>0</tilted></_>
    <_>
      <rects>
        <_>
          6 17 16 9 -1.</_>
        <_>
          6 20 16 3 3.</_></rects>
      <tilted>0</tilted></_>
    <_>
      <rects>
        <_>
          6 19 13 3 -1.</_>
        <_>
          6 20 13 1 3.</_></rects>
      <tilted>0</tilted></_>
    <_>
      <rects>
        <_>
          6 24 6 2 -1.</_>
        <_>
          8 24 2 2 3.</_></rects>
      <tilted>0</tilted></_>
    <_>
      <rects>
        <_>
          7 0 15 15 -1.</_>
        <_>
          7 5 15 5 3.</_></rects>
      <tilted>0</tilted></_>
    <_>
      <rects>
        <_>
          7 0 19 6 -1.</_>
        <_>
          7 3 19 3 2.</_></rects>
      <tilted>0</tilted></_>
    <_>
      <rects>
        <_>
          7 1 12 21 -1.</_>
        <_>
          7 8 12 7 3.</_></rects>
      <tilted>0</tilted></_>
    <_>
      <rects>
        <_>
          7 2 6 2 -1.</_>
        <_>
          7 2 3 1 2.</_>
        <_>
          10 3 3 1 2.</_></rects>
      <tilted>0</tilted></_>
    <_>
      <rects>
        <_>
          7 3 6 2 -1.</_>
        <_>
          9 3 2 2 3.</_></rects>
      <tilted>0</tilted></_>
    <_>
      <rects>
        <_>
          7 3 5 8 -1.</_>
        <_>
          7 7 5 4 2.</_></rects>
      <tilted>0</tilted></_>
    <_>
      <rects>
        <_>
          7 7 6 6 -1.</_>
        <_>
          7 7 3 3 2.</_>
        <_>
          10 10 3 3 2.</_></rects>
      <tilted>0</tilted></_>
    <_>
      <rects>
        <_>
          7 9 12 7 -1.</_>
        <_>
          11 9 4 7 3.</_></rects>
      <tilted>0</tilted></_>
    <_>
      <rects>
        <_>
          7 11 12 5 -1.</_>
        <_>
          11 11 4 5 3.</_></rects>
      <tilted>0</tilted></_>
    <_>
      <rects>
        <_>
          7 23 12 1 -1.</_>
        <_>
          11 23 4 1 3.</_></rects>
      <tilted>0</tilted></_>
    <_>
      <rects>
        <_>
          8 0 6 1 -1.</_>
        <_>
          10 0 2 1 3.</_></rects>
      <tilted>0</tilted></_>
    <_>
      <rects>
        <_>
          8 0 12 1 -1.</_>
        <_>
          12 0 4 1 3.</_></rects>
      <tilted>0</tilted></_>
    <_>
      <rects>
        <_>
          8 0 10 1 -1.</_>
        <_>
          13 0 5 1 2.</_></rects>
      <tilted>0</tilted></_>
    <_>
      <rects>
        <_>
          8 0 15 1 -1.</_>
        <_>
          13 0 5 1 3.</_></rects>
      <tilted>0</tilted></_>
    <_>
      <rects>
        <_>
          8 1 4 9 -1.</_>
        <_>
          8 4 4 3 3.</_></rects>
      <tilted>0</tilted></_>
    <_>
      <rects>
        <_>
          8 6 3 18 -1.</_>
        <_>
          8 12 3 6 3.</_></rects>
      <tilted>0</tilted></_>
    <_>
      <rects>
        <_>
          8 8 8 9 -1.</_>
        <_>
          12 8 4 9 2.</_></rects>
      <tilted>0</tilted></_>
    <_>
      <rects>
        <_>
          8 9 9 13 -1.</_>
        <_>
          11 9 3 13 3.</_></rects>
      <tilted>0</tilted></_>
    <_>
      <rects>
        <_>
          8 10 15 1 -1.</_>
        <_>
          13 10 5 1 3.</_></rects>
      <tilted>0</tilted></_>
    <_>
      <rects>
        <_>
          8 16 14 6 -1.</_>
        <_>
          8 16 7 3 2.</_>
        <_>
          15 19 7 3 2.</_></rects>
      <tilted>0</tilted></_>
    <_>
      <rects>
        <_>
          9 0 8 2 -1.</_>
        <_>
          13 0 4 2 2.</_></rects>
      <tilted>0</tilted></_>
    <_>
      <rects>
        <_>
          9 0 15 1 -1.</_>
        <_>
          14 0 5 1 3.</_></rects>
      <tilted>0</tilted></_>
    <_>
      <rects>
        <_>
          9 4 9 15 -1.</_>
        <_>
          9 9 9 5 3.</_></rects>
      <tilted>0</tilted></_>
    <_>
      <rects>
        <_>
          9 4 9 18 -1.</_>
        <_>
          9 10 9 6 3.</_></rects>
      <tilted>0</tilted></_>
    <_>
      <rects>
        <_>
          9 5 8 6 -1.</_>
        <_>
          9 5 4 3 2.</_>
        <_>
          13 8 4 3 2.</_></rects>
      <tilted>0</tilted></_>
    <_>
      <rects>
        <_>
          9 7 4 6 -1.</_>
        <_>
          9 9 4 2 3.</_></rects>
      <tilted>0</tilted></_>
    <_>
      <rects>
        <_>
          9 7 6 18 -1.</_>
        <_>
          9 13 6 6 3.</_></rects>
      <tilted>0</tilted></_>
    <_>
      <rects>
        <_>
          9 11 4 2 -1.</_>
        <_>
          9 11 2 1 2.</_>
        <_>
          11 12 2 1 2.</_></rects>
      <tilted>0</tilted></_>
    <_>
      <rects>
        <_>
          9 16 4 6 -1.</_>
        <_>
          9 18 4 2 3.</_></rects>
      <tilted>0</tilted></_>
    <_>
      <rects>
        <_>
          9 24 4 2 -1.</_>
        <_>
          11 24 2 2 2.</_></rects>
      <tilted>0</tilted></_>
    <_>
      <rects>
        <_>
          9 24 9 2 -1.</_>
        <_>
          12 24 3 2 3.</_></rects>
      <tilted>0</tilted></_>
    <_>
      <rects>
        <_>
          10 0 6 1 -1.</_>
        <_>
          12 0 2 1 3.</_></rects>
      <tilted>0</tilted></_>
    <_>
      <rects>
        <_>
          10 0 6 1 -1.</_>
        <_>
          13 0 3 1 2.</_></rects>
      <tilted>0</tilted></_>
    <_>
      <rects>
        <_>
          10 1 10 24 -1.</_>
        <_>
          10 9 10 8 3.</_></rects>
      <tilted>0</tilted></_>
    <_>
      <rects>
        <_>
          10 2 4 21 -1.</_>
        <_>
          10 9 4 7 3.</_></rects>
      <tilted>0</tilted></_>
    <_>
      <rects>
        <_>
          10 3 6 21 -1.</_>
        <_>
          10 10 6 7 3.</_></rects>
      <tilted>0</tilted></_>
    <_>
      <rects>
        <_>
          10 9 10 6 -1.</_>
        <_>
          10 9 5 3 2.</_>
        <_>
          15 12 5 3 2.</_></rects>
      <tilted>0</tilted></_>
    <_>
      <rects>
        <_>
          10 11 2 2 -1.</_>
        <_>
          10 11 1 1 2.</_>
        <_>
          11 12 1 1 2.</_></rects>
      <tilted>0</tilted></_>
    <_>
      <rects>
        <_>
          10 11 2 8 -1.</_>
        <_>
          10 11 1 4 2.</_>
        <_>
          11 15 1 4 2.</_></rects>
      <tilted>0</tilted></_>
    <_>
      <rects>
        <_>
          10 11 8 6 -1.</_>
        <_>
          10 11 4 3 2.</_>
        <_>
          14 14 4 3 2.</_></rects>
      <tilted>0</tilted></_>
    <_>
      <rects>
        <_>
          10 14 4 2 -1.</_>
        <_>
          10 14 2 1 2.</_>
        <_>
          12 15 2 1 2.</_></rects>
      <tilted>0</tilted></_>
    <_>
      <rects>
        <_>
          10 21 1 4 -1.</_>
        <_>
          10 23 1 2 2.</_></rects>
      <tilted>0</tilted></_>
    <_>
      <rects>
        <_>
          10 22 2 2 -1.</_>
        <_>
          10 23 2 1 2.</_></rects>
      <tilted>0</tilted></_>
    <_>
      <rects>
        <_>
          10 24 8 2 -1.</_>
        <_>
          10 24 4 1 2.</_>
        <_>
          14 25 4 1 2.</_></rects>
      <tilted>0</tilted></_>
    <_>
      <rects>
        <_>
          11 1 9 15 -1.</_>
        <_>
          14 1 3 15 3.</_></rects>
      <tilted>0</tilted></_>
    <_>
      <rects>
        <_>
          11 3 1 4 -1.</_>
        <_>
          11 5 1 2 2.</_></rects>
      <tilted>0</tilted></_>
    <_>
      <rects>
        <_>
          11 4 2 10 -1.</_>
        <_>
          11 4 1 5 2.</_>
        <_>
          12 9 1 5 2.</_></rects>
      <tilted>0</tilted></_>
    <_>
      <rects>
        <_>
          11 5 2 21 -1.</_>
        <_>
          11 12 2 7 3.</_></rects>
      <tilted>0</tilted></_>
    <_>
      <rects>
        <_>
          11 7 2 4 -1.</_>
        <_>
          11 7 1 2 2.</_>
        <_>
          12 9 1 2 2.</_></rects>
      <tilted>0</tilted></_>
    <_>
      <rects>
        <_>
          11 9 2 6 -1.</_>
        <_>
          11 12 2 3 2.</_></rects>
      <tilted>0</tilted></_>
    <_>
      <rects>
        <_>
          11 9 6 2 -1.</_>
        <_>
          11 9 3 1 2.</_>
        <_>
          14 10 3 1 2.</_></rects>
      <tilted>0</tilted></_>
    <_>
      <rects>
        <_>
          11 9 4 4 -1.</_>
        <_>
          11 11 4 2 2.</_></rects>
      <tilted>0</tilted></_>
    <_>
      <rects>
        <_>
          11 10 1 6 -1.</_>
        <_>
          11 12 1 2 3.</_></rects>
      <tilted>0</tilted></_>
    <_>
      <rects>
        <_>
          11 23 3 2 -1.</_>
        <_>
          11 24 3 1 2.</_></rects>
      <tilted>0</tilted></_>
    <_>
      <rects>
        <_>
          12 0 12 1 -1.</_>
        <_>
          16 0 4 1 3.</_></rects>
      <tilted>0</tilted></_>
    <_>
      <rects>
        <_>
          12 0 14 2 -1.</_>
        <_>
          19 0 7 2 2.</_></rects>
      <tilted>0</tilted></_>
    <_>
      <rects>
        <_>
          12 1 3 24 -1.</_>
        <_>
          12 9 3 8 3.</_></rects>
      <tilted>0</tilted></_>
    <_>
      <rects>
        <_>
          12 10 2 1 -1.</_>
        <_>
          13 10 1 1 2.</_></rects>
      <tilted>0</tilted></_>
    <_>
      <rects>
        <_>
          12 10 2 4 -1.</_>
        <_>
          13 10 1 4 2.</_></rects>
      <tilted>0</tilted></_>
    <_>
      <rects>
        <_>
          12 11 4 10 -1.</_>
        <_>
          12 11 2 5 2.</_>
        <_>
          14 16 2 5 2.</_></rects>
      <tilted>0</tilted></_>
    <_>
      <rects>
        <_>
          12 12 2 4 -1.</_>
        <_>
          12 12 1 2 2.</_>
        <_>
          13 14 1 2 2.</_></rects>
      <tilted>0</tilted></_>
    <_>
      <rects>
        <_>
          12 13 6 1 -1.</_>
        <_>
          14 13 2 1 3.</_></rects>
      <tilted>0</tilted></_>
    <_>
      <rects>
        <_>
          12 23 8 1 -1.</_>
        <_>
          16 23 4 1 2.</_></rects>
      <tilted>0</tilted></_>
    <_>
      <rects>
        <_>
          12 24 6 2 -1.</_>
        <_>
          12 25 6 1 2.</_></rects>
      <tilted>0</tilted></_>
    <_>
      <rects>
        <_>
          13 0 3 4 -1.</_>
        <_>
          14 0 1 4 3.</_></rects>
      <tilted>0</tilted></_>
    <_>
      <rects>
        <_>
          13 6 1 15 -1.</_>
        <_>
          13 11 1 5 3.</_></rects>
      <tilted>0</tilted></_>
    <_>
      <rects>
        <_>
          13 9 1 9 -1.</_>
        <_>
          13 12 1 3 3.</_></rects>
      <tilted>0</tilted></_>
    <_>
      <rects>
        <_>
          13 9 9 12 -1.</_>
        <_>
          13 13 9 4 3.</_></rects>
      <tilted>0</tilted></_>
    <_>
      <rects>
        <_>
          14 4 8 6 -1.</_>
        <_>
          14 4 4 3 2.</_>
        <_>
          18 7 4 3 2.</_></rects>
      <tilted>0</tilted></_>
    <_>
      <rects>
        <_>
          14 12 6 2 -1.</_>
        <_>
          14 12 3 1 2.</_>
        <_>
          17 13 3 1 2.</_></rects>
      <tilted>0</tilted></_>
    <_>
      <rects>
        <_>
          14 21 4 4 -1.</_>
        <_>
          16 21 2 4 2.</_></rects>
      <tilted>0</tilted></_>
    <_>
      <rects>
        <_>
          14 22 4 4 -1.</_>
        <_>
          16 22 2 4 2.</_></rects>
      <tilted>0</tilted></_>
    <_>
      <rects>
        <_>
          14 25 3 1 -1.</_>
        <_>
          15 25 1 1 3.</_></rects>
      <tilted>0</tilted></_>
    <_>
      <rects>
        <_>
          15 0 6 1 -1.</_>
        <_>
          18 0 3 1 2.</_></rects>
      <tilted>0</tilted></_>
    <_>
      <rects>
        <_>
          15 2 1 3 -1.</_>
        <_>
          15 3 1 1 3.</_></rects>
      <tilted>0</tilted></_>
    <_>
      <rects>
        <_>
          15 6 2 14 -1.</_>
        <_>
          15 6 1 7 2.</_>
        <_>
          16 13 1 7 2.</_></rects>
      <tilted>0</tilted></_>
    <_>
      <rects>
        <_>
          15 7 4 4 -1.</_>
        <_>
          15 7 2 2 2.</_>
        <_>
          17 9 2 2 2.</_></rects>
      <tilted>0</tilted></_>
    <_>
      <rects>
        <_>
          15 8 2 3 -1.</_>
        <_>
          15 9 2 1 3.</_></rects>
      <tilted>0</tilted></_>
    <_>
      <rects>
        <_>
          15 9 1 12 -1.</_>
        <_>
          15 13 1 4 3.</_></rects>
      <tilted>0</tilted></_>
    <_>
      <rects>
        <_>
          15 12 1 3 -1.</_>
        <_>
          15 13 1 1 3.</_></rects>
      <tilted>0</tilted></_>
    <_>
      <rects>
        <_>
          15 12 1 10 -1.</_>
        <_>
          15 17 1 5 2.</_></rects>
      <tilted>0</tilted></_>
    <_>
      <rects>
        <_>
          15 21 1 4 -1.</_>
        <_>
          15 23 1 2 2.</_></rects>
      <tilted>0</tilted></_>
    <_>
      <rects>
        <_>
          15 21 5 2 -1.</_>
        <_>
          15 22 5 1 2.</_></rects>
      <tilted>0</tilted></_>
    <_>
      <rects>
        <_>
          15 25 6 1 -1.</_>
        <_>
          17 25 2 1 3.</_></rects>
      <tilted>0</tilted></_>
    <_>
      <rects>
        <_>
          16 13 2 2 -1.</_>
        <_>
          16 14 2 1 2.</_></rects>
      <tilted>0</tilted></_>
    <_>
      <rects>
        <_>
          17 19 8 2 -1.</_>
        <_>
          21 19 4 2 2.</_></rects>
      <tilted>0</tilted></_>
    <_>
      <rects>
        <_>
          18 1 3 6 -1.</_>
        <_>
          19 1 1 6 3.</_></rects>
      <tilted>0</tilted></_>
    <_>
      <rects>
        <_>
          18 25 6 1 -1.</_>
        <_>
          21 25 3 1 2.</_></rects>
      <tilted>0</tilted></_>
    <_>
      <rects>
        <_>
          19 1 4 4 -1.</_>
        <_>
          21 1 2 4 2.</_></rects>
      <tilted>0</tilted></_>
    <_>
      <rects>
        <_>
          19 6 6 14 -1.</_>
        <_>
          19 13 6 7 2.</_></rects>
      <tilted>0</tilted></_>
    <_>
      <rects>
        <_>
          20 19 4 2 -1.</_>
        <_>
          20 20 4 1 2.</_></rects>
      <tilted>0</tilted></_>
    <_>
      <rects>
        <_>
          21 2 3 18 -1.</_>
        <_>
          22 2 1 18 3.</_></rects>
      <tilted>0</tilted></_>
    <_>
      <rects>
        <_>
          22 0 3 2 -1.</_>
        <_>
          22 1 3 1 2.</_></rects>
      <tilted>0</tilted></_>
    <_>
      <rects>
        <_>
          22 1 4 22 -1.</_>
        <_>
          24 1 2 22 2.</_></rects>
      <tilted>0</tilted></_>
    <_>
      <rects>
        <_>
          22 20 4 6 -1.</_>
        <_>
          22 20 2 3 2.</_>
        <_>
          24 23 2 3 2.</_></rects>
      <tilted>0</tilted></_>
    <_>
      <rects>
        <_>
          22 22 2 3 -1.</_>
        <_>
          23 22 1 3 2.</_></rects>
      <tilted>0</tilted></_>
    <_>
      <rects>
        <_>
          23 3 2 7 -1.</_>
        <_>
          24 3 1 7 2.</_></rects>
      <tilted>0</tilted></_>
    <_>
      <rects>
        <_>
          23 10 2 5 -1.</_>
        <_>
          24 10 1 5 2.</_></rects>
      <tilted>0</tilted></_>
    <_>
      <rects>
        <_>
          24 15 2 4 -1.</_>
        <_>
          24 15 1 2 2.</_>
        <_>
          25 17 1 2 2.</_></rects>
      <tilted>0</tilted></_>
    <_>
      <rects>
        <_>
          25 0 1 21 -1.</_>
        <_>
          25 7 1 7 3.</_></rects>
      <tilted>0</tilted></_>
    <_>
      <rects>
        <_>
          25 0 1 26 -1.</_>
        <_>
          25 13 1 13 2.</_></rects>
      <tilted>0</tilted></_>
    <_>
      <rects>
        <_>
          25 1 1 12 -1.</_>
        <_>
          25 5 1 4 3.</_></rects>
      <tilted>0</tilted></_>
    <_>
      <rects>
        <_>
          25 1 1 24 -1.</_>
        <_>
          25 13 1 12 2.</_></rects>
      <tilted>0</tilted></_>
    <_>
      <rects>
        <_>
          25 2 1 18 -1.</_>
        <_>
          25 8 1 6 3.</_></rects>
      <tilted>0</tilted></_>
    <_>
      <rects>
        <_>
          25 4 1 9 -1.</_>
        <_>
          25 7 1 3 3.</_></rects>
      <tilted>0</tilted></_>
    <_>
      <rects>
        <_>
          25 4 1 14 -1.</_>
        <_>
          25 11 1 7 2.</_></rects>
      <tilted>0</tilted></_>
    <_>
      <rects>
        <_>
          25 5 1 15 -1.</_>
        <_>
          25 10 1 5 3.</_></rects>
      <tilted>0</tilted></_>
    <_>
      <rects>
        <_>
          25 8 1 9 -1.</_>
        <_>
          25 11 1 3 3.</_></rects>
      <tilted>0</tilted></_>
    <_>
      <rects>
        <_>
          25 9 1 12 -1.</_>
        <_>
          25 13 1 4 3.</_></rects>
      <tilted>0</tilted></_>
    <_>
      <rects>
        <_>
          25 14 1 12 -1.</_>
        <_>
          25 20 1 6 2.</_></rects>
      <tilted>0</tilted></_>
    <_>
      <rects>
        <_>
          25 15 1 8 -1.</_>
        <_>
          25 19 1 4 2.</_></rects>
      <tilted>0</tilted></_>
    <_>
      <rects>
        <_>
          25 19 1 6 -1.</_>
        <_>
          25 21 1 2 3.</_></rects>
      <tilted>0</tilted></_></features></cascade>
</opencv_storage>
