<?xml version="1.0"?>
<opencv_storage>
<stage0>
  <maxWeakCount>5</maxWeakCount>
  <stageThreshold>-1.6028134822845459e+00</stageThreshold>
  <weakClassifiers>
    <_>
      <internalNodes>
        0 -1 105200 -5.3026419132947922e-02</internalNodes>
      <leafValues>
        1.4836685657501221e+00 -1.4836685657501221e+00</leafValues></_>
    <_>
      <internalNodes>
        0 -1 15171 1.7842192391981371e-05</internalNodes>
      <leafValues>
        1.2134648561477661e+00 -1.2134648561477661e+00</leafValues></_>
    <_>
      <internalNodes>
        0 -1 130929 3.3947221934795380e-02</internalNodes>
      <leafValues>
        -1.1304978132247925e+00 1.1304978132247925e+00</leafValues></_>
    <_>
      <internalNodes>
        0 -1 178 1.1359885684214532e-04</internalNodes>
      <leafValues>
        1.1477624177932739e+00 -1.1477624177932739e+00</leafValues></_>
    <_>
      <internalNodes>
        0 -1 153891 -1.6315676039084792e-03</internalNodes>
      <leafValues>
        1.1115845441818237e+00 -1.1115845441818237e+00</leafValues></_></weakClassifiers></stage0>
</opencv_storage>
