<?xml version="1.0"?>
<opencv_storage>
<stage19>
  <maxWeakCount>15</maxWeakCount>
  <stageThreshold>-1.9501354694366455e+00</stageThreshold>
  <weakClassifiers>
    <_>
      <internalNodes>
        0 -1 127662 1.0385447239968926e-05</internalNodes>
      <leafValues>
        -9.1629076004028320e-01 9.1629076004028320e-01</leafValues></_>
    <_>
      <internalNodes>
        0 -1 131301 -2.8218533843755722e-02</internalNodes>
      <leafValues>
        6.5478628873825073e-01 -6.5478628873825073e-01</leafValues></_>
    <_>
      <internalNodes>
        0 -1 77774 5.4465414723381400e-04</internalNodes>
      <leafValues>
        8.0466437339782715e-01 -8.0466437339782715e-01</leafValues></_>
    <_>
      <internalNodes>
        0 -1 148126 -1.0385447239968926e-05</internalNodes>
      <leafValues>
        7.1710115671157837e-01 -7.1710115671157837e-01</leafValues></_>
    <_>
      <internalNodes>
        0 -1 37315 -5.0404947251081467e-03</internalNodes>
      <leafValues>
        5.8682364225387573e-01 -5.8682364225387573e-01</leafValues></_>
    <_>
      <internalNodes>
        0 -1 40338 2.8629526495933533e-02</internalNodes>
      <leafValues>
        -6.4145684242248535e-01 6.4145684242248535e-01</leafValues></_>
    <_>
      <internalNodes>
        0 -1 182806 -4.5402230171021074e-05</internalNodes>
      <leafValues>
        -7.3891925811767578e-01 7.3891925811767578e-01</leafValues></_>
    <_>
      <internalNodes>
        0 -1 22721 -6.5366958733648062e-04</internalNodes>
      <leafValues>
        6.2072360515594482e-01 -6.2072360515594482e-01</leafValues></_>
    <_>
      <internalNodes>
        0 -1 106511 4.7640391858294606e-04</internalNodes>
      <leafValues>
        -5.1365864276885986e-01 5.1365864276885986e-01</leafValues></_>
    <_>
      <internalNodes>
        0 -1 9580 -1.4519705473503564e-05</internalNodes>
      <leafValues>
        -6.2322086095809937e-01 6.2322086095809937e-01</leafValues></_>
    <_>
      <internalNodes>
        0 -1 15201 -5.9000179171562195e-03</internalNodes>
      <leafValues>
        5.9334951639175415e-01 -5.9334951639175415e-01</leafValues></_>
    <_>
      <internalNodes>
        0 -1 151780 2.0770955830812454e-02</internalNodes>
      <leafValues>
        5.4703652858734131e-01 -5.4703652858734131e-01</leafValues></_>
    <_>
      <internalNodes>
        0 -1 93592 -1.0117070632986724e-04</internalNodes>
      <leafValues>
        5.9258800745010376e-01 -5.9258800745010376e-01</leafValues></_>
    <_>
      <internalNodes>
        0 -1 149313 7.3033850640058517e-04</internalNodes>
      <leafValues>
        -5.9150314331054688e-01 5.9150314331054688e-01</leafValues></_>
    <_>
      <internalNodes>
        0 -1 14763 -6.6867673012893647e-05</internalNodes>
      <leafValues>
        -5.6045490503311157e-01 5.6045490503311157e-01</leafValues></_></weakClassifiers></stage19>
</opencv_storage>
