<?xml version="1.0"?>
<opencv_storage>
<stage6>
  <maxWeakCount>10</maxWeakCount>
  <stageThreshold>-1.9740561246871948e+00</stageThreshold>
  <weakClassifiers>
    <_>
      <internalNodes>
        0 -1 16765 1.9453891582088545e-05</internalNodes>
      <leafValues>
        -1.1903671026229858e+00 1.1903671026229858e+00</leafValues></_>
    <_>
      <internalNodes>
        0 -1 52868 4.7640204429626465e-02</internalNodes>
      <leafValues>
        -8.1431043148040771e-01 8.1431043148040771e-01</leafValues></_>
    <_>
      <internalNodes>
        0 -1 77200 2.7960063889622688e-03</internalNodes>
      <leafValues>
        9.5479643344879150e-01 -9.5479643344879150e-01</leafValues></_>
    <_>
      <internalNodes>
        0 -1 66745 1.2336926162242889e-01</internalNodes>
      <leafValues>
        -8.2991534471511841e-01 8.2991534471511841e-01</leafValues></_>
    <_>
      <internalNodes>
        0 -1 138111 -1.4841675874777138e-04</internalNodes>
      <leafValues>
        -7.3289906978607178e-01 7.3289906978607178e-01</leafValues></_>
    <_>
      <internalNodes>
        0 -1 23578 1.6653295606374741e-02</internalNodes>
      <leafValues>
        -9.1155445575714111e-01 9.1155445575714111e-01</leafValues></_>
    <_>
      <internalNodes>
        0 -1 217609 -1.4415710211324040e-05</internalNodes>
      <leafValues>
        8.2694834470748901e-01 -8.2694834470748901e-01</leafValues></_>
    <_>
      <internalNodes>
        0 -1 13817 -1.0678172839106992e-04</internalNodes>
      <leafValues>
        -8.4994196891784668e-01 8.4994196891784668e-01</leafValues></_>
    <_>
      <internalNodes>
        0 -1 111763 2.6593536138534546e-02</internalNodes>
      <leafValues>
        -7.4874407052993774e-01 7.4874407052993774e-01</leafValues></_>
    <_>
      <internalNodes>
        0 -1 148328 4.3753400677815080e-04</internalNodes>
      <leafValues>
        8.1014627218246460e-01 -8.1014627218246460e-01</leafValues></_></weakClassifiers></stage6>
</opencv_storage>
