<?xml version="1.0"?>
<opencv_storage>
<stage1>
  <maxWeakCount>6</maxWeakCount>
  <stageThreshold>-2.4199302196502686e+00</stageThreshold>
  <weakClassifiers>
    <_>
      <internalNodes>
        0 -1 130927 -4.1248507797718048e-02</internalNodes>
      <leafValues>
        1.3118054866790771e+00 -1.3118054866790771e+00</leafValues></_>
    <_>
      <internalNodes>
        0 -1 91076 -1.1165522300871089e-04</internalNodes>
      <leafValues>
        -1.0500894784927368e+00 1.0500894784927368e+00</leafValues></_>
    <_>
      <internalNodes>
        0 -1 186662 -4.1307555511593819e-03</internalNodes>
      <leafValues>
        1.0520877838134766e+00 -1.0520877838134766e+00</leafValues></_>
    <_>
      <internalNodes>
        0 -1 48438 4.1321637108922005e-03</internalNodes>
      <leafValues>
        1.1329677104949951e+00 -1.1329677104949951e+00</leafValues></_>
    <_>
      <internalNodes>
        0 -1 194363 2.3493706976296380e-05</internalNodes>
      <leafValues>
        -1.0819125175476074e+00 1.0819125175476074e+00</leafValues></_>
    <_>
      <internalNodes>
        0 -1 170171 9.9391750991344452e-03</internalNodes>
      <leafValues>
        -9.9542176723480225e-01 9.9542176723480225e-01</leafValues></_></weakClassifiers></stage1>
</opencv_storage>
