<?xml version="1.0"?>
<opencv_storage>
<stage5>
  <maxWeakCount>10</maxWeakCount>
  <stageThreshold>-1.7606731653213501e+00</stageThreshold>
  <weakClassifiers>
    <_>
      <internalNodes>
        0 -1 214456 3.6222274502506480e-05</internalNodes>
      <leafValues>
        -9.8951238393783569e-01 9.8951238393783569e-01</leafValues></_>
    <_>
      <internalNodes>
        0 -1 109312 -1.0054454207420349e-02</internalNodes>
      <leafValues>
        8.0074918270111084e-01 -8.0074918270111084e-01</leafValues></_>
    <_>
      <internalNodes>
        0 -1 222758 3.1572622247040272e-03</internalNodes>
      <leafValues>
        9.3371766805648804e-01 -9.3371766805648804e-01</leafValues></_>
    <_>
      <internalNodes>
        0 -1 84497 1.8805377185344696e-02</internalNodes>
      <leafValues>
        -8.1051892042160034e-01 8.1051892042160034e-01</leafValues></_>
    <_>
      <internalNodes>
        0 -1 53 -2.3563755676150322e-03</internalNodes>
      <leafValues>
        -9.9114769697189331e-01 9.9114769697189331e-01</leafValues></_>
    <_>
      <internalNodes>
        0 -1 132666 -6.8426281213760376e-02</internalNodes>
      <leafValues>
        8.6928182840347290e-01 -8.6928182840347290e-01</leafValues></_>
    <_>
      <internalNodes>
        0 -1 48436 -1.7486127326264977e-03</internalNodes>
      <leafValues>
        -8.0777949094772339e-01 8.0777949094772339e-01</leafValues></_>
    <_>
      <internalNodes>
        0 -1 48113 -9.7602387540973723e-05</internalNodes>
      <leafValues>
        8.1683206558227539e-01 -8.1683206558227539e-01</leafValues></_>
    <_>
      <internalNodes>
        0 -1 21781 8.0577209591865540e-02</internalNodes>
      <leafValues>
        -6.6918772459030151e-01 6.6918772459030151e-01</leafValues></_>
    <_>
      <internalNodes>
        0 -1 32739 6.9999304832890630e-04</internalNodes>
      <leafValues>
        8.2402163743972778e-01 -8.2402163743972778e-01</leafValues></_></weakClassifiers></stage5>
</opencv_storage>
