<?xml version="1.0"?>
<opencv_storage>
<stage8>
  <maxWeakCount>7</maxWeakCount>
  <stageThreshold>-1.5007241964340210e+00</stageThreshold>
  <weakClassifiers>
    <_>
      <internalNodes>
        0 -1 222973 3.1118790502659976e-05</internalNodes>
      <leafValues>
        -1.2500638961791992e+00 1.2500638961791992e+00</leafValues></_>
    <_>
      <internalNodes>
        0 -1 2490 2.3744467180222273e-03</internalNodes>
      <leafValues>
        8.1364780664443970e-01 -8.1364780664443970e-01</leafValues></_>
    <_>
      <internalNodes>
        0 -1 189322 -3.2169038604479283e-05</internalNodes>
      <leafValues>
        9.1778522729873657e-01 -9.1778522729873657e-01</leafValues></_>
    <_>
      <internalNodes>
        0 -1 125838 -3.2587617170065641e-03</internalNodes>
      <leafValues>
        7.6265895366668701e-01 -7.6265895366668701e-01</leafValues></_>
    <_>
      <internalNodes>
        0 -1 17518 -2.3073548800311983e-04</internalNodes>
      <leafValues>
        -7.6310747861862183e-01 7.6310747861862183e-01</leafValues></_>
    <_>
      <internalNodes>
        0 -1 144925 -2.5842715986073017e-03</internalNodes>
      <leafValues>
        9.0751516819000244e-01 -9.0751516819000244e-01</leafValues></_>
    <_>
      <internalNodes>
        0 -1 928 4.2345700785517693e-03</internalNodes>
      <leafValues>
        7.6054382324218750e-01 -7.6054382324218750e-01</leafValues></_></weakClassifiers></stage8>
</opencv_storage>
