<?xml version="1.0"?>
<opencv_storage>
<stage4>
  <maxWeakCount>7</maxWeakCount>
  <stageThreshold>-1.0417460203170776e+00</stageThreshold>
  <weakClassifiers>
    <_>
      <internalNodes>
        0 -1 7087 1.0385447239968926e-05</internalNodes>
      <leafValues>
        -9.7890430688858032e-01 9.7890430688858032e-01</leafValues></_>
    <_>
      <internalNodes>
        0 -1 158793 -8.1709191203117371e-02</internalNodes>
      <leafValues>
        8.0988675355911255e-01 -8.0988675355911255e-01</leafValues></_>
    <_>
      <internalNodes>
        0 -1 17116 -1.2515343260020018e-03</internalNodes>
      <leafValues>
        -9.9423784017562866e-01 9.9423784017562866e-01</leafValues></_>
    <_>
      <internalNodes>
        0 -1 8021 -3.2976217567920685e-02</internalNodes>
      <leafValues>
        9.2755764722824097e-01 -9.2755764722824097e-01</leafValues></_>
    <_>
      <internalNodes>
        0 -1 432 2.4291090085171163e-04</internalNodes>
      <leafValues>
        8.0607247352600098e-01 -8.0607247352600098e-01</leafValues></_>
    <_>
      <internalNodes>
        0 -1 163457 1.1454513296484947e-03</internalNodes>
      <leafValues>
        -8.7542009353637695e-01 8.7542009353637695e-01</leafValues></_>
    <_>
      <internalNodes>
        0 -1 222966 1.3914897572249174e-03</internalNodes>
      <leafValues>
        8.8307279348373413e-01 -8.8307279348373413e-01</leafValues></_></weakClassifiers></stage4>
</opencv_storage>
