<?xml version="1.0"?>
<opencv_storage>
<stage17>
  <maxWeakCount>10</maxWeakCount>
  <stageThreshold>-1.8868347406387329e+00</stageThreshold>
  <weakClassifiers>
    <_>
      <internalNodes>
        0 -1 158388 8.6599471978843212e-04</internalNodes>
      <leafValues>
        -8.6537063121795654e-01 8.6537063121795654e-01</leafValues></_>
    <_>
      <internalNodes>
        0 -1 103511 -2.2391579113900661e-04</internalNodes>
      <leafValues>
        -7.0359730720520020e-01 7.0359730720520020e-01</leafValues></_>
    <_>
      <internalNodes>
        0 -1 80794 1.5381366014480591e-01</internalNodes>
      <leafValues>
        -8.9357364177703857e-01 8.9357364177703857e-01</leafValues></_>
    <_>
      <internalNodes>
        0 -1 222829 1.6084413800854236e-04</internalNodes>
      <leafValues>
        7.6447290182113647e-01 -7.6447290182113647e-01</leafValues></_>
    <_>
      <internalNodes>
        0 -1 185999 -5.5193500593304634e-03</internalNodes>
      <leafValues>
        7.0091688632965088e-01 -7.0091688632965088e-01</leafValues></_>
    <_>
      <internalNodes>
        0 -1 106277 -1.8686837574932724e-04</internalNodes>
      <leafValues>
        -7.6917141675949097e-01 7.6917141675949097e-01</leafValues></_>
    <_>
      <internalNodes>
        0 -1 11984 2.7939151550526731e-05</internalNodes>
      <leafValues>
        -7.0921444892883301e-01 7.0921444892883301e-01</leafValues></_>
    <_>
      <internalNodes>
        0 -1 144910 9.3971041496843100e-04</internalNodes>
      <leafValues>
        -6.2327015399932861e-01 6.2327015399932861e-01</leafValues></_>
    <_>
      <internalNodes>
        0 -1 222844 -1.3495263410732150e-03</internalNodes>
      <leafValues>
        -7.1088474988937378e-01 7.1088474988937378e-01</leafValues></_>
    <_>
      <internalNodes>
        0 -1 134521 -1.2283895630389452e-03</internalNodes>
      <leafValues>
        7.5081282854080200e-01 -7.5081282854080200e-01</leafValues></_></weakClassifiers></stage17>
</opencv_storage>
