<?xml version="1.0"?>
<opencv_storage>
<stage18>
  <maxWeakCount>14</maxWeakCount>
  <stageThreshold>-2.0615005493164063e+00</stageThreshold>
  <weakClassifiers>
    <_>
      <internalNodes>
        0 -1 189272 -3.7081204936839640e-05</internalNodes>
      <leafValues>
        1.1554458141326904e+00 -1.1554458141326904e+00</leafValues></_>
    <_>
      <internalNodes>
        0 -1 1591 -5.2936658903490752e-05</internalNodes>
      <leafValues>
        6.9227498769760132e-01 -6.9227498769760132e-01</leafValues></_>
    <_>
      <internalNodes>
        0 -1 115973 -2.2205039858818054e-03</internalNodes>
      <leafValues>
        -7.2993701696395874e-01 7.2993701696395874e-01</leafValues></_>
    <_>
      <internalNodes>
        0 -1 82475 -8.1538140773773193e-02</internalNodes>
      <leafValues>
        8.1617724895477295e-01 -8.1617724895477295e-01</leafValues></_>
    <_>
      <internalNodes>
        0 -1 222751 2.7107398491352797e-03</internalNodes>
      <leafValues>
        7.4726152420043945e-01 -7.4726152420043945e-01</leafValues></_>
    <_>
      <internalNodes>
        0 -1 18820 8.5239872336387634e-02</internalNodes>
      <leafValues>
        -6.8477231264114380e-01 6.8477231264114380e-01</leafValues></_>
    <_>
      <internalNodes>
        0 -1 32742 -7.5212307274341583e-04</internalNodes>
      <leafValues>
        -6.5504336357116699e-01 6.5504336357116699e-01</leafValues></_>
    <_>
      <internalNodes>
        0 -1 182643 -7.5739153544418514e-05</internalNodes>
      <leafValues>
        7.1169090270996094e-01 -7.1169090270996094e-01</leafValues></_>
    <_>
      <internalNodes>
        0 -1 215162 -1.7259768355870619e-05</internalNodes>
      <leafValues>
        6.6288381814956665e-01 -6.6288381814956665e-01</leafValues></_>
    <_>
      <internalNodes>
        0 -1 163442 3.3503874874440953e-05</internalNodes>
      <leafValues>
        -6.0384124517440796e-01 6.0384124517440796e-01</leafValues></_>
    <_>
      <internalNodes>
        0 -1 83537 3.3425493165850639e-04</internalNodes>
      <leafValues>
        6.6063511371612549e-01 -6.6063511371612549e-01</leafValues></_>
    <_>
      <internalNodes>
        0 -1 163929 4.9445303156971931e-03</internalNodes>
      <leafValues>
        -6.1331015825271606e-01 6.1331015825271606e-01</leafValues></_>
    <_>
      <internalNodes>
        0 -1 201967 -2.5818124413490295e-04</internalNodes>
      <leafValues>
        -5.6380766630172729e-01 5.6380766630172729e-01</leafValues></_>
    <_>
      <internalNodes>
        0 -1 153939 4.3148482218384743e-03</internalNodes>
      <leafValues>
        -6.8547135591506958e-01 6.8547135591506958e-01</leafValues></_></weakClassifiers></stage18>
</opencv_storage>
